219 300
</s> 0.001334 0.001473 -0.001277 -0.001093 0.000456 0.001007 0.000314 0.000070 -0.001201 0.000739 -0.001452 0.000417 -0.000250 -0.000319 -0.001105 -0.000627 0.000860 0.001008 0.000990 0.000532 0.000515 -0.001268 -0.001365 0.001657 0.001267 0.001030 -0.000201 0.001339 -0.000165 0.000245 -0.000050 -0.000994 0.000437 -0.000446 -0.001275 0.001585 0.001460 -0.000365 -0.000075 0.000170 -0.001213 -0.001336 0.001518 0.000021 -0.000861 -0.001014 -0.001025 0.000566 0.000067 0.000444 -0.001405 -0.001269 -0.000043 0.000381 0.000850 -0.001057 0.001360 0.000309 0.000373 -0.000203 0.000995 -0.000763 -0.000699 0.000719 -0.000251 0.000344 0.000602 -0.001363 -0.000661 0.000971 0.001411 0.001311 -0.001016 -0.000703 -0.000303 0.000667 -0.001263 0.000999 0.000929 -0.000533 -0.000517 -0.000746 0.001410 0.001304 -0.000393 0.001405 0.001607 0.000605 0.001661 -0.001037 -0.000511 -0.000702 -0.000969 0.000938 0.000526 0.000142 -0.000731 0.000508 0.001020 0.000065 0.000760 -0.001651 0.001438 0.000160 -0.000610 -0.000694 -0.000249 -0.000978 -0.001457 -0.000946 0.001426 -0.000590 -0.000893 0.000772 -0.000568 0.001586 -0.000535 -0.001530 0.000905 -0.000025 -0.001163 0.000325 0.000481 -0.000160 0.000608 -0.001319 0.000294 0.000606 -0.001003 0.000047 -0.000020 -0.000800 -0.000944 -0.001565 0.000008 0.000051 0.000003 -0.001311 -0.001654 -0.001582 -0.001442 -0.000182 0.000464 0.000395 -0.001061 0.001666 -0.000670 -0.000425 -0.000468 0.001578 -0.001255 0.000387 -0.000445 0.001063 0.000014 0.001423 -0.000940 -0.000868 -0.001397 -0.001222 -0.001066 -0.001038 0.000815 -0.000622 0.000893 0.001230 0.000452 0.000984 0.000825 0.000780 -0.001184 -0.001144 -0.001219 -0.000044 0.001377 -0.000912 -0.001020 -0.001399 0.001102 -0.001393 -0.000193 0.000726 -0.001539 -0.001493 0.000481 0.001175 0.001421 0.000715 0.001054 -0.001043 -0.001213 0.001325 -0.000922 0.000584 0.000191 0.000597 -0.000394 0.000066 -0.000562 -0.000376 -0.001478 -0.001087 0.001162 0.000335 -0.000788 -0.000531 0.000832 -0.001178 -0.000771 0.001578 0.001416 -0.001320 0.000290 -0.000750 0.000051 0.001002 0.001615 0.000662 0.001371 0.001049 -0.000077 0.001492 0.000845 0.001580 -0.000568 0.001582 0.001443 -0.000476 -0.001473 0.001611 0.000299 -0.000693 -0.000239 -0.000245 -0.001284 -0.000477 -0.000148 -0.001642 -0.001172 -0.000401 -0.000314 0.000597 0.000272 -0.000205 0.000982 0.000482 0.000183 0.001206 -0.000375 -0.000476 -0.000138 -0.000909 -0.001000 0.000067 0.001446 -0.000456 -0.000007 -0.001378 0.001236 -0.000507 0.000989 -0.000803 -0.000298 0.000031 0.001208 -0.000029 0.001478 -0.000248 0.000700 -0.000046 -0.001301 0.001417 0.000352 -0.001010 0.001003 -0.001382 -0.001451 0.001089 -0.001144 -0.000883 0.001176 0.001095 0.000228 0.001508 0.001619 0.001352 0.000588 -0.001450 0.000763 -0.001631 -0.000429 0.000504 0.000327 -0.000508 0.000979 -0.001536 -0.000470 -0.000437 -0.000552 0.001024 
3 -0.503058 -0.911167 1.052848 -0.449724 -0.558134 0.399948 -0.383738 -0.647835 0.252896 -0.545676 -0.199510 -0.822015 0.529113 -0.359704 -0.314407 -0.417845 0.677064 0.034007 -0.085047 -0.374410 -1.355379 -0.545360 -0.259796 -0.164608 -0.367289 0.374881 -0.897749 0.162780 0.421828 0.400611 -0.068003 0.243163 -0.775260 -0.221856 0.191291 -0.490887 0.377702 -1.373332 -0.336510 -0.063099 0.465127 0.973280 0.405506 0.739411 -0.269254 0.240126 0.599150 -0.092210 1.103387 -0.280234 -0.082589 0.446485 -0.034812 0.161575 -0.119034 0.141354 0.563420 0.696620 0.332508 -0.479724 0.314381 0.378694 -0.711727 -0.415661 0.133789 0.074880 0.449832 0.157920 -0.148957 -0.037408 0.106581 -0.708535 -0.932016 -0.628620 0.258233 0.879087 -0.279849 -0.287820 -0.213745 -0.570823 0.840125 -0.266099 -0.146242 0.069379 -0.493945 0.643229 -0.722738 -0.549831 1.029035 0.092723 -0.196425 0.845633 -0.890323 0.009649 0.244810 0.304823 0.378755 -0.057478 0.113717 -0.819452 -0.682924 0.349099 -0.672759 0.014159 -0.071883 -0.538243 0.629057 -0.818457 -0.634286 0.456932 0.870594 1.217211 -0.417573 0.360390 -0.544109 0.365262 -0.561400 -0.700759 -0.593366 0.929514 0.569254 -0.426773 -0.689195 -0.585938 -0.413094 -0.491040 -0.986327 -0.023979 0.306602 -0.171998 0.932224 -0.394326 -0.335113 0.307958 -0.719847 -0.052016 0.589477 0.663973 -0.251142 0.036225 0.141587 0.149317 -0.611149 0.313542 -0.136054 -0.000516 -0.398516 -0.195706 -0.237337 -1.467650 0.327115 0.014361 -0.238919 -0.067490 0.684805 0.028791 1.104517 0.360324 0.213927 -0.669475 -0.292443 -0.635413 0.265890 1.093714 -0.279132 -0.314011 -0.327794 0.120134 0.363141 0.009990 1.668083 -0.635965 0.539209 0.000880 0.333676 1.515467 0.732777 0.623437 0.316075 0.518362 -0.732262 -0.415892 0.126549 0.832511 0.437839 -0.461488 -0.242438 0.653146 -0.342824 -0.626557 -0.341277 -0.555043 0.889717 -0.445269 0.139102 -0.328612 -0.579277 0.548753 0.715790 0.950663 -0.137370 0.357977 -0.010543 -0.231470 0.493953 -0.145990 -0.486572 -0.136841 0.065149 0.132883 -0.073280 0.104766 -0.267471 0.101225 -0.503105 -0.012885 -0.467364 0.423454 0.217717 0.320721 1.289236 -0.799660 0.406506 0.679368 1.313877 -0.546172 1.066533 -0.423775 -0.030105 0.472440 -0.583089 0.250379 -0.146573 -0.483584 -0.484156 0.722534 0.402102 -0.530121 0.146313 0.566215 0.712436 -0.191330 -0.511813 0.214107 -0.028359 0.597477 -0.188428 0.418620 0.956756 0.788252 -0.027055 0.338677 0.284979 0.878308 -0.421700 0.138221 0.444577 -0.109805 -0.450219 0.005368 -0.003248 0.222444 0.942482 0.186018 -0.260193 0.015189 -0.006605 -0.197961 0.595368 0.199871 0.875332 -0.552147 -0.012097 -1.392049 -0.080176 -0.364239 -0.614529 -0.469480 -0.160585 0.639594 0.167425 -1.410248 0.600369 0.650723 -0.572831 -0.458424 -0.234222 -0.491352 0.066403 -0.777223 0.089685 -0.036096 0.274926 -0.139469 -0.377634 -1.753057 -0.308958 0.154166 -0.604322 -0.117819 
1 -0.333482 -0.383179 0.534251 -0.225888 -0.223719 -0.296229 -0.080878 0.035828 0.040750 -0.790068 -0.404356 -0.788206 0.108558 0.626775 0.001321 -0.248591 -0.113562 -0.449283 -0.411587 0.693144 -0.629967 -0.233211 0.131822 -0.086198 1.193097 -0.416183 -0.379192 0.167586 0.406091 -0.517692 -0.106247 0.388958 -0.015740 0.239621 0.535578 -0.692076 0.589860 0.391790 -0.747356 0.622731 -0.041278 -0.274410 0.827488 -0.412142 -0.444129 -0.550559 0.266288 -0.169109 0.320656 0.157205 0.110251 0.382199 -0.206977 -0.128370 -0.112713 -0.177718 -0.233945 1.313567 0.532760 -0.365161 0.009873 -0.060660 0.178001 -0.221571 -1.322214 0.567265 -0.260552 -0.626022 -1.050862 -0.286138 0.239652 -0.221098 -0.759542 0.778824 0.819571 -0.005671 -0.167739 -1.049601 -0.137331 -0.657642 0.936348 -0.552395 0.144350 -0.119219 0.025187 -0.393962 0.089108 -0.144753 0.193848 0.318124 0.708047 -0.591894 -0.237268 -0.044028 0.762337 -0.655537 -0.136099 0.133343 0.290842 -0.659867 -1.160360 -0.451127 0.003531 1.456717 0.181885 -0.093083 -0.818223 -0.158983 -0.005638 0.507917 0.014908 -0.010749 -0.127236 0.499348 -0.964672 0.556155 -1.140817 -1.094654 0.106933 0.063156 0.028860 0.428272 -0.552303 -0.877580 -1.160240 -0.270895 0.535073 -0.873536 0.555419 0.551967 0.773785 -0.472085 -0.996480 0.083347 -0.139966 1.178227 -0.321354 -0.301038 -0.474214 -0.991165 -0.469484 -0.216705 -1.152648 -0.135469 -0.158458 0.736054 -0.812711 -1.314433 0.259209 -0.546358 -0.079574 0.070903 -0.275414 0.222939 0.559892 0.508212 0.792947 1.168252 0.323597 0.696503 -0.527340 -0.651176 0.879223 1.017673 0.929276 -0.231509 -0.076377 0.238644 0.197610 0.315431 0.395518 0.607839 -0.512263 0.073961 -0.753184 0.444382 -0.358165 -0.654947 0.057812 0.710282 -0.710557 -0.801331 -0.140746 -0.454242 -0.327717 -0.631153 0.000783 0.922511 -0.768790 0.459407 0.389453 -0.617616 0.841108 -0.087098 0.520662 -0.322852 -0.433808 -0.286912 0.196971 0.163761 -0.564934 -0.069715 -0.034126 -0.515175 0.770317 -0.224314 -0.269964 -0.157738 0.023465 -0.205958 0.158655 0.323066 0.541182 0.306578 -0.298703 -0.479338 -0.238328 -0.002645 -0.172809 -0.337709 0.864990 -0.661922 0.938719 0.117564 0.341826 -0.105581 0.407359 0.102128 -0.008048 0.140086 -0.238688 -0.223292 0.546020 0.212513 0.101161 -1.521837 -0.263892 0.728947 -0.059427 -0.163474 0.825771 -0.050915 -1.043087 -0.292063 0.892584 -0.561705 0.037020 0.761825 0.821831 1.112524 0.046106 -0.126145 0.178995 -0.155798 0.035980 -0.005845 0.209532 0.003306 -0.655479 0.283870 0.402633 0.549743 0.769069 -0.135354 0.174167 -0.396973 0.659317 -0.272963 0.012806 -1.133037 -0.266816 -1.205313 0.054731 -0.609856 0.341581 -0.584182 -0.410943 0.279918 -0.836206 0.517959 -0.523552 -1.243514 -0.135821 0.347293 -0.326597 -0.056011 -0.543752 -0.698668 0.068378 0.392759 0.809996 0.130803 -0.521488 0.026249 0.693163 -0.796302 -0.526497 0.617964 -0.731720 0.427561 
2 0.398332 -0.621778 0.821157 -0.447114 -0.056011 -0.932317 0.398590 -0.484284 -0.523356 -0.593613 0.016171 -0.837512 0.207930 0.368461 -0.246244 0.096247 0.432596 -0.589461 0.007919 0.450572 -0.191549 -0.051033 0.082690 -0.398420 1.076849 -0.413860 -0.708078 0.442169 -0.221187 -0.097183 -0.313769 0.777604 -0.508272 0.252923 0.221100 -0.732359 0.001814 0.482476 -0.452835 0.608089 -0.222597 -0.946721 0.725242 0.046120 0.098170 -0.599504 0.306860 0.274097 0.324807 0.833051 -0.128094 0.832856 -0.303586 -0.294703 0.689776 -0.081474 -0.455755 1.102211 0.318126 -0.532236 -0.263452 0.641704 -0.172651 -0.246319 -1.203006 0.193148 -0.309473 -0.622700 -0.934221 -0.809110 -0.308408 -0.562337 -0.544066 0.732806 0.354502 0.175371 0.235211 -0.562347 -0.308973 -0.750757 0.963520 0.107660 0.169917 -0.480721 0.357740 -0.641906 -0.317313 0.221069 0.162704 0.475270 0.232930 -0.389209 -0.790191 -0.494573 0.398034 -0.365205 -0.150433 0.726455 0.271964 -1.249092 -0.684939 -0.439648 -0.331424 1.630993 0.074829 -0.082591 -0.367454 0.083005 -0.152627 0.216926 0.062594 -0.032503 -0.011559 0.628672 -0.834656 0.242070 -0.880773 -0.541736 -0.123236 0.109409 0.384759 0.399594 -0.397453 -0.704413 -0.972492 -0.131999 -0.117254 -0.927630 0.657111 0.531960 0.896117 -0.410682 -0.710013 0.069157 -0.220616 1.029315 -0.528505 -0.403279 -0.613424 -1.496197 -0.222952 -0.264861 -1.522378 -0.563744 -0.009678 0.984955 -0.727246 -1.330230 0.449590 -0.467526 0.541222 -0.243087 -0.353929 0.308389 0.427726 -0.141902 1.031923 1.166628 -0.184279 0.800687 -0.272173 -0.481343 -0.069326 1.165934 0.716348 -0.281419 -0.288628 0.058916 -0.299214 -0.323006 0.577710 0.422309 -0.740103 0.321294 -0.687643 0.264475 -0.868729 -0.717579 0.137886 0.882970 -0.197695 -0.654547 0.159611 -0.621573 0.142976 -0.323993 -0.203254 1.661578 -0.470180 0.209627 0.673451 -0.657103 0.432175 -0.255882 0.524721 -0.115712 -0.245356 -0.352945 0.813358 0.061254 0.064608 -0.125142 0.350565 -0.985434 0.739442 -0.454243 -0.582239 -0.076100 0.345038 -0.075846 0.241379 -0.013962 0.326265 0.512207 -0.464278 -0.464445 -0.968716 0.238656 -0.053343 0.303955 0.639879 -0.804883 0.534968 0.504344 0.538917 0.264161 0.200294 0.050069 -0.131757 0.232977 -0.251143 -0.209281 0.700060 0.358804 0.104820 -1.658123 -0.280745 0.814526 -0.144941 -0.731577 0.207974 -0.262237 -1.564096 -0.522513 0.716476 -0.322568 0.501523 0.456754 0.512020 1.209022 -0.345609 0.284620 0.228336 -0.820275 0.381220 -0.190161 0.270424 0.246924 -0.226725 0.000234 0.270154 0.688385 1.076072 -0.177465 0.050603 -0.162990 1.313716 -0.373283 0.004428 -0.791415 -0.137742 -0.787450 0.350046 -0.805547 0.536595 -0.879300 -0.418519 0.119023 -0.933004 0.404697 -0.775718 -1.366977 -0.240138 0.277936 -0.037903 0.113622 -0.810373 -0.598432 -0.092283 0.153873 0.893579 -0.119114 -0.695031 0.472302 0.607567 -0.550102 -0.249308 0.700215 -1.119033 0.328010 
c -0.528618 -0.965919 0.605693 -0.639552 -1.132752 1.063733 -0.992072 0.164243 1.068415 -0.850656 0.008245 -0.364731 -0.014088 0.068030 -0.093680 -0.094542 0.909244 0.919177 -0.255277 -0.088184 -1.524605 0.314012 -0.158429 0.071905 -0.656984 0.302855 -0.910111 -0.425834 0.578879 -0.064174 0.690951 0.122529 -1.176974 -0.778070 0.297176 -0.793573 0.658810 -1.666314 -0.251203 -0.909300 0.970840 2.794255 0.489278 0.149253 -0.665376 0.017344 1.226533 -0.589694 0.965158 -0.648091 0.239158 0.330341 0.714682 1.750823 -0.748925 1.090538 1.569912 0.329746 1.148012 -0.655139 0.665329 -0.214301 -0.242723 0.054890 -0.021495 0.074568 0.687199 0.601036 0.132060 -0.442475 0.449016 -0.920155 -0.834887 0.230880 0.766050 0.473654 -0.623921 -0.562993 0.450584 -0.622254 -0.105370 -0.201434 0.536547 0.054369 -1.406581 2.065928 -0.685377 -1.405709 0.371462 0.745488 0.249257 1.640532 -0.400486 0.225461 0.748673 1.034445 0.952244 -0.778542 0.419652 -0.496682 -0.929860 0.251177 -0.050061 0.105740 -0.262304 -0.886392 0.944799 -0.665574 -0.349299 0.382353 0.348661 1.828514 -0.622488 -0.356573 -0.079778 0.733754 0.508602 -0.699681 -0.852008 0.694219 1.227097 -1.176449 -1.090341 -0.234899 -0.260426 0.144269 -0.983371 0.575002 0.359250 -0.607745 1.507848 -0.162363 0.166885 0.790983 -0.072497 -0.995977 1.075764 1.104600 0.094808 0.120452 0.449443 0.077593 -0.492724 0.935164 -0.377135 -0.510670 -0.513422 1.356207 -0.012787 -2.563006 0.478065 0.655922 -0.423874 -1.529378 0.495394 -0.028317 1.757226 0.743189 -0.176509 -1.126289 -0.363381 -1.058755 0.977324 1.025082 -0.971960 0.030162 -0.139666 -0.180218 0.735613 0.262768 1.730552 -0.804795 0.339533 0.342593 0.905972 1.556654 0.638246 1.536455 -0.042687 0.448298 -0.625146 0.666436 -0.119525 0.867657 0.312901 -1.032520 1.043449 -0.128880 -0.978053 -1.922518 -1.024683 -0.481457 0.301402 -0.747898 -0.684034 -0.339295 -0.411605 0.275561 0.683870 0.656586 -0.282381 0.713609 -0.791877 -0.084324 0.312592 -0.329993 -0.876923 0.158898 0.461946 -0.257082 0.050691 0.809264 -0.956023 0.496151 -0.425467 0.503946 0.594920 1.076635 0.535389 -0.665807 2.180253 -0.087505 0.503963 1.271514 1.249663 -1.156075 1.316008 -0.296857 0.140275 0.077564 -0.290193 -0.112900 -0.404482 -0.796926 -0.824368 1.078118 0.512485 -1.524177 0.276291 0.378853 0.625825 -0.247930 0.162802 0.777224 -0.808724 0.596322 -0.643497 0.594783 0.685738 0.770358 -0.117421 0.768867 -0.080958 1.850021 -0.732546 -0.827106 0.727675 0.208818 -0.208488 0.147821 0.329719 0.649023 0.739321 1.133017 -0.150364 -0.742890 -0.410419 0.116345 1.289921 0.533489 1.089615 -0.681766 0.469326 -0.592686 -0.745899 -0.379991 -0.536538 -0.960357 -0.341686 0.570127 0.386796 -1.601741 1.254096 1.333082 -0.068873 -1.182383 0.327574 -0.513348 0.614779 -1.175563 0.355318 -0.449197 -0.083110 -0.358320 -0.824805 -1.979311 -1.068791 -0.127876 -0.097333 -1.172888 
a 0.362938 -0.190034 -0.374059 0.441618 -1.106676 -0.719348 -0.394585 0.231376 -0.202697 -0.546066 0.552638 1.121410 -0.066559 0.211154 -0.154257 0.066642 0.656020 0.482981 0.322098 0.485193 0.185720 -0.216136 -0.154209 -0.119268 0.366276 0.472013 0.004318 -0.217081 -0.612348 -0.858446 0.368324 0.284791 0.263816 -0.438210 0.273619 -1.591861 -0.015491 -0.454985 -0.565861 -0.238935 -0.347363 -0.109273 0.354249 -0.138880 0.365516 -0.676337 1.436025 0.340238 0.024381 -0.205455 -0.163283 0.419590 0.201609 0.760082 0.236238 -0.719599 0.586032 -0.598363 0.176607 0.096641 0.767230 0.054563 0.462353 -0.288871 -0.126740 -0.275803 -0.471147 0.196828 0.208480 0.367338 -0.366373 0.473380 0.711808 0.205891 -0.119983 0.580861 -0.410020 0.110887 0.048872 -0.002037 -0.434623 0.324086 0.477502 0.046250 -0.346765 0.632268 -0.774884 -0.129058 0.078785 0.909137 -0.037243 -0.158040 0.122090 0.303921 -0.492780 0.080347 -0.034499 -0.059842 0.735047 0.146457 -0.333080 0.406789 -0.050468 0.327129 0.220674 -0.381404 0.543907 -0.574582 0.276614 -0.321881 -0.110667 -0.403097 -0.244798 -0.836788 -0.299920 0.913614 0.113335 0.260050 -0.072043 -0.035642 0.045897 0.177607 0.189829 -0.312036 0.481179 0.343441 0.139996 0.143675 0.306556 -0.437183 0.238172 0.201807 -0.080965 -0.226624 0.548923 -0.033548 0.575006 -0.429986 0.376488 -0.418706 0.221495 0.282113 -0.424391 0.265971 -0.484916 0.180719 0.161500 0.231310 0.605062 0.134397 -0.236368 0.930351 -0.501390 -0.491888 -0.232053 0.072269 0.447707 -0.154366 -0.418443 0.017910 0.417117 -0.276369 -0.225538 -0.416088 0.188131 0.037537 0.833199 -0.173713 -0.348410 0.092164 0.269662 0.510784 -0.907471 0.267102 0.729023 -0.307179 -0.200536 0.414729 0.292861 -0.559171 1.126327 0.628098 -0.406662 0.409241 -0.384950 -0.424152 0.238973 0.330370 0.746173 -0.139015 -0.487796 -0.154315 0.658455 -0.079264 -0.133951 0.123202 0.378931 0.064507 0.506685 -0.647499 -0.201425 -0.399386 -0.298282 -0.746505 -0.643103 -0.271433 -0.075554 0.383296 -0.645051 -0.211914 0.886734 0.217136 0.237502 0.341531 -0.013688 0.364468 0.133482 0.187374 0.116699 -0.573426 -0.277058 0.312067 -0.151813 0.834527 -0.257605 -0.377435 -0.373085 -0.350748 0.365477 -0.390731 0.360991 -0.470858 -0.298783 -0.026212 0.649974 -0.138952 -0.229607 0.022358 1.270199 -0.304552 -1.267077 0.342355 0.502682 0.107799 -0.069512 0.221137 -0.648608 0.870040 -0.870575 0.609958 0.276980 -0.497455 -0.262606 0.893387 -0.313284 -0.842899 0.275403 0.476379 0.420655 0.199339 0.181440 -0.192819 0.133710 -0.212785 -0.096602 -0.139592 0.494249 0.240159 -0.011560 -0.244098 -0.722115 0.071188 0.666374 0.252188 0.264285 -0.141431 -0.230966 -0.706324 -0.709886 0.104813 0.173646 -0.719487 -0.303263 0.881457 -0.066041 0.076824 -0.072610 0.148337 0.284529 -0.541311 0.762901 -0.516781 -0.084730 0.247430 0.018813 -0.429236 -0.087489 0.660722 -1.215386 -0.075894 
4 0.382834 -0.456552 0.589871 -0.017217 -0.341728 -0.454532 0.027331 0.130194 -1.250141 -0.548909 0.157175 -0.036070 0.144950 0.142031 0.451033 -0.127253 0.438172 0.378001 -0.360393 0.664968 -0.102591 -0.802791 0.305006 -0.175303 1.002751 0.377560 -0.770048 0.701253 -0.351252 -0.885969 -0.089295 0.377347 -0.249239 0.562479 -0.340626 -1.550245 -0.232070 0.164380 -1.036232 0.723615 -0.107276 -0.414906 0.376256 -0.006590 -0.097719 -0.724822 0.997588 -0.553933 0.667251 0.249554 -0.613386 0.462934 0.514039 0.700507 1.270531 -1.110604 -0.638344 1.074810 0.133939 -0.201288 0.412996 0.279888 -0.851800 -0.229810 -1.445120 0.284528 -0.400727 -0.576798 -0.379200 -0.357141 -0.163009 -0.333011 0.261276 0.344075 -0.103806 0.748616 0.291390 -0.752590 0.211535 -0.201539 0.014187 0.335460 0.193864 -0.498859 0.415503 0.491024 0.308966 0.104554 0.397323 1.196109 0.151388 -0.259147 -0.835206 -0.204543 0.067666 -0.260788 -0.563862 0.299967 0.627989 -0.809250 -0.489361 0.036765 -0.218772 1.252846 0.030305 -0.195402 0.377471 -0.090719 0.255747 -0.132690 -0.945728 -0.964528 0.860212 -0.407247 -1.005122 0.620828 -0.297953 -0.271055 -0.090265 -0.104211 0.522764 -0.253800 -0.711218 -0.092928 -0.449869 -0.466589 -0.273533 -0.511052 0.479863 0.301339 1.009347 -0.222666 -0.426856 0.142418 0.281608 0.535231 -0.492033 -0.166570 0.136483 -1.186585 -0.217006 0.193926 -1.213038 -0.492294 0.372174 1.087181 0.124795 -0.692795 -0.119985 0.192557 0.162251 -0.208867 -0.393665 -0.165855 0.205140 0.297947 1.474023 0.541231 -0.449459 0.751482 0.325430 -0.246606 -0.131384 0.544958 0.163876 -0.504960 -0.034342 0.132936 -0.422195 0.074517 -0.072713 0.564056 -0.260686 1.002736 0.451878 0.556155 -0.472859 -0.460063 0.460838 0.201100 -0.074034 0.043679 -0.210346 -0.449803 -0.022448 -0.617777 -0.766194 0.948575 -0.155277 -0.019086 0.151022 -0.674254 0.308517 -0.743641 0.028406 -0.137712 0.560408 -0.407715 0.198721 -0.135481 -0.011940 -0.758285 0.181257 -0.296992 0.517208 -0.570751 -0.752418 0.882771 0.216453 0.395079 0.428857 -0.066942 0.178493 0.640739 -0.715532 -0.398555 -0.688168 -0.203834 0.699633 -0.089976 0.841463 -0.248716 0.683023 0.017275 0.077075 0.227459 0.325697 0.284401 0.061424 -0.342966 -0.526214 -0.332115 0.476327 0.111250 0.080650 -1.314572 0.598139 0.688743 0.065526 -0.802659 -0.179336 -0.014371 -0.900083 -0.412207 -0.495475 0.020765 -0.021106 0.516950 0.081951 0.114745 0.085783 0.209158 -0.416919 -0.523063 0.528671 -1.157723 -0.213917 -0.050516 -0.676758 0.278817 -0.694192 -0.344625 0.782477 0.299381 0.692640 0.265031 0.990765 -0.512970 0.612190 -0.099966 -0.963620 -0.611392 -0.076490 -0.077633 0.451327 -1.348042 -0.585181 -0.167713 -0.420678 0.187777 -0.321458 -0.812958 0.092607 0.257744 0.159325 -0.418227 -0.936894 -0.041395 0.588916 -0.579094 0.998742 -0.232514 -0.205441 0.419176 0.682371 0.298508 0.256271 0.525666 -0.186153 -0.523894 
5 0.148007 -0.545666 -0.383376 0.126321 0.590982 -0.716756 0.317915 0.252056 -0.304597 0.142395 -0.028139 -1.164225 -0.081960 0.074078 -0.208639 0.128886 0.708009 0.648009 -0.757107 0.275515 -0.395427 0.411173 -0.404979 -0.568329 1.734921 -0.803359 -0.184982 -0.278805 0.312451 -0.658061 0.248178 1.390181 0.309867 1.687990 0.214823 -0.537607 -0.832582 0.289400 -0.314516 0.652851 -0.402261 -1.899795 1.325622 0.098536 -0.352855 -0.557000 0.599146 -0.597986 0.032788 0.576327 0.354874 1.355483 -0.013490 -0.209811 0.330904 -0.364262 -1.449449 0.951359 0.262784 -0.507043 -0.079854 0.367191 -0.420758 -0.210950 -0.529048 0.151670 0.014216 -1.409943 -1.390078 -1.417163 0.827610 -0.554482 -0.101282 1.021340 0.701948 0.153512 -0.917087 -0.240821 -0.350080 -0.460651 0.399489 -0.094790 0.013001 0.139051 -0.079986 0.019675 0.816109 0.158241 -0.165374 0.745346 -0.036666 -1.192524 -0.458008 -1.033196 0.591254 0.132282 -0.999962 0.544624 0.594655 -0.934856 -0.564628 -0.865578 -0.349439 2.320587 -0.016937 -0.344689 -0.678178 0.714527 -0.854362 0.769673 -0.341128 -0.166046 0.006698 0.290763 -1.054088 0.453278 -0.829653 -1.235938 0.519767 0.396682 0.494380 1.391238 0.385401 -1.423450 -1.584143 0.514177 -0.041125 -1.723089 0.652823 1.150878 0.543384 0.230624 -2.028204 0.349924 0.320938 0.820828 -0.368995 -0.614007 -1.418089 -1.848269 -0.501261 -0.836380 -1.365033 0.088832 0.379267 1.175343 -1.508445 -0.904447 0.773196 -0.895432 -0.628097 -0.766051 -0.523279 -0.360002 0.582956 -0.316010 0.795592 1.456586 0.114150 0.613006 -0.730956 0.088131 0.766552 0.613418 0.572168 -0.677890 0.208685 -0.454597 -0.114328 -0.271787 1.004972 -0.029444 -0.787092 0.923898 -0.154663 -0.946476 -1.083736 -1.227328 0.124544 0.943294 0.024952 -0.062104 0.267794 -0.808311 -0.246212 -0.272968 -0.868656 2.152161 -0.847785 0.272438 1.414098 -0.782853 0.970185 -0.876423 0.568159 -0.213583 -0.319805 -0.933943 0.554641 -0.290044 0.353685 0.725411 -0.028639 -1.464022 1.117668 -0.757675 0.193355 0.247137 0.335528 -0.364212 -0.190378 0.097148 0.267470 0.896863 -0.643481 -0.539768 -0.631274 0.003104 0.770367 -0.439480 1.066240 -0.429840 0.731653 0.315082 0.858014 -0.482590 -0.039025 -0.867151 0.357188 0.392832 0.675939 -0.754670 0.055129 0.018616 0.512674 -1.742752 -0.870197 1.288329 -0.094079 -1.055229 0.466732 -1.308120 -1.410079 -0.277345 0.408814 -0.412450 0.223248 1.200469 -0.047747 2.124027 -0.041608 0.174880 0.381004 -0.427642 1.179259 -0.851347 -0.359828 0.073404 0.572127 -0.241958 0.744809 0.563287 0.905073 -0.116329 0.032013 0.143146 0.842956 -0.380478 -0.094688 -0.901885 0.033283 -0.892670 0.881457 -1.391606 -0.039022 -0.449351 -1.396615 -0.150014 -0.605590 -0.082200 0.338880 -1.289307 -0.072168 0.058649 0.405634 0.429322 -0.987195 -0.463799 0.764404 0.110597 0.865422 -0.223187 -0.446887 0.662802 0.435585 -0.062036 0.229028 0.293726 -1.278331 -0.538312 
6 0.514740 -0.060667 0.071207 0.038492 0.586135 -1.120038 0.239946 0.750610 0.080114 0.149389 0.172167 -0.004716 -0.265778 0.124047 -0.481747 0.142848 0.343100 0.299771 0.438591 0.233271 0.204735 0.155076 -0.186816 0.037913 0.306597 -0.359379 -0.146205 -0.318156 0.788357 -0.671744 0.076485 0.498854 0.694242 0.374846 0.666773 0.311856 -0.324627 0.317650 0.318485 0.278109 -0.272127 -0.574806 -0.047991 -0.543055 -0.168456 0.291705 -0.234680 0.029436 -0.361307 0.215131 0.007529 0.954227 -0.062594 -0.548394 -0.238431 0.144564 -0.903092 0.185806 0.119283 0.141672 -0.692398 0.532491 0.001631 0.212846 -0.079403 0.250613 -0.058981 -0.222495 -0.722629 0.026005 0.373464 0.711563 0.413739 0.291360 -0.089014 -0.055072 -0.225818 0.018264 -0.342753 -0.132376 -0.014776 -0.641783 -0.124563 -0.482345 -0.322380 -0.387345 0.015318 0.632991 0.199222 0.325119 0.218286 0.172078 0.641264 -0.378477 0.815595 -1.312926 -0.476352 0.355973 0.236497 -0.360900 -0.792662 -0.442440 0.547335 0.908166 0.159747 0.286920 -0.398702 0.613588 -0.206256 0.389630 0.479903 -0.225544 -0.100511 0.491546 -0.103127 -0.274466 0.027700 0.458537 0.344194 -0.316985 0.478250 0.523849 0.307708 -0.087671 -0.849162 0.525524 0.749174 -0.455730 -0.417376 0.386407 -0.148738 0.184669 -0.131083 0.262222 0.529891 0.698700 -0.448876 0.148096 -0.939426 -1.253469 -0.408402 -0.438062 -0.287454 -0.105920 -0.980408 0.521526 -0.702792 -0.669151 0.312537 -0.482743 0.486427 -1.036819 0.081488 -0.490611 -0.554724 -0.164044 0.051103 0.375225 0.045987 1.119102 -0.228200 -0.454197 0.158891 0.094586 -0.396904 -0.142029 0.004615 -0.532010 0.457225 0.405794 0.003407 0.278746 -1.047428 0.262652 -0.837664 -0.724444 -0.590468 -1.411119 -0.325048 0.192910 0.401727 -0.383890 0.456721 -0.645984 0.009071 0.535371 0.061911 0.551826 -0.668784 0.646360 0.380283 0.020103 -0.281694 0.118643 0.482123 -0.191269 -0.443420 -0.291381 0.162075 -0.612657 0.105052 0.687071 -0.423656 -1.028061 -0.061699 0.132880 0.100318 0.417563 -0.310159 -0.874982 0.751768 -0.280527 0.186343 0.496655 0.296702 -0.156146 -0.433608 -0.474340 -0.828202 -0.388529 0.312040 0.119447 0.167798 -0.350771 -0.350911 -0.250463 -0.288050 0.097306 -0.668484 0.176157 0.213533 -0.344491 0.736247 0.144374 0.046660 -0.501960 -0.152611 0.073060 -0.049172 -0.156677 -0.245050 -0.272655 -0.007498 -0.487058 0.864877 0.251684 -0.151043 0.702671 0.073683 0.688492 0.250758 0.155249 -0.064567 -0.701681 0.745032 0.272418 -0.149157 -0.355486 0.631165 -0.123685 0.684465 0.084827 0.450462 0.194317 -0.009257 -0.396772 0.432912 -0.234906 -0.256157 -0.673211 0.800578 0.220013 0.686746 -0.701169 -0.200071 -0.178154 -0.317163 0.223606 -0.856535 -0.173852 0.060716 0.389988 0.101200 0.053389 0.422903 0.451323 -0.359012 -0.494889 -0.195612 -0.032126 0.416775 -0.002122 -0.288871 -0.005772 0.279651 0.558848 0.197708 0.084181 -0.891722 -0.237642 
7 -0.321138 0.371198 -0.142687 -0.772613 -1.208938 0.451415 -0.373588 0.115785 -0.039465 -0.812854 -0.446068 0.020154 -0.888686 0.474953 0.014280 -0.345307 -0.226575 -0.576757 0.020222 0.365945 -0.560855 -1.033034 0.455794 0.089684 0.142706 0.288363 -0.826344 -0.104680 -0.312522 -0.689777 -0.162327 -0.190686 -0.458224 -0.151362 -0.184088 -1.310967 0.359067 -0.390959 -1.397950 0.781981 -0.183192 0.303471 0.600108 -0.073325 -0.438241 -0.551085 0.499474 -0.102280 0.696249 0.347406 -0.131688 0.704285 -0.689864 0.014722 -0.329836 -0.116864 -0.045842 -0.034804 0.150261 -0.147312 1.061081 -0.178373 0.223682 -0.117662 -1.592283 0.606027 -0.514809 0.027589 -0.502514 -0.168524 0.717534 -0.323672 -0.371247 0.499166 0.518281 0.148855 -0.424708 -0.560284 0.920898 -0.312358 0.068597 0.090926 0.919821 0.127095 0.128512 0.425043 0.074139 -0.230133 0.589034 0.167258 0.642110 -0.197083 -0.440707 1.007739 0.112423 0.131502 -0.197404 0.312699 0.245134 -0.100432 -0.995191 0.532055 -0.654710 0.399024 -0.168340 -0.533134 0.684689 -0.864915 0.848184 -0.072070 -0.285628 -0.007374 0.041790 -0.546845 -1.057386 0.438295 -0.813395 -0.575114 0.306714 0.430490 -0.151119 -0.217962 -0.576836 -0.607455 -0.125358 -0.041032 0.135088 -0.193303 0.500619 -0.002886 0.401768 -0.237054 -0.327379 -0.160992 0.094661 0.826948 -0.235441 -0.827191 0.682634 -0.506438 0.492850 0.282304 -1.222642 -0.051443 -0.119123 0.554073 -0.009399 -0.844745 -0.300051 -0.621463 -0.131791 1.015530 -0.501297 0.010857 0.269111 1.129627 1.262525 0.743973 0.057461 0.101024 -0.351821 -0.533974 0.557384 0.694697 0.215474 -0.273643 -0.441905 0.615013 0.258814 0.226441 0.263427 0.566985 0.028114 0.816850 0.708299 0.894608 -0.768900 -0.187483 0.053836 0.274337 -0.240371 0.321899 -0.646669 -0.244142 -0.034855 -0.068600 -0.130931 0.253867 -0.080411 0.020254 -1.176359 -0.512130 0.115800 -0.985223 0.291225 -0.139034 -0.257534 -0.057654 0.380027 -0.218781 -0.444344 -0.363313 0.045134 -0.595939 -0.095931 -0.434179 -0.760030 -0.344780 0.241329 0.433893 0.363880 0.453707 -0.283495 0.142440 -0.952978 -0.579922 -0.049927 1.015887 -0.494034 0.505277 1.131569 -0.201152 0.769173 0.648063 -0.153904 0.073874 0.401047 0.500144 0.338925 0.065634 -0.512684 -0.559608 0.047343 0.209339 -0.031105 -1.200705 0.080838 -0.101029 0.325240 -0.434826 -0.496986 0.833687 0.005547 0.206193 0.299413 -0.644476 -0.021265 0.886781 -0.071365 0.072898 0.383133 -0.167296 -0.935881 0.293133 -0.686597 -0.252062 -0.494333 0.537657 -0.633297 0.556530 -0.112442 0.065877 0.453422 0.452341 0.320655 -0.329047 0.731289 -0.064333 0.479178 -0.037348 -0.767586 -1.124216 -0.007618 -0.450838 0.393246 -0.930004 0.313353 -0.390260 -0.850839 0.446332 -0.253065 -0.711588 0.316140 0.637922 -0.762226 -0.188032 -0.266698 -0.660504 0.557338 -0.235226 0.519486 -0.247631 -0.162785 -0.403724 0.569224 -1.152426 -0.572488 0.793897 -0.448369 -0.129784 
l 0.227214 -0.492792 0.701309 -0.302369 -0.403210 1.693882 -1.212516 0.767824 1.303994 -0.228057 -0.214520 -0.410077 0.621532 0.275197 -0.048439 -0.854333 0.341945 1.161744 0.185475 -0.901967 -2.222473 0.543222 0.065277 -0.312154 -1.554327 -0.111277 -0.541639 -0.420299 1.218684 -0.407325 -0.050033 -0.155200 -0.578649 -0.075082 0.225469 0.457419 -0.021466 -1.300331 -0.432224 -1.162123 0.252539 1.633925 0.235438 0.043008 -1.040936 0.748047 1.078052 -0.524346 1.284519 -0.880577 0.252766 0.029275 0.687481 1.322745 -0.551622 0.717913 1.063112 0.641202 0.643363 0.282086 0.265862 -0.245461 -0.861290 0.476019 -0.392296 -0.606108 0.348873 0.521689 -0.025579 -0.025163 0.444068 -0.414554 -1.103898 0.090608 0.623527 1.094753 -0.816264 -0.534176 0.704341 -0.473547 -0.174253 -0.028031 0.212603 0.024308 -1.386599 1.276386 -0.480160 -1.182508 0.192848 0.033796 -0.190210 1.300524 -0.385945 0.367022 0.648839 0.916282 0.151540 -0.482506 0.863186 0.117575 -0.564132 0.799015 0.068995 -0.560866 -0.075704 -0.577715 0.837642 -0.680197 -0.697700 0.797164 0.249139 1.354634 -0.529168 -0.243864 -0.652471 0.675467 0.243480 -0.116878 -0.925299 0.799776 0.778435 -0.940092 -0.171396 0.000165 0.001617 -0.038859 -1.203578 1.029753 -0.113132 -0.293628 0.721014 0.294796 -0.004339 1.355124 0.140558 -0.276464 0.962540 1.021266 -0.119999 0.693860 0.396778 0.063609 -0.650710 0.434808 0.374145 0.046590 -0.832486 0.986265 -0.434547 -2.374556 0.228185 -0.297776 -0.035941 -1.266729 -0.000368 -0.557685 1.065950 0.349141 0.148122 -0.951946 -0.517890 -1.210576 0.793200 0.621160 -0.950610 -0.311347 -0.023177 -0.454193 0.552038 -0.007681 1.281442 -1.073592 0.320901 -0.149787 1.228008 1.617553 0.539008 0.263363 -0.485550 -0.018284 -0.557281 0.101540 0.289214 1.332773 0.432057 -0.575138 0.487860 -0.052193 -1.586566 -1.457317 0.416759 -0.598055 0.363000 -0.082667 -0.942961 -0.350099 -0.698294 0.299682 -0.097257 0.470702 0.385051 0.790785 -0.492387 0.805655 -0.383584 0.252044 -0.710842 -0.057424 0.143849 0.156442 0.245866 0.775290 -1.144130 -0.453873 0.008435 0.572541 1.374444 0.405429 -0.570484 -0.578163 0.754267 -0.117769 0.008420 0.648737 0.639220 -0.739491 0.565721 -0.197626 -0.092832 0.356278 -0.461309 -0.035474 -0.083768 -1.354978 -0.462243 1.449173 0.418233 -0.700327 0.567304 0.143275 1.063684 -0.011126 0.548358 0.343896 -0.684898 1.449273 -0.573153 0.648405 0.576885 0.213777 0.251929 0.043047 -0.659358 1.278952 -0.328860 -0.285659 0.200594 -0.535527 0.274923 -0.335616 -0.084903 -0.735080 0.846933 0.209927 -0.001807 -0.379623 -0.470360 -0.079949 0.843158 0.420244 1.444574 -0.079081 -0.212910 -0.474749 -0.751802 0.473547 -0.097443 -0.877171 -0.230363 0.548612 -0.072246 -0.771139 0.346781 0.881090 0.270020 -1.151498 0.572337 -0.151770 0.776983 -1.323248 0.689861 -0.422607 0.155927 -0.414475 -0.573160 -1.177760 0.238308 -0.745042 0.247393 -0.876200 
9 0.944278 0.025993 -0.214419 0.141322 0.557647 -0.569300 -0.560915 0.400252 0.245078 0.469719 -0.065827 0.022650 -0.000676 -0.393320 0.688073 0.303034 0.182853 -0.529982 0.796286 0.152920 0.597041 0.579018 0.412146 -0.308954 -0.819553 0.181310 0.431372 0.193880 -0.565931 0.103350 0.310904 0.158001 0.363414 -0.114536 0.064390 0.364189 -0.143309 -0.357442 -0.154679 0.128534 -0.460164 -0.115539 -0.093554 -0.479312 -0.186194 0.426010 0.263408 0.398038 -0.195425 0.180407 0.007933 -0.043390 -0.332912 -0.174144 0.018441 0.185454 0.518424 -0.021299 -0.291741 0.371397 0.013723 0.216675 -0.167085 -0.158723 0.140226 -0.423187 0.537625 0.388592 0.275893 0.439197 0.218417 0.156887 0.784724 -0.123910 -0.192808 0.122046 -0.329493 0.210131 -0.378909 -0.021919 -0.101237 0.283366 0.012545 -0.089875 0.523657 -0.597873 -0.154920 0.206467 -0.019249 -0.147278 -0.500868 0.008250 0.717963 -0.364266 -0.134352 -0.641331 -0.056717 0.017865 -0.307329 0.048155 0.253671 0.002002 0.275493 0.478663 -0.110260 0.308387 0.151965 -0.334550 -0.399647 0.199619 0.226511 -0.456947 0.141024 -0.101621 0.052109 -0.284465 -0.176152 0.667184 0.446450 0.106357 -0.495750 0.056677 0.334779 -0.182600 -0.176821 0.326767 0.302723 -0.197494 0.027224 -0.267674 -0.558069 -0.104826 0.560504 -0.175566 -0.349266 0.119417 -0.731209 0.110164 0.505597 -0.423292 -0.039373 0.332036 0.291364 0.078455 -0.144984 -0.169966 -0.273704 0.149588 0.081426 0.038320 -0.127290 -0.138233 -0.029504 0.287076 -0.116294 0.075851 -0.408592 0.028899 -0.693063 -0.026226 -0.087353 -0.074325 0.272375 -0.270280 -0.014201 -0.501183 0.299668 -0.094649 -0.295705 -0.126553 -0.118367 0.364332 -0.768497 -0.109805 0.407093 -0.082140 -0.178231 -0.657026 -0.468909 -0.101325 0.693490 -0.382360 -0.050959 -0.055438 -0.057445 0.312286 0.026468 -0.157917 0.769515 0.627369 0.108619 0.387332 0.133794 -0.829243 0.200958 -0.290458 -0.451606 -0.359339 0.070225 -0.388894 0.536023 0.324223 0.197443 -0.759786 -0.496162 -0.191534 -0.030134 0.156671 0.164754 -0.187051 0.598983 -0.674676 0.101932 -0.067636 -0.289099 -0.161656 -0.711780 0.220131 -0.486155 0.672821 -0.596127 -0.058195 -0.246112 0.505887 -0.167008 0.175517 -0.518787 0.352764 -0.256182 0.089106 -0.249171 0.155163 -0.148933 0.395608 0.079251 -0.177943 -0.238673 -0.001752 -0.062482 -0.740223 -0.336511 0.424809 0.700002 -0.310061 0.408518 0.293758 0.003386 0.209128 -0.227300 -0.186903 -0.104653 -0.225923 -0.072204 0.124283 -0.212364 0.186004 -0.044885 0.027200 0.462718 -0.204035 -0.021959 0.039576 0.066705 -0.427860 0.299127 -0.318500 0.431181 0.405825 -0.056961 0.130181 0.637038 0.732019 0.245535 0.181996 0.051331 0.168869 0.596657 -0.346616 -0.164696 -0.061644 -0.171480 0.123817 0.215238 -0.277167 0.146356 -0.105434 0.237419 -0.244683 -0.990299 0.019472 -0.058626 -0.411420 0.227740 -0.700564 0.345618 0.426181 0.183488 -0.301383 -0.332643 0.107805 
n 0.646746 -0.319565 0.411391 0.001701 -0.118151 -0.389735 -0.172649 0.558404 -0.389884 -2.265461 0.407370 0.536147 -0.225866 0.635172 -0.016387 -0.021836 -0.380176 -1.043023 0.553797 0.510079 0.231307 -0.138399 0.419431 -0.060594 -0.368435 0.951367 -0.535628 0.292129 -1.071050 -0.763068 0.016803 -0.586803 0.082294 -0.457678 0.542904 -1.352288 -0.203767 -0.433771 -0.662242 0.481965 -0.389904 0.502625 -0.589497 0.312372 0.078792 -0.428197 0.452368 0.012931 0.423055 0.159856 -0.237808 -1.420111 -0.992165 -0.109345 -0.200705 -0.267756 0.388961 -0.127900 0.345295 0.090017 0.150965 -0.632779 0.436604 -0.156182 -0.642524 0.097501 -1.339083 0.167210 0.019021 0.357057 -0.132591 0.082762 0.163363 -0.273378 0.345447 0.043257 -0.516537 -0.750383 0.831930 -0.197627 -0.572358 -0.594382 0.400501 0.296270 0.227502 0.531873 -0.446618 0.438882 -0.024512 0.492979 0.919152 -0.339274 0.506398 0.007241 -0.221600 0.415715 0.074393 -0.156528 -0.080696 0.100921 -1.318122 0.679614 0.099725 -0.269358 -0.258964 -0.743804 0.975210 -0.387978 0.234731 -0.558337 -0.801198 -0.583922 0.110276 -0.643796 -0.714833 0.197705 -0.356621 -1.145144 0.163608 -0.483670 0.314146 -0.208602 -0.477909 -0.718699 -0.080194 -0.271525 0.776779 0.011709 -0.111305 0.007964 0.567141 0.433348 -0.050707 0.073114 0.275193 0.785639 0.551422 0.094138 0.633051 -0.174143 0.106197 -0.018137 -0.551984 0.513367 -0.550864 0.035998 0.619255 0.039228 -0.591797 -0.411561 0.781521 1.456094 0.129093 0.080700 0.923134 0.669279 0.590423 0.949145 -0.041564 0.254527 0.076823 -0.015332 0.827051 -0.079207 0.918177 0.761585 -0.146414 0.171004 0.676731 0.200016 -0.424142 0.412504 -0.637590 0.001881 -0.229494 -0.170314 -0.417100 0.062459 0.544309 -0.351109 0.083415 0.631412 0.180312 0.288949 -0.444236 -0.689156 0.742866 -0.930335 0.717154 -0.301982 -0.526526 -0.291779 0.676578 -0.303334 0.289058 0.073687 0.710321 -0.096736 0.439104 -0.081506 -1.276710 -0.702400 -0.160165 -0.619689 -0.589268 -0.448727 -0.382568 0.083205 -0.412676 0.213353 0.261815 0.940449 -0.174562 0.326812 0.275786 -0.200028 1.145568 0.507498 -0.047117 -0.381143 -0.086329 0.122060 0.582441 -0.146387 -0.001809 -0.040863 -0.322710 0.545912 -0.271229 0.405821 0.141418 0.044384 0.915276 0.505908 -0.233448 -1.528934 0.092487 0.091396 0.334056 0.086825 -0.780994 0.658598 0.266014 0.406905 0.004485 -0.566585 0.501489 0.429827 -0.098067 0.684327 0.228629 -0.167106 -0.584299 0.394670 0.091157 -0.378974 0.088450 0.431389 -0.965859 0.519856 -0.903511 0.202480 -0.670839 -0.299587 -0.114018 -0.527618 0.481321 0.160780 -0.132393 -0.094974 -1.199684 -0.260356 0.175241 0.128745 0.287295 0.377474 0.395875 -0.412231 -1.139330 0.006587 -0.430378 -0.752358 0.200784 0.637209 -0.005672 -0.543992 -0.070757 0.059787 -0.092566 -0.682977 -0.403067 -0.365253 -0.123863 0.435547 0.519059 -0.205326 -1.169272 1.525584 -0.909401 -0.993321 
8 0.209616 0.189249 0.322955 -0.400261 0.872459 -1.568293 0.324894 0.825464 0.350908 -0.087250 -0.042056 -0.597404 -0.050922 0.176207 -0.612241 0.187103 0.604113 0.216089 0.251761 0.053068 0.429891 0.760933 -0.227500 -0.259241 0.525426 -0.596342 0.024013 0.006413 0.739265 -0.697770 0.293110 0.552682 0.414287 0.732645 0.899440 0.580898 -0.209971 0.274283 0.380994 0.606457 -0.297288 -0.979334 0.120815 -0.646107 -0.271943 0.350762 -0.032303 -0.015098 -0.413402 0.290320 0.283204 1.195329 -0.105321 -0.334487 -0.076344 0.433720 -0.863131 0.597964 -0.329164 0.034522 -0.988914 0.333302 -0.290397 0.414683 0.053841 0.310698 0.273443 -0.694927 -0.661884 0.080979 0.288529 0.983260 0.589903 0.269215 0.047460 -0.004606 -0.605358 -0.017262 -0.922721 -0.168249 0.720613 -0.674358 -0.076161 -0.770592 -0.154117 -0.929747 0.221979 0.560102 0.410006 0.304749 0.176683 -0.000648 0.470936 -0.775615 0.874074 -1.414203 -0.655008 0.221403 0.145185 -1.005455 -0.762104 -0.648926 0.784124 1.422686 0.474077 0.207941 -0.816472 0.466372 -0.031321 0.815591 0.552972 -0.175981 0.230110 0.324194 -0.378377 0.139622 -0.047246 0.341494 0.050305 -0.115373 1.043192 0.536529 0.409075 -0.051169 -1.114727 0.894698 0.434293 -0.315232 -0.215066 0.833656 0.384404 0.016603 -0.229575 0.041370 0.167369 0.780797 -0.524831 0.572717 -1.457458 -1.749910 -0.143448 -0.447204 -0.447934 -0.030241 -0.713289 0.649063 -0.733801 -0.933713 0.433205 -0.627387 0.667417 -0.752339 0.251271 -0.322634 -0.320100 -0.587062 0.275435 0.868579 -0.354672 0.709538 0.268336 -0.903888 0.115233 0.032264 -0.375608 0.113388 0.297123 -0.439897 0.462155 0.334967 -0.151294 0.072552 -1.431379 0.188166 -1.008573 -0.707051 -0.517997 -0.886806 -0.493583 0.405651 0.281186 -0.795675 0.691259 -0.752243 -0.121158 0.429525 0.081392 1.048075 -0.658530 0.364502 1.176441 -0.186077 -0.136648 -0.494897 0.186273 -0.508125 -0.271152 -0.885934 -0.100158 0.025557 0.375946 1.127981 -0.029897 -1.418415 0.315306 -0.103775 0.037251 0.270659 -0.136639 -1.090751 1.142973 -0.335324 0.575359 0.629315 0.490267 -0.177199 -0.590836 -0.485212 -0.335687 -0.136448 0.148833 0.032165 0.570423 -0.173306 -0.457052 -0.036411 -0.453237 0.273193 -0.742004 0.054623 0.643378 -0.811754 1.074210 0.135404 0.146807 -1.200897 -0.255794 0.532169 -0.426420 -0.320077 -0.163803 0.034432 -0.416530 -0.300562 0.755918 0.052906 0.146141 0.497336 0.371132 1.160970 -0.114799 0.264064 0.288830 -0.314912 0.688451 0.267031 -0.030183 -0.118600 1.274278 -0.287361 0.927641 0.268193 0.851236 0.236816 0.174587 -0.429813 0.516299 -0.225503 -0.397538 -0.739697 0.852799 0.081888 0.740157 -0.985154 -0.016107 0.210754 -0.158228 -0.131339 -0.791065 -0.319756 -0.129689 -0.183004 0.235075 -0.087876 0.743394 0.685691 -0.206856 -0.539209 -0.275747 -0.156681 0.946764 -0.168125 -0.465342 0.087017 0.276132 0.584446 0.008578 -0.306887 -1.045058 -0.003462 
i 0.061816 -0.039927 0.357495 -0.460099 -0.589005 0.344432 -0.083201 -0.888614 -0.450993 -1.207073 -0.682642 -0.654576 -0.060101 -0.024663 -0.176394 -0.121479 -0.259360 -0.689308 0.560912 0.467691 -0.443202 -1.006136 -0.110828 -0.456002 0.618904 0.338067 -0.664903 -0.272325 -0.413584 -0.103919 -0.514158 -0.305912 -0.149872 -0.000657 0.233693 -0.557506 0.016217 -0.344139 -0.972610 0.936114 -0.261460 0.095349 0.463505 0.446988 -0.035282 -0.143267 0.638842 0.575545 0.178409 0.465260 -0.286511 0.168789 -1.047112 -0.215065 -0.692804 -0.227732 0.572684 0.212781 0.325512 0.238211 0.771095 -0.171780 0.120075 -0.746103 -0.964430 0.388879 -0.853990 0.016783 -0.129292 -0.004706 -0.036509 0.052975 -0.437166 0.279801 0.993627 0.701773 -0.782460 -1.001714 0.144230 -0.325836 0.672458 -0.144924 0.497861 0.259399 -0.114277 0.000403 -0.253633 0.318861 0.225908 0.108883 0.418073 0.032594 0.044241 0.540698 0.407148 0.257418 -0.063291 -0.017172 -0.281276 0.154789 -0.911919 0.460100 -0.478321 0.459212 0.279186 -0.888275 0.331122 -1.162528 -0.133995 -0.303656 -0.334826 -0.192495 -0.279713 -0.372202 -0.562559 0.427814 -1.205597 -0.791133 0.716411 0.273077 0.333867 0.240451 -0.005960 -0.782550 -0.323866 -0.084552 0.328544 -0.541419 0.000202 -0.077358 0.609398 0.180498 -0.423023 0.214454 -0.201627 1.404875 -0.319349 -0.760442 0.509205 0.342012 -0.234513 -0.331525 -1.130117 0.160575 -0.473011 0.453593 -0.060407 -0.778974 -0.185084 0.131361 -0.427701 0.670560 -0.172478 0.329841 0.838823 0.670112 0.701679 0.680132 0.424746 0.077279 -0.344184 0.221164 0.835684 0.506292 0.501704 -0.167909 -1.077809 0.636094 -0.108359 -0.229016 0.073910 0.171338 0.003609 0.189250 0.036517 0.609612 -0.089816 -0.112005 0.380953 -0.252865 -0.257939 0.005765 -0.058858 0.424721 -0.195331 -0.584226 -0.033446 0.199442 -0.081193 0.192225 -0.188056 -0.435884 0.773624 -0.868892 0.678750 -0.178677 -0.066683 0.426582 0.400702 0.474870 -0.535401 -0.312621 0.057816 -0.754524 -0.040990 -0.288981 -0.183905 -0.632543 -0.347899 0.745928 0.097416 0.661997 -0.245808 0.180745 0.569527 -0.225454 0.375737 0.254415 -0.164913 0.396530 0.236784 -0.530271 0.341030 0.710471 0.730421 -0.320757 0.067816 -0.054603 -0.055255 0.410593 -0.636082 0.065438 0.059961 0.752497 -0.218402 -1.222350 -0.821624 0.491722 0.101444 -0.121127 0.360896 0.850517 -0.115331 -0.160074 0.504365 -0.906452 0.020175 0.899848 -0.212447 0.694854 -0.080016 -0.169671 -0.319546 0.296340 -0.376773 0.142226 -0.308285 0.373064 -1.006085 0.079387 0.248071 0.380217 0.609182 -0.430369 -0.824228 0.251626 0.174666 0.229405 -0.260835 -0.623579 -0.723322 -0.853316 -0.253998 -0.284470 0.607104 0.151354 -0.187798 -0.287083 -0.924943 0.327556 -0.366696 -0.798460 -0.300831 0.615999 -0.613558 -0.307197 -0.232439 -0.110996 -0.127143 -0.029332 0.157360 0.354219 0.290174 0.345016 0.476541 -1.476834 -0.750492 1.010375 -0.791166 0.379472 
b 0.168002 0.053757 0.327706 -0.902146 -0.045654 -0.067149 0.865139 -0.118934 -0.854860 -2.124726 0.059929 0.167572 -0.705872 0.376167 -1.130053 -0.088786 0.914802 -2.222240 -0.136607 -0.262660 0.252020 -1.601606 0.853474 0.342816 0.131196 1.114482 -1.002921 0.145957 -1.450386 -0.256236 -0.509957 0.332016 -1.143122 -0.033096 -0.843207 0.340388 -0.764301 0.130990 -1.069399 1.887779 -0.705647 -0.907722 0.180023 -0.674767 0.264169 0.124323 0.348989 0.923772 -0.066047 0.971651 -0.909431 1.908845 -2.468307 -1.155580 -0.492748 -0.287021 -0.028508 -0.240976 -0.667825 -0.056572 0.851001 0.011296 -0.138307 -0.586068 -1.169675 0.200569 -1.189219 -0.583042 -0.519921 -0.761722 -0.502193 0.190894 -0.703268 -0.715528 0.371197 0.430913 -0.301158 0.088928 -0.126954 -1.080854 0.344479 0.601612 0.199037 0.180283 1.053153 -1.057053 -0.795995 0.488079 0.137860 -1.576098 -0.687556 -0.516588 -0.933049 0.007837 -0.372472 0.118577 -0.766982 0.898379 0.203558 -0.788142 -0.042192 -0.013000 -0.993220 0.303705 0.200296 -0.600074 -0.267395 -0.036667 0.351823 -0.915735 0.429925 -0.835502 -0.237652 -0.765110 -0.595981 -0.368473 -0.044555 0.184182 0.707722 0.283230 0.632734 0.212154 -0.225577 -0.957336 0.161299 -0.350230 -0.287288 -1.106228 0.293872 0.124070 -0.293676 0.322875 -0.129776 -0.141790 -0.255833 0.889730 -1.632216 -1.601379 0.411388 -1.572431 0.477422 -0.634894 -1.810937 -0.458907 0.186653 1.249842 0.097498 -1.691757 0.020005 0.099249 -0.068458 0.383908 -0.135617 1.143362 0.958587 0.616617 1.152697 0.939390 -0.470213 0.031272 -0.147932 0.411298 -0.328649 0.797342 0.561937 -0.412025 -1.125961 1.674093 -0.320229 -0.070487 0.741044 0.029315 -0.253478 1.533871 0.097212 0.179605 -1.306976 -0.531768 0.728867 -0.234319 -0.104670 -0.455902 -0.308926 -0.094171 0.346582 0.585412 0.148844 1.191563 0.276322 -0.078781 -0.792440 -0.871998 0.497653 -2.015788 0.852765 -0.014633 -0.989667 -0.728728 1.170821 0.116983 -0.407898 0.860616 0.687547 -1.723257 -0.424749 0.564779 -1.294582 -0.567787 0.185739 1.234163 1.306132 0.222577 -0.888023 0.284150 -0.720070 0.107139 -1.111613 0.609406 -1.095409 2.298752 0.916212 0.232397 0.339493 1.768220 1.100263 0.662712 0.190917 0.718358 0.270315 0.750790 -0.667216 -0.235761 0.799949 0.854928 0.086696 -1.298257 -0.410268 0.950360 -0.733413 -1.428652 -0.755881 1.051276 -0.137832 -0.442668 1.058165 -1.245231 1.204412 0.519259 -0.451504 -0.007605 -0.120223 -0.146331 -0.034506 -0.779090 -0.447790 -0.070397 -0.920526 -0.518164 -1.120970 0.257356 -0.264713 0.212727 1.163908 0.059920 -0.415137 -0.215825 1.303021 0.719316 -0.195406 0.013829 -0.489759 -1.033671 0.385513 -0.501407 0.844097 -0.238502 0.482616 -0.143278 -1.412193 0.442791 -0.917076 -0.899124 -0.199274 0.434104 -1.345692 0.068411 -0.824612 -0.963423 -0.148042 0.206698 -0.488810 -0.720719 -0.200480 0.066480 0.407153 -1.630548 -0.869776 0.959137 -0.357294 1.044990 
f 1.084104 0.203734 -0.565506 0.265427 0.025424 0.085718 -0.194309 -0.320726 0.153506 1.175157 -0.055965 -0.699514 0.670255 -0.354251 0.479722 0.219181 -0.843582 -0.274020 0.958638 -0.069523 -0.656505 0.071977 0.241100 -0.914018 -1.316289 -1.496366 0.953048 0.336955 0.530587 0.469894 -0.491796 -0.281793 0.516187 0.051233 0.534431 0.941682 -0.284512 -0.018881 -0.770204 -0.169784 -0.644132 -0.290055 -0.148295 -0.207248 0.030080 0.935060 -0.777001 0.116861 0.396175 0.033083 0.527848 -0.572589 -0.285796 -0.791690 0.930348 -0.551986 0.042588 0.114607 0.328730 0.862271 -0.497591 0.405190 -0.547606 -0.053769 -0.071696 -0.462374 0.039583 0.275245 -0.083183 0.672996 -0.192353 0.522021 -0.087625 -0.388372 -0.466522 0.615247 -0.406461 0.583743 0.238936 -0.190619 0.693436 0.289513 -0.348619 -0.761685 0.184306 -1.694049 -0.378864 0.348145 -0.311598 -0.708213 -0.626568 0.221426 0.167967 -0.188797 0.056426 -0.761816 0.069087 0.314603 -0.165497 0.180517 0.696679 0.042048 -0.016364 -0.199046 -0.276548 0.283453 -0.327233 -0.277394 -1.018888 0.584218 0.705182 -0.406434 -0.304728 0.654448 -0.312290 0.603384 -0.067187 0.994356 0.459137 -0.307294 -1.204659 0.204059 0.881563 0.026917 0.397154 0.319555 -0.221699 0.685488 -0.103657 -0.308707 -0.550051 -0.302452 -0.217634 0.280099 -0.046021 0.986097 0.104752 -0.075336 -0.327628 0.402747 -0.169524 0.131404 -0.338961 -0.689845 -0.144752 0.617716 -0.622953 -0.492491 0.258696 0.014450 -0.204626 -1.535479 0.249547 0.697059 -0.588710 -0.110545 -0.822500 -0.288476 0.106346 0.851773 0.107788 -0.210952 -0.244658 -0.597138 -0.200979 -0.883096 -0.014840 -0.721124 -0.394137 -0.183001 0.171350 0.005654 -0.774024 0.029026 -0.482664 1.084121 0.136159 -0.713583 -0.770401 -0.586397 0.101378 -0.904711 0.060127 1.054343 0.065763 0.123209 0.128631 0.417415 -0.617754 0.480562 0.951181 0.053162 0.264539 0.150990 0.884643 0.119739 -0.557437 0.269904 -0.088348 -0.111455 0.856028 -0.019720 0.097858 0.286722 -0.280706 0.088544 0.277468 0.155627 -0.445324 0.120922 -0.001559 -0.841233 0.623152 -0.265003 0.619948 -0.020939 -0.067051 -0.817885 -1.286410 0.136742 -0.698867 -0.713370 -0.984174 -0.251670 -0.253253 -0.036355 -0.699992 -0.052977 -1.119155 0.462637 -0.846639 0.317795 0.023607 -0.010326 -0.308349 -0.150487 0.429454 0.440577 0.252863 -0.237041 0.212655 0.009414 -0.020447 -0.573951 0.591018 1.290968 -0.202281 -0.151630 -0.608055 -0.825311 -0.425944 -0.525898 0.396476 -0.433818 -0.093583 1.372874 0.086773 -0.965974 0.027120 -0.480325 -0.164966 -0.808788 -0.150383 -0.913935 -0.283588 0.932929 0.384495 -0.337524 0.006230 -0.735917 1.318452 0.902430 0.091055 0.040650 0.189823 0.584886 0.307475 0.333025 0.015764 0.394022 -0.128514 0.113286 -1.094929 -0.398855 -0.339971 -0.581134 0.259311 0.000453 -0.773286 -0.205359 1.061120 0.215478 0.257624 -0.568942 -0.072022 -0.084022 1.063462 -0.694891 -0.367518 0.430611 
g -0.299469 -0.055037 -1.927657 1.592060 -0.429984 -0.511615 0.136436 1.179101 0.270385 0.993096 -0.054525 1.416780 -0.865409 2.592030 0.032141 1.036014 0.743782 2.285570 -0.639320 0.710910 -0.000722 -0.680654 -0.557632 -1.188301 -0.497377 -0.996210 -0.572759 -0.481078 -0.306521 -1.181357 0.897030 0.696407 0.791352 1.253283 -0.317680 -0.684566 -1.204715 -0.431328 -0.878849 0.114736 -0.466374 -0.301244 1.682400 -1.164645 -0.654534 -1.606848 1.955089 -0.448575 0.771173 -2.058196 -0.192662 2.964583 1.435314 1.296825 0.509603 -0.502617 -0.418004 -0.517101 0.599638 -0.607599 1.586344 0.863300 -0.479571 0.222696 -0.299438 -0.637007 0.222427 -0.999871 -1.449243 -0.733977 -0.603791 0.414158 1.898980 1.295666 0.957779 0.839799 -1.404902 0.913026 -0.989361 -0.423652 -0.170097 1.377155 0.610229 0.414537 -1.134016 0.805934 0.978475 -1.694255 0.702906 1.257062 -0.288907 -1.264933 0.591863 -0.335557 0.821982 -0.345898 -1.844089 -0.033821 2.184140 -0.379258 -1.211579 -0.807025 0.685712 1.064167 0.798930 -1.199781 -1.221780 0.570813 0.234293 1.047858 -0.104606 0.133310 -0.796966 -0.778819 -0.818427 0.503621 0.259433 1.219389 -0.416907 0.015301 0.070199 0.573848 0.617079 0.101487 0.758480 1.033747 -0.556644 -0.271130 -0.145005 -0.008904 -0.207880 0.801349 -0.664082 0.718316 1.388814 -1.379470 0.074347 -1.380612 -1.195463 -1.486498 0.149275 -0.268694 -1.719469 0.041258 0.243233 1.808337 -0.594373 -0.024543 0.977178 -0.764701 -0.847070 -0.331390 -0.522889 -2.855421 -1.768481 -1.522959 1.063519 0.758577 -1.315517 0.412698 0.038511 -0.558587 -0.124482 -0.577862 0.040959 -1.497952 1.936785 -1.690086 -1.033477 -0.234673 0.847256 1.062704 -2.244586 1.847846 0.358575 -0.727879 -0.415390 -0.111492 -0.008288 0.269307 1.686394 0.517645 -0.923367 -0.979690 -0.561482 0.428404 0.011759 2.066216 -1.580885 -0.517982 1.131184 -0.167184 -0.833561 -1.040015 -0.997417 0.150201 0.159616 -0.803591 0.514877 -1.138994 2.052304 -0.262532 -1.214341 -0.481125 -0.733082 -0.792444 -0.377322 0.463812 0.434045 -1.049257 1.079561 0.907913 -0.508078 0.846216 -1.362321 0.324481 -0.945391 -0.230752 -0.417727 -1.345842 -0.401700 0.545176 1.577195 0.910511 -0.220218 -1.102088 -1.030478 -0.353123 0.591005 0.012611 1.071728 -2.724159 -0.342521 -0.332963 0.285523 0.738240 -0.278206 1.065348 0.809328 -0.352201 -0.376027 -0.321319 0.388474 -1.050156 -0.043243 0.967564 -1.158692 1.348404 -1.000118 1.173496 -0.266386 -0.417091 -0.644144 0.907702 -0.314139 -2.447157 -0.636762 0.759472 1.428735 0.346700 0.950398 -0.311094 1.076817 0.292111 0.419304 0.650794 0.873481 1.469549 0.593317 -0.510331 -0.293253 0.651247 1.158548 -1.570952 -0.186712 -1.046168 -0.429805 -0.326143 -0.603732 -0.449937 1.058973 -0.545759 -0.190446 0.725154 0.044945 -0.170637 -0.699029 -0.040778 1.079355 -1.242537 1.957811 -1.034694 0.441634 0.099472 0.586685 0.075975 1.160263 -0.399858 -0.343899 -1.408173 
e 0.361387 -0.220855 0.175265 -0.554169 -0.421643 -1.545706 0.710852 0.048817 -0.108111 -1.606503 0.093372 -0.145609 0.031076 -0.073270 -0.201643 0.734643 1.128559 -0.528240 0.931166 0.673039 1.335528 -0.337857 -0.374925 0.421216 0.392654 0.369953 0.072369 0.388735 -1.212736 0.596102 0.025747 0.524572 -0.196471 -0.664299 -0.498713 -0.464687 1.262329 -0.303591 0.580408 0.756923 -0.075001 -0.132195 -1.299454 0.017826 0.799621 -0.093053 -0.717620 0.237464 -0.990124 0.093926 -0.314952 -0.489388 -0.895096 -0.683200 0.482588 -0.415920 1.218783 -0.458768 0.341081 -0.723082 -0.538217 -0.087318 -0.189096 -0.513626 0.466443 0.385617 -0.202029 -0.126829 0.575014 -0.528661 0.191393 -0.303978 0.335628 -0.507876 -0.557937 -0.460143 0.552300 0.320241 -0.154226 -0.521332 -0.352505 0.166962 0.129283 -0.443584 0.421575 -1.706885 -0.871744 0.370720 -0.244482 0.122484 0.228576 0.072351 0.232071 -0.080970 -0.729248 -0.427925 0.099837 -0.048003 0.001444 -0.227428 0.642386 0.323472 -0.005054 -0.281390 0.836143 0.246747 0.670322 0.244228 0.110495 -0.388685 0.244212 -0.698759 0.406129 0.070098 0.046197 -0.426741 0.102976 0.716237 -0.383573 -0.497860 -0.086293 -0.754035 0.020128 -0.179844 -0.329061 -0.839716 -0.005042 -0.140461 0.301527 -0.043243 0.338961 -0.463590 0.862217 -0.084761 -0.256392 0.463291 -0.286427 0.062314 0.349053 -1.768206 -0.227554 -0.166599 0.361645 0.160805 -0.469009 -0.109573 0.229230 -0.560936 0.368366 0.234994 1.018213 0.180008 -0.347272 0.508372 0.915538 0.127716 -0.105967 0.505585 -0.895199 0.014610 0.543632 -0.560850 -0.933984 0.067493 -0.230995 -0.102191 -0.678370 -0.346412 0.091967 0.277027 -0.464392 0.232777 -0.355458 -0.067799 -0.365837 -0.468670 -0.178358 0.539459 0.332787 -0.368197 0.747129 0.585857 0.492608 0.121051 0.778068 -0.063090 0.181726 0.348430 0.842163 0.670639 -0.786747 0.035064 0.113471 0.555914 0.714151 0.099421 -0.033162 0.300916 0.315481 -0.482747 0.216864 0.046236 0.624909 -1.012615 0.860100 0.161655 -0.584221 -0.327529 0.604151 -0.003286 0.567589 -0.740820 0.291351 1.075953 -0.091700 -0.382432 -1.122028 0.068122 0.029058 1.578561 0.488579 0.284761 -0.143665 0.254941 -0.029985 -0.138934 -0.066235 0.503151 0.146407 0.190918 -0.312528 0.851109 0.967318 -0.169609 0.117740 -0.924984 0.181542 -0.352092 -0.250097 0.103097 -0.950780 0.236376 0.217118 0.029770 0.799714 -0.775069 0.789849 -0.811200 -0.411238 0.194074 -0.306729 0.156900 0.111691 -0.546503 -0.069932 0.167116 0.516817 -0.130117 -0.215531 0.396014 -0.223543 0.253840 -0.236952 0.474896 -0.082125 -0.525618 0.325681 -0.154578 -0.972391 0.015832 -0.086536 0.752325 0.397530 0.366765 -0.056003 -0.170679 0.424776 0.042754 -0.756333 0.085625 -0.475781 0.086904 -0.347935 -0.416122 0.034898 0.200381 -0.059662 -0.232920 -0.765587 0.450918 -0.665589 -0.456482 -0.186078 -0.061717 0.170740 0.469192 -1.006114 0.688768 -0.655683 1.033291 
h 0.755621 -0.802331 -1.206671 0.790268 0.459747 -0.685683 0.851750 0.547942 0.023082 -0.833367 -0.220167 1.247662 -0.316466 0.863601 -0.439096 -1.350432 0.586868 0.615324 -0.499536 0.452533 0.788007 -1.118578 0.349012 -1.227629 -0.979311 -0.569804 -0.483744 0.848114 -0.452522 -0.844299 -0.256077 0.174284 0.053367 0.397325 -0.394492 -0.107776 -0.528523 -0.015921 -0.086894 0.720236 0.394168 -0.453089 0.867774 -1.996933 -0.667986 -0.773712 1.420205 -0.352074 -0.583765 -0.903961 -0.250634 0.604725 -0.035239 -0.066236 -0.236361 -0.421704 0.816413 0.194292 -0.585792 -0.191950 1.516558 0.670526 -0.451129 -1.276434 -0.912706 0.607311 -1.130912 -1.140584 -0.301039 -0.710635 -1.387082 0.589323 0.847005 1.228132 0.566015 -0.431986 -0.507019 0.319289 0.254671 -0.088277 0.191776 0.661670 0.378568 0.411395 1.139206 0.193656 0.255219 -1.094089 -0.124255 0.919156 0.153160 -2.166414 0.729976 -0.889040 -0.936157 -0.591722 -1.249045 -0.477789 2.279776 0.816777 -0.245255 -0.511829 -0.972493 0.461098 0.293019 -0.131108 -1.531602 1.176684 0.427681 0.357854 -0.624378 0.671707 -0.141335 -0.726001 -1.190895 -1.775099 -1.657198 -0.642485 -0.743870 -0.712715 -0.101663 0.188856 -0.813985 0.222335 -0.339455 -0.860001 -0.025653 -1.691718 0.356674 -0.964200 -0.774616 0.429479 -1.091617 -0.070166 1.365479 -0.822816 -0.790332 -1.232348 -0.900153 -2.047953 -0.469829 -0.747588 0.103368 -0.055871 0.561175 0.347826 0.167979 -0.228466 0.532489 -1.031028 0.272102 0.050603 -1.325451 0.518720 -0.306958 -0.607006 0.628951 0.357127 -0.764535 -0.773722 -0.223969 0.303766 -0.330947 0.090215 0.563240 -1.340353 0.863829 0.245337 -1.271580 0.007103 -0.374610 0.427056 -0.497146 1.435540 0.717595 -1.600177 -0.163221 -0.902334 -0.112104 0.454797 0.931566 0.057003 -0.225467 0.433892 -0.472458 -0.368277 0.693278 0.694618 0.122852 -0.482236 0.494001 -0.086994 -0.404096 -2.669878 0.068879 1.137032 0.588573 -0.519167 0.116958 -1.602132 0.982686 0.151772 -0.405178 -0.353126 -0.322390 -1.665423 0.228188 -0.211038 0.916365 -1.113337 0.954576 0.956940 -0.677024 0.462138 -0.507065 -0.586299 -1.705318 -0.157071 -0.372533 0.230826 -0.293887 0.258932 0.559985 0.526517 -0.196959 0.020476 -1.500481 0.387882 0.691779 0.308493 0.669363 -1.415113 0.610306 -0.702104 0.695827 0.262234 0.042292 0.256214 0.443077 -2.762937 -1.624187 -0.141266 0.737515 -0.028811 0.008005 -0.047484 -0.464421 -0.136523 0.896055 0.211326 0.880914 -0.806142 -0.298415 0.388793 -0.171924 -0.867553 -0.769990 0.012919 -0.307288 1.327208 0.094287 0.358171 0.725926 -0.359936 0.467334 -0.411927 0.229420 0.087894 -0.213839 -0.215981 0.108569 -0.283896 -0.095660 -0.694498 0.067221 -0.355895 0.620989 -0.051648 0.568171 0.913668 0.295827 -0.273864 -0.633270 -0.899252 0.394667 0.828857 -1.023793 -0.831770 -0.196473 0.087592 -0.283772 -0.959457 -1.143873 -0.262283 1.041855 0.316330 -0.025034 1.562349 0.400320 0.176414 
t 0.168112 0.111660 -0.098947 -0.349026 -0.501794 -0.546256 -0.012947 -0.481363 -0.241284 -0.538633 -0.665342 0.054321 -0.309634 -0.234391 -0.322369 -0.308559 0.037691 -0.070888 0.614162 0.293816 0.041170 -0.857385 -0.120267 -0.382987 0.745627 0.331710 -0.584421 -0.093922 0.158651 -0.334151 -0.138452 -0.463031 0.221999 -0.082838 0.277289 -0.500595 0.162567 -0.403505 -0.443310 0.818254 0.017106 0.349579 0.284065 -0.047299 0.402484 0.100890 0.441644 0.229081 -0.718229 0.660993 0.104476 0.046334 -0.802497 0.007759 -0.469415 0.026015 0.357440 -0.236610 0.287345 0.249279 0.746744 -0.323760 -0.052993 -0.760847 -0.722520 0.512544 -0.723835 0.251917 0.327886 0.084796 0.055241 -0.133714 0.024900 0.076276 0.465964 0.428813 -0.314449 -0.391491 0.168766 -0.089697 0.007639 -0.631429 0.468818 0.285327 -0.279306 -0.031240 -0.278788 0.691248 0.011748 0.641469 0.281810 0.367018 0.145262 0.375639 0.287623 -0.178251 0.131815 -0.424583 -0.245417 0.206189 -0.219287 0.529155 0.420978 0.037327 0.542195 -0.685070 0.684359 -1.133304 0.142620 -0.349603 -0.332515 0.056286 -0.027861 -0.202262 -0.213102 0.264503 -0.688139 -0.491539 0.630108 -0.149056 0.450919 0.346123 0.253217 -0.806573 -0.385412 -0.224059 0.774763 -0.041866 0.091315 -0.129356 0.461675 0.045248 -0.116305 0.285501 0.027526 1.581385 -0.131674 -0.107556 0.108314 0.293766 -0.080563 -0.681569 -0.483054 0.044674 -0.510693 -0.026460 0.188251 -0.802195 0.349789 -0.038998 0.546496 0.414643 -0.616045 0.662440 0.265481 0.634102 0.501318 0.374115 0.716491 -0.073205 -0.534029 0.079943 0.407406 0.209857 -0.238970 0.070578 -0.882816 0.574330 0.230694 0.229260 -0.403933 -0.016464 -0.085505 0.207466 -0.050429 -0.172050 0.227614 -0.160044 0.111692 -0.288902 -0.034289 0.070007 -0.060578 0.430325 -0.010987 -0.372366 -0.393114 -0.268670 0.275801 0.021467 -0.531062 0.000320 -0.177137 -0.469536 0.681361 -0.163275 0.521339 0.244480 0.153292 0.170022 -0.598420 -0.371295 -0.320526 -1.367881 -0.296105 -0.621359 -0.100115 -0.222951 -0.473357 0.281752 0.361787 -0.001280 0.200997 0.554030 0.566094 -0.107460 0.485540 0.081019 -0.086100 0.221287 0.046007 -0.224161 0.063579 0.068979 0.098803 -0.844223 -0.078822 0.483757 -0.492339 0.285680 -0.140036 0.409352 0.187055 0.232063 0.222347 -0.809151 -0.361230 -0.641843 0.350574 0.167444 -0.367278 0.496093 0.583011 -0.008383 0.639167 -0.502853 -0.167195 0.626907 -0.333920 0.423870 -0.044328 -0.180399 -0.673465 0.111443 -0.003166 0.241205 -0.352090 0.500422 -0.379978 -0.045305 0.104229 0.289384 0.259315 0.029137 -0.522331 -0.183592 0.148020 -0.016609 -0.152005 -0.378212 0.042137 -0.106166 -0.074300 -0.543528 0.210412 0.288432 0.054087 -0.327144 -0.826197 0.211198 0.522449 -0.079686 0.001549 0.373582 -0.519845 -0.200091 0.301179 -0.553741 -0.341110 -0.178248 -0.580489 0.154661 0.340579 -0.089567 0.105073 -0.403416 -0.619804 0.738708 -1.002343 -0.086867 
d -0.181447 0.523841 0.831573 0.761365 -2.191470 0.246372 0.614370 -0.638389 -0.282509 0.773681 0.331427 -0.102282 -0.844729 0.473472 0.252326 0.579074 0.047232 1.898744 -0.723923 0.348668 -1.813255 -0.871995 0.069621 -1.231350 -0.402844 -1.460734 0.101300 -0.276469 0.831832 -1.090419 -0.173696 -1.445556 0.046804 0.954815 -0.036135 0.721604 -2.276953 0.751974 -2.868499 -0.012803 0.000141 -0.425481 2.042731 -1.155552 -0.180292 -0.197575 1.543301 1.243602 1.481544 -0.508425 1.493677 2.632022 -0.298197 1.446709 0.942405 0.630997 -0.464192 -0.098738 1.093306 0.434891 0.851163 1.094256 -0.254546 -0.415027 -0.434873 -0.066698 -0.309346 0.008408 -0.943787 -0.832391 -0.788188 0.839013 0.639394 1.898396 0.580652 1.082548 -1.784227 0.269606 0.387210 -0.776562 1.162984 1.105901 1.479864 -0.219591 -1.008697 -1.120428 -0.282860 0.900453 0.515176 0.395250 -0.703682 0.748040 -0.838292 -0.433949 2.122750 -0.524110 -0.766104 -0.223594 1.355556 0.075665 -0.046542 -0.565016 0.376023 1.259701 0.220936 0.416861 -1.558773 -1.820047 0.894254 0.621313 1.328531 0.931214 -0.093068 0.879775 -1.405413 1.335991 -0.497863 -0.621878 -0.340000 0.381823 0.508273 -0.112407 0.738240 1.064154 0.080067 1.221874 -0.992389 0.571650 -0.430407 -0.581439 1.050002 0.958475 -1.409261 0.220375 0.374514 2.168763 0.743315 -1.305891 -0.814637 0.484633 -0.165816 0.103041 -2.814971 -0.084600 -1.072633 1.739036 -0.205069 -1.275209 0.232872 -0.748114 -0.962903 0.048080 -0.349274 -1.733130 -1.255588 -0.012705 0.786382 1.316246 -0.486897 1.078924 0.026859 -0.837587 0.282407 -0.177224 0.084199 0.426337 0.215895 -0.734709 -1.636537 -0.528715 -0.097431 0.141236 -1.568672 1.755529 -0.998102 1.382672 -0.902162 -0.125604 -1.173023 0.537107 0.199967 1.101193 -0.519015 0.738753 -0.292358 0.035687 -0.334801 1.215632 -1.884805 -1.270793 -0.841522 -1.492942 -1.187844 -1.806093 0.499880 -0.112575 -0.288836 0.325133 -0.350484 0.750380 0.806787 0.313411 -0.979874 -0.048247 -0.728581 -1.264861 -0.253584 0.308381 -1.291893 0.314248 0.784904 0.912687 -0.055669 -0.816305 1.212846 0.157098 1.137942 -0.144320 -1.042087 0.185803 0.815476 -1.557620 -0.129818 0.001278 -0.141497 -0.521872 -0.273815 -0.436397 -1.686918 0.917916 -0.492246 -0.693678 -0.961139 0.927230 -0.850926 -0.395080 -0.206786 1.166939 0.532876 -0.870646 -0.271192 0.594764 -0.119916 -0.356480 0.531558 2.001641 -0.412190 0.727072 -1.449596 0.051930 -0.966883 -1.530439 0.012353 0.345520 -0.459959 -0.191424 -0.146460 0.590929 -0.562220 -1.507188 1.521239 -0.978712 0.843844 -0.501029 -0.901124 1.072388 1.532040 -0.053163 1.147677 -0.471319 0.619735 -0.511131 -0.150874 -1.147353 0.591226 0.482467 -0.207049 1.137430 -1.030041 1.313941 0.698778 -0.195260 -0.163255 1.676020 0.073006 -1.286765 0.358665 0.352127 0.430054 -0.025804 2.738024 -0.645110 -0.178127 -0.098671 0.566838 -1.368483 0.426148 -0.648250 -0.729631 -0.175069 
j -0.067407 -2.917735 0.980462 -0.305176 -0.937523 1.187707 -1.354517 -0.229793 1.652641 -1.896547 -0.146426 0.211957 0.455266 0.076799 -0.468612 -0.720278 1.746473 2.150625 0.607615 0.145618 -2.812160 -0.191809 -0.062927 -0.256271 -2.280324 0.251834 -1.292058 -0.347511 0.312091 0.473351 0.244451 1.214802 -1.466513 -0.857154 0.072712 0.330187 0.188669 -3.084566 0.394203 -0.770626 0.864920 2.217272 -0.043138 -0.170703 -1.255964 0.935922 1.642583 -0.834584 1.130347 -0.709515 -0.605209 0.482859 0.744733 1.569240 -0.486636 0.873981 2.277533 0.715514 1.178261 -0.451134 0.080269 0.324712 -1.724604 -0.594297 -0.801913 -1.030002 0.935651 0.284270 0.095786 0.109835 0.074663 -0.881667 -1.433730 -0.467198 0.696374 0.925337 -0.816545 -0.027927 -0.141506 -1.138413 0.246595 -0.898184 -0.067308 0.742095 -1.270527 1.211057 -1.565524 -1.201204 0.226285 0.811208 -0.381869 1.840572 0.487121 -0.722047 -1.051101 0.985406 0.124653 -1.442857 1.148269 -0.233652 -1.159573 0.878613 0.006250 -0.939584 0.813182 -0.965723 1.468993 -1.371759 -1.198148 0.971273 1.244302 2.002221 -0.906780 -0.701169 0.005363 -0.128400 -0.404199 -0.367509 -1.386565 1.127440 1.414448 -1.470228 -1.065189 -0.955890 -1.035040 -0.498952 -1.932555 -0.167816 -0.331395 -0.080675 2.175086 -0.361587 -0.484705 1.922804 0.139858 -0.391405 1.281189 1.507922 -0.720430 -0.439047 0.065316 -0.100601 -0.842270 1.247743 -0.337931 -0.722237 -0.945012 1.346262 -0.177415 -2.979804 1.257438 -0.454016 -0.521886 -1.552960 1.295164 -0.429747 2.029963 0.295774 0.095080 -2.018441 -0.614287 -2.296841 0.774417 0.597553 -0.590465 -0.568056 -0.170911 -0.296871 0.659743 0.591946 2.746971 -2.003832 -0.211339 -0.525860 2.651471 1.650040 1.493972 0.855013 -0.016041 0.233769 -0.828957 0.453695 1.014891 2.034092 0.726883 -1.587698 0.938264 -0.134605 -0.505082 -1.991436 0.221683 -0.894810 1.025820 -1.090626 -0.562113 -0.667997 -0.771223 0.405199 0.980607 -0.080481 0.317916 1.913338 -0.569564 -0.108825 -0.544048 -0.403682 -1.457787 -0.328537 -0.240974 -0.538324 0.115137 0.858800 -1.562050 0.198263 -1.239076 0.936464 0.830741 0.574545 0.124174 -0.042228 1.378466 -0.205897 0.138979 1.237387 1.901387 -1.397745 1.457635 -0.801474 -0.605168 0.908826 0.523028 0.927749 0.170044 -1.626629 -0.556886 2.904061 0.525525 -1.572168 0.065087 0.074164 0.560851 0.092988 0.999080 0.380622 -0.720501 1.389303 0.082058 0.551014 1.254192 1.404543 0.409952 0.988936 -0.098883 1.732183 -0.413468 -0.894672 0.568706 -0.508719 -0.185827 0.278923 0.000534 0.163641 0.996731 0.905325 -0.018144 -0.487191 -0.436704 -0.441982 0.277320 0.212981 1.971198 0.070615 -0.303026 -1.051649 -1.580705 0.009720 -0.566874 -1.014765 -0.417020 0.572892 0.396021 -1.729834 0.674393 1.112391 0.388959 -0.602009 -0.602816 -1.053666 0.163292 -1.961411 0.136649 -0.799490 0.580720 -0.753070 -0.961098 -2.049865 -0.380625 -0.348828 -0.285031 -1.734035 
o 0.881739 -0.510034 0.693932 -0.750687 -0.783393 -0.321400 0.764195 -1.097748 -0.575708 -1.258737 -0.235593 0.218715 -0.022669 -0.323351 -0.945859 0.085289 0.255867 -1.886451 0.406945 0.369554 0.024160 -1.207773 0.822277 -0.431332 -0.277712 0.180137 -0.486776 0.982278 -1.007885 0.039801 -0.544333 -0.051717 -1.019339 -1.057155 0.175273 -0.104817 -0.196506 -0.265981 -1.208237 0.821533 -0.010514 0.072160 0.006830 -0.216374 0.619049 -0.424786 -0.028013 0.795324 -0.306151 0.979506 -0.387539 0.156920 -1.786390 -0.258055 0.412127 0.213617 0.755565 -0.826244 0.272288 0.123435 -0.045620 0.307781 0.165879 -0.451076 -1.541927 0.111710 -0.936037 0.234051 -0.578189 0.077247 -1.074827 0.052126 -0.737857 -0.090262 0.037959 0.346002 -0.338840 -0.300058 0.573666 -0.900605 1.092156 0.459411 0.854736 -0.560206 1.127013 -1.914508 -0.833285 0.313328 -0.155134 -0.830088 -0.056856 -0.061450 -0.095313 0.315175 -0.511320 -0.001995 0.318261 0.924121 -0.159625 -0.377899 0.187634 0.000797 -0.350254 -0.148476 -0.321520 0.273592 -0.298918 -0.891630 0.213689 -0.538464 -0.012783 -0.309931 -0.451036 0.346506 -0.889808 -0.515264 -0.864172 -0.159233 0.575060 -0.278200 -0.423500 -0.111902 -0.190957 0.093243 0.555055 -0.678015 -0.334061 -0.358217 0.304774 -0.058909 -0.046277 -0.281613 0.570146 -0.086152 0.127175 1.235701 -0.967759 -1.202256 0.316536 -0.532945 0.230639 -0.284256 -1.160406 0.123493 -0.076272 0.820014 0.588419 -1.427093 0.469337 0.131005 0.392820 0.617590 -0.015588 1.516102 0.536642 0.573683 0.917632 0.895082 -0.018735 0.248001 -0.436379 -0.936820 0.259921 1.012700 1.256573 0.188578 -0.572033 0.466640 0.056963 0.058184 0.300377 1.272921 -1.059460 0.041787 -0.616090 0.932154 -0.486909 -0.028124 0.230621 0.102074 -0.538011 -0.932086 -0.107441 1.118991 0.040380 -0.446023 0.173555 0.310992 -0.335244 0.153757 0.151419 -0.193526 0.081244 -0.569915 0.694819 -0.089769 -0.355643 -0.491683 1.095486 0.396257 -0.460791 0.236470 0.424295 -0.380609 -0.365557 0.272509 -0.935394 -0.688882 0.116254 0.317890 0.855811 0.241004 -0.014367 -0.485668 0.464869 -0.057400 -0.041939 0.292154 -1.130985 0.879160 -0.026225 -1.057003 -0.147610 0.543249 0.608513 0.679114 -0.246486 -0.125434 -0.880467 0.538444 -0.963137 0.773714 0.687547 1.068551 -0.134941 -1.237931 -0.038746 0.468997 -0.457269 -0.982295 -0.642609 0.321620 -0.507657 -0.519074 1.179029 -0.745174 0.405010 -0.227372 0.130669 0.119187 0.029810 0.350549 0.009619 -0.370073 -0.654836 0.174647 0.492874 -0.380240 -1.422752 0.070921 0.053424 0.210999 0.268267 -0.987866 -0.221943 -0.117761 0.682609 -0.105655 -0.043971 -0.602651 -0.073293 -0.157227 -0.435188 -0.265828 0.961328 0.244183 0.861623 0.867685 -1.126166 0.554951 -0.704897 -0.947358 -0.980584 0.924186 -1.732195 -0.370679 -0.347193 -0.529154 -0.587692 -0.240546 0.377482 0.062852 -0.219569 -0.188336 0.892801 -1.498919 -0.689508 0.267169 -0.434125 1.015586 
v -0.704407 0.364109 -0.075138 -0.507861 -0.531956 -0.053453 -0.310211 0.261623 0.071779 -1.944137 -0.451442 1.243724 -0.386409 -0.437645 -1.166327 -0.112255 1.425088 -0.564459 0.351786 0.394588 0.960243 -1.188017 -0.098383 1.241583 1.122771 1.865219 -0.812947 -0.558792 -1.896283 0.152871 -0.105185 0.604550 -0.791967 -1.303067 -0.492541 -0.670337 1.102044 -0.778694 0.252246 0.900247 -0.470866 0.702507 -0.705530 0.278616 1.026390 -0.345458 0.251070 -0.205483 -1.193525 0.779423 -0.721421 -0.354238 -1.040590 0.672420 -0.427484 0.062247 1.663562 -0.881353 0.253646 -0.630599 0.774761 -0.746319 0.524769 -0.842739 -0.611449 0.706511 -0.987616 0.166638 0.730105 -0.129420 -0.342274 -0.102333 0.142370 -0.370565 0.139516 0.145688 -0.001586 0.127232 0.477827 -0.324550 -0.607035 -0.069853 1.168513 -0.403263 0.515976 -0.049519 -0.386770 -0.231485 -0.419512 -0.027435 -0.401257 -0.757866 0.328850 1.265106 -0.650083 0.359066 0.141073 -0.463994 -0.482009 0.603434 0.377611 1.265605 -0.331799 -0.771205 0.571064 -0.055555 1.391290 -0.999240 0.856672 -1.131718 -0.353841 -0.609274 0.349351 -1.602595 1.659806 -0.544156 -0.548090 0.185499 0.679590 0.026182 -0.009659 -0.270542 -0.197520 -0.270342 0.567858 -0.933557 0.007312 -0.227121 0.591808 -0.773175 -0.355656 0.346674 1.755296 0.081009 0.000560 -0.229033 -0.137936 -0.157764 1.181163 -0.240800 0.665084 0.495449 0.596073 0.504197 0.153546 -0.730530 1.063676 0.172679 0.577566 0.905524 0.240187 1.572198 -0.650678 0.696912 0.425427 1.609555 0.200484 -0.582242 -0.725924 -1.049169 -0.573114 0.724401 -0.389614 -0.323676 -0.534689 0.310751 -0.236126 0.961644 0.639457 0.325081 -0.798619 0.373150 0.825751 0.412737 0.969731 -0.096220 0.286033 1.225165 0.399765 -0.141854 0.935895 1.390280 -0.708406 0.112000 0.269344 -0.298255 -0.401997 -0.636036 1.416157 0.318292 -1.892120 0.791358 0.017015 -0.114786 0.573018 0.282590 0.843755 0.605293 0.204852 -0.248655 -0.724789 -0.455458 0.281867 -0.544168 0.293256 0.044535 -0.836907 -0.830021 0.501425 0.846247 0.343965 0.056681 0.130249 0.327931 -0.356388 0.129802 0.115681 0.703262 0.228803 0.950165 -0.022211 0.451303 0.482839 1.165804 -0.264707 -0.390550 0.387773 0.519507 1.196154 -0.676634 -0.109234 0.961030 -0.029057 -0.228250 1.036709 -0.057655 -0.685834 -1.088668 0.363849 0.561389 -1.268364 0.720433 1.288640 0.730532 -0.012429 -1.454016 -0.295633 -0.066405 -0.952143 -0.504493 -0.010739 0.605596 -1.031948 0.336069 -0.267036 -0.735037 -0.179418 0.972854 -0.647117 0.867008 -0.482633 -0.045011 -0.807845 0.937103 -0.351007 -0.314395 -1.385041 0.317895 -0.185101 0.626844 -0.924296 0.152084 0.362456 1.239297 0.283519 0.574399 0.418327 -0.156630 -0.325155 0.096164 -0.698654 -0.129770 0.332371 -0.030847 -1.305205 0.047729 0.579383 0.146229 -0.544697 0.103380 -1.319319 0.051744 0.378621 -0.854472 -0.085677 -0.143944 -0.861325 0.452564 -0.074152 0.714287 
a5 0.790940 0.198461 -0.570361 -0.577006 -1.009050 -0.027153 -0.446153 0.177045 0.169268 -1.123545 0.316284 1.466004 -0.744740 0.691610 0.179819 -0.283057 -0.933018 -1.520678 0.862698 -0.076545 -0.889406 -0.653144 0.085934 -1.233887 -0.576020 0.646945 -0.266466 0.600650 0.808218 -1.391806 -0.395272 -0.589121 -0.140747 -0.260388 0.465800 -1.277020 0.200361 -0.933204 -1.091541 -0.331464 -0.275708 1.782079 0.601365 0.413297 -0.462902 -0.443041 0.488566 0.364151 0.022432 -0.513105 0.029236 -0.785427 -1.356179 0.445569 -0.368055 -0.617924 0.879591 -0.905322 1.039339 0.419546 1.878756 -0.747307 0.645809 0.026266 -1.520274 -0.688635 -1.852867 0.803129 0.197914 -0.038144 -0.273031 -0.882980 -0.321484 0.552288 -0.020241 0.952654 -0.441069 -0.654414 0.102447 -0.489971 -0.139393 0.100951 1.014482 0.307366 -0.770418 0.814165 -0.824006 -0.105548 -0.035691 0.469588 1.113678 -0.490370 1.371382 1.126882 -0.665536 0.813701 1.218984 -0.281021 -0.387420 0.247013 -1.450074 0.904664 0.464153 -0.692814 -0.397947 -1.781164 1.390555 -2.010192 0.294338 0.161291 -0.827098 -0.126843 -0.213707 -0.903897 -1.612907 0.768397 -0.509551 -1.203958 0.546993 0.301504 -0.108882 -0.613249 -0.301006 -1.349567 0.626740 0.238852 0.220515 1.027353 -0.030931 -0.626856 0.200702 0.525533 -0.351007 -0.130403 0.123988 1.161676 0.419803 -0.522260 0.733863 0.800705 1.054733 -0.222982 -1.268233 0.687704 -0.099163 0.102068 0.422135 0.129893 0.097226 -0.406938 0.211760 1.499719 0.168076 0.188557 0.393251 0.471283 0.903834 0.946839 0.665527 -0.318882 0.451634 0.102742 1.303482 0.575512 0.330910 0.209205 -0.114600 0.327357 1.578800 0.968159 -0.093476 0.082699 -0.580387 0.662416 0.818542 0.143484 -0.059155 0.454196 0.820124 -1.413416 -0.286722 0.329150 -0.606881 0.801020 -0.987437 -0.914358 1.244208 -0.911079 0.879375 -0.397482 -0.679588 -0.253258 1.210829 0.377457 -0.242252 -0.205047 0.743607 0.202818 0.932265 -0.180189 -1.107149 -1.170064 -0.343057 -0.404037 -1.539961 -0.298438 -0.438715 0.651220 -0.295889 0.136224 -0.161223 1.128522 -0.590000 0.422467 -0.053770 -0.419864 1.721754 1.520510 -0.166271 -0.942117 -0.776778 -0.232199 -0.504060 0.811742 0.267373 -0.568461 -0.731279 0.315723 -0.665317 -0.458724 -0.006714 -0.998930 1.237501 -0.006940 0.072098 -1.185871 -0.194003 -0.583400 0.759957 0.651801 -1.036877 1.266025 0.762483 0.344193 0.226651 -0.899002 -0.159653 0.822845 -0.218038 1.277490 0.848420 -0.612813 -1.457906 1.466380 -0.753990 -0.649367 0.128948 0.592577 -1.177035 1.040906 -0.813341 0.541034 -0.794913 -0.553883 0.287022 -1.454676 0.684590 0.808147 -0.051954 -0.856579 -0.191903 -0.586859 -0.114274 -0.693082 0.416323 -0.244070 1.108410 -0.686947 -1.189517 0.056732 0.107188 -0.661771 -0.180982 1.047161 -1.241075 -0.681686 0.615889 0.006964 -0.492178 -0.359688 0.724258 -0.549250 -0.457229 0.266555 -0.391971 -1.359586 -1.189742 1.641646 -1.254948 -1.624773 
m -0.317610 -2.064056 0.903767 -0.004645 -0.811635 0.621771 -0.967860 0.015716 2.220899 -1.220792 -0.165646 0.527882 -0.106787 0.093128 0.046762 -0.407791 1.951040 2.134247 0.111014 -0.274897 -1.899468 0.189373 0.208381 -0.702130 -2.083462 0.435620 -1.481084 -0.300946 -0.033280 0.083248 0.355604 0.932694 -1.378592 -0.926268 -0.030562 0.128926 0.251633 -2.865391 -0.099451 -0.562501 0.638450 2.786102 -0.342478 -0.181942 -0.834842 0.355444 1.551609 -0.454244 1.099418 -0.603725 -0.471434 1.051258 1.110077 1.542954 -0.577867 0.923895 1.609369 0.451885 1.028211 -0.618408 0.769803 0.219729 -1.395842 -0.071408 -0.537654 -1.301221 0.803498 0.336635 -0.987618 0.314632 -0.306125 -0.891317 -1.184087 -0.499764 1.177832 1.184905 -0.718478 -0.200961 -0.175208 -0.725982 0.375735 -0.180538 0.435504 0.614639 -1.383154 2.452127 -1.230088 -1.523975 -0.155554 1.025075 -0.378961 1.522706 0.265332 -0.445297 -0.380803 1.283797 0.264942 -1.159484 1.227483 -0.118965 -1.108698 0.447250 0.208922 -0.578434 0.528965 -0.968365 0.872806 -0.759386 -1.276242 1.166637 1.187843 1.511569 -1.301911 -0.521787 -0.027882 0.022874 0.283468 -1.145138 -1.298734 0.921175 1.095019 -1.283422 -0.721067 -0.523475 -0.368605 -0.458092 -2.010249 -0.181114 -0.192857 0.494278 1.395799 -0.603079 -0.395449 1.760250 0.190754 -0.998432 1.117319 0.881040 0.344935 -0.626508 0.454534 0.124294 -1.073801 0.851057 -0.438068 -0.174994 -0.750274 1.577598 -0.314208 -2.393071 1.030396 -0.138505 -0.230130 -1.598054 1.194597 -0.443572 1.846125 0.676033 -0.504610 -1.880521 -1.004986 -1.691516 0.662330 0.451089 -0.530198 -0.550397 0.294829 -0.892016 0.501972 0.556927 2.012407 -1.427735 -0.140209 -0.502589 2.117438 1.764116 1.412831 0.999515 0.142754 0.357954 -1.212573 0.520358 1.028234 1.979774 0.227601 -1.682767 0.557032 0.454139 -0.952069 -1.876483 0.647370 -1.028537 0.271261 -0.719480 -0.738357 -0.201497 -0.390837 0.376589 0.992152 0.571550 0.201624 1.532743 -0.582124 0.535581 -0.489926 -0.415857 -1.201824 -0.097320 0.140038 -0.256243 0.023252 0.583263 -1.852148 0.468498 -1.292903 0.706369 1.164117 0.068729 -0.280439 -0.215008 0.894808 0.468222 -0.017824 0.717462 1.684302 -1.592913 1.501357 -0.546008 -0.004753 0.435987 0.359391 0.865550 0.019624 -1.459447 -0.951135 2.443808 0.161799 -1.710684 -0.164156 0.491560 0.545555 0.104821 0.467003 0.636322 -0.933571 1.206904 -0.002513 0.319991 0.260320 1.143785 0.034406 0.679196 -0.015009 2.039390 -0.510724 -0.892710 0.206182 -0.742341 -0.283260 0.666976 0.188760 -0.002061 0.932068 0.920422 -0.243538 -0.240994 -0.153817 0.013977 0.428725 0.920729 1.684765 -0.131749 0.002191 -1.439305 -0.717015 -0.423367 -0.762004 -0.937464 -0.864582 0.618234 0.321723 -1.666678 0.749548 0.839887 0.222686 -1.038908 0.074215 -1.075109 0.107120 -2.194834 0.415845 -0.519941 0.265614 -0.811730 -0.794017 -2.287262 -0.330593 -0.689305 -0.188544 -1.623198 
k 0.471838 -0.484225 1.649514 0.343989 1.138791 -0.308964 -1.093041 0.880177 -0.658747 -2.479356 0.617140 -0.984818 0.519679 0.840721 0.590842 -0.217798 -0.424055 -1.175428 0.357797 1.826222 0.812207 0.993902 -0.323822 0.302771 -0.528567 1.750516 -0.146111 0.867339 -1.041428 -0.348561 0.656902 0.746112 0.444654 -0.411197 1.171572 -0.558517 -1.297564 1.595131 0.383932 1.084341 -1.226850 -1.313226 -0.764609 0.087285 -0.606914 -0.339569 1.023588 0.371498 0.091660 0.313194 0.213258 -1.502432 -0.473448 -0.234297 -0.973655 -0.807482 0.398595 1.544315 -0.820343 0.798262 0.008801 -0.176906 -0.553558 -1.791981 0.941048 0.031191 -1.554041 -0.184977 -0.165359 -0.552832 -0.050418 0.182632 1.526595 -0.307827 0.594347 -1.301155 0.286283 -0.780890 -0.973365 -0.394643 -0.962567 -0.661195 -1.206771 0.155170 1.190779 2.430609 -0.950863 1.969923 -0.014680 0.614323 0.686863 -0.171945 0.628254 -2.427439 0.249505 0.307259 -0.422226 -1.327439 0.594663 0.200173 -1.319448 -0.042245 0.523945 1.352867 -0.437326 0.537104 0.095551 1.074959 -0.845835 -0.401459 0.173342 -1.081996 0.949362 0.024560 -0.634362 -0.246211 -0.357757 0.096189 -0.181419 -0.765927 1.018587 1.429110 -0.625641 -0.525947 -1.020705 0.544054 2.616905 -1.068052 -0.307901 1.021671 -0.654127 0.738876 -1.204627 -1.472233 -0.671202 0.806116 -0.844837 -0.340386 1.261759 -0.307351 -1.441155 0.000713 -0.266522 0.731034 -1.230884 -0.171795 -0.049503 -0.285021 -1.339312 0.714953 -0.100478 1.486358 0.450817 0.410504 0.981916 0.069080 -0.402878 1.635339 0.059445 1.518353 0.441565 0.794684 1.221454 -0.365833 2.108553 0.819644 -0.133380 -0.169513 -1.283732 -0.431633 -0.618795 -0.349302 -1.429164 -0.689054 -0.661395 -1.182510 -0.374553 -1.101837 0.898322 -0.501454 -0.196102 -0.324969 0.745476 -0.000328 -0.840566 -0.662105 1.642960 -1.553094 0.357857 0.381548 0.377156 -1.361358 1.486756 -0.430450 0.680519 -0.138564 -0.515716 -0.067180 -0.256528 0.118811 -0.761791 0.027211 0.138405 -0.911330 -0.458162 -0.625098 -0.694329 0.850481 -0.663350 0.215677 0.609812 -0.095721 0.326550 1.515717 0.707418 0.906018 -0.538905 -0.684450 0.118264 -0.231404 -0.662448 0.986338 -0.276307 -0.391212 0.462356 1.642781 1.050100 0.933246 0.039948 0.404334 0.100900 -0.617069 0.847201 1.139917 -0.552171 -1.350645 -0.670783 1.375439 -0.399372 -0.161094 -0.065854 0.422920 -0.088635 0.420794 -0.178940 0.174505 1.555299 0.324493 -0.074911 0.247916 0.725013 -0.849181 1.062994 0.426798 -0.866368 -0.114623 1.227740 -0.763039 -1.269319 -0.595523 -1.847881 0.420424 -0.241007 -0.376521 -0.993282 -0.000766 1.375171 -0.563500 -1.627597 0.568724 -0.510551 0.311475 0.287812 0.584488 0.150307 -0.067927 -0.029920 -0.830489 -1.495533 -0.542844 -0.895968 -0.942236 0.358870 0.591390 1.850291 -0.894994 -0.319160 -0.361052 -1.565977 0.282267 -1.090294 -0.732729 -0.565943 1.447401 1.853313 1.108519 -0.687397 2.626060 -1.133520 -0.538078 
p 0.691244 -0.417628 1.008508 -0.099260 -0.063094 -1.168824 0.049117 0.713376 -0.160746 -2.672227 1.087721 -0.336796 -0.173070 0.185021 -0.025405 0.627990 -0.881029 -0.877069 1.086437 0.093807 0.659189 0.143908 -0.263987 -1.143651 -1.671099 0.995454 -0.526609 0.881978 -0.751721 -0.832219 0.576111 -0.491372 0.899310 -0.536218 1.231281 -1.262044 -0.722390 0.294642 -0.944104 0.737307 -1.149478 -0.060405 -0.732030 0.627031 -0.508544 -0.459387 0.447251 0.549675 0.539602 -0.704981 0.988523 -1.743519 -0.979143 0.065838 -0.715878 -0.582809 1.558687 0.144500 0.542752 0.616160 0.599298 -0.573507 -0.878428 -1.048537 0.850165 -0.205287 -2.608475 0.821932 -0.333862 -0.270605 -0.397128 0.130489 0.991016 0.950611 0.063009 0.323177 -0.157213 -1.272266 -0.232185 -0.836809 -0.026029 0.602647 0.829079 -0.422116 0.314573 0.432689 -1.829127 1.679093 0.743426 0.487870 1.481627 -0.403455 1.389392 -0.927589 -0.351438 0.318818 -0.055324 -0.177964 0.690813 0.059651 -1.489952 0.423886 0.272139 -0.235788 -0.618125 -0.181214 -0.065376 -0.643684 0.507811 -0.267792 0.161713 -0.796279 0.451440 0.021183 -2.207982 -0.000823 -0.926659 -0.846568 -0.082186 -0.719447 1.432353 -0.198648 -0.731398 0.112499 -0.466456 0.411611 0.827765 0.248713 0.012367 0.871508 0.611058 0.926251 -0.599835 -0.788011 0.035435 2.693841 -0.237155 -0.899626 0.134065 -0.521664 0.017488 -0.345711 -0.893028 0.708717 -1.611826 1.020193 0.689075 -0.589770 -1.538208 -0.459588 -0.071376 1.783809 1.286840 -0.090767 0.997213 -0.246071 0.772607 2.124991 -0.439847 0.905989 1.403991 0.036240 1.243058 -0.310228 1.968059 0.892220 -0.804168 -1.274519 -0.001407 -0.203110 -0.661029 0.145419 -2.074883 0.134673 -0.579771 -0.193028 -0.783297 0.118161 1.101949 -0.753214 -0.603883 0.359007 0.514325 0.994721 0.035505 -1.442412 1.096894 -0.365901 -0.015537 -0.009589 0.045992 -1.464660 0.812341 -0.421144 0.360085 -0.206878 0.263460 -0.027986 0.382684 0.416399 -0.253809 -0.264464 0.148152 -0.246403 -1.361099 -0.780611 -0.354949 0.836548 -0.366985 0.102396 0.950291 1.081507 0.502844 0.857065 1.239906 -0.031968 1.298410 -0.394826 -0.155938 0.108900 -0.732524 -0.030392 -0.616507 0.042274 0.672356 1.005099 -0.174708 -0.071514 -0.789354 0.356705 -0.415622 -0.831311 1.800982 1.253821 -0.785313 -2.137625 -0.208725 1.099188 -0.200107 -0.304429 -0.741170 1.211247 -0.145657 0.887978 -0.312970 -0.337469 1.113122 -0.035367 -0.107951 1.356933 0.481930 -0.650518 -0.029167 1.463963 -0.891021 -0.553200 1.193907 -0.763321 -1.715298 -0.082989 -1.158525 0.303599 -0.600243 -0.904680 -0.388995 -0.273571 0.796570 -0.349397 -0.964555 -0.236142 -0.720301 -0.106150 -0.566363 -0.645297 0.430987 -0.215019 0.897017 -0.044327 -2.365216 -0.717828 -0.936604 -0.977193 -0.428099 1.523641 0.625009 -1.306672 -0.418712 0.171478 -0.878271 -0.133007 0.917539 -1.220890 -1.091891 1.894928 0.930086 -0.684522 -1.414864 2.153875 -1.304336 -0.019033 
r 0.119428 -1.482576 -1.443298 1.223320 -0.213359 -0.109398 -0.467157 0.970338 -0.814322 -0.635590 1.700337 1.296870 0.864375 -0.688943 -0.917719 0.528040 1.582494 1.972258 -0.458459 -0.347762 1.313149 -0.008040 -1.320467 -1.005296 0.355688 -0.879864 0.668949 -0.289100 -0.970017 -0.712986 1.675928 2.019243 0.135871 1.143249 -1.125137 -2.278285 -0.417122 -1.123756 -0.279986 0.162354 -0.461674 -1.948084 1.712781 0.352902 0.776928 -1.796099 2.754544 -0.681636 -0.355208 -0.554161 -0.197081 1.466328 2.188874 1.272029 1.633545 -1.880246 -0.146602 -0.812296 0.142972 -0.669551 0.681719 0.640307 -0.314750 -1.198655 -0.184033 -1.108140 -1.220159 -1.439551 -0.648861 -0.023692 -0.398850 0.345310 0.910374 0.972572 -0.286856 1.057876 -1.425789 0.797111 0.082062 -0.433984 -0.040404 0.786453 1.025869 -0.146377 0.510737 0.069361 0.466063 -0.447396 -0.790601 1.931075 -0.737109 -2.860459 0.162155 -1.168621 -1.755270 0.040343 -1.431361 -0.054517 3.574713 -0.253155 1.313196 -1.029053 -0.009204 1.718553 -0.430065 -1.853320 -0.020046 1.541490 -0.398599 -0.084379 -0.729014 -1.554929 -0.257082 -1.415550 -0.788317 0.683418 0.770463 1.623455 0.253106 -0.606852 0.582173 1.771982 0.910399 0.074311 -0.513474 0.582628 -1.850051 -1.948848 0.512882 0.437522 -0.642636 0.322697 -1.025724 0.644304 2.088658 -0.926065 0.202946 -1.302915 -0.965781 -2.935928 0.011310 -1.004320 -0.883543 -0.266246 0.925533 1.974363 -1.161522 0.905250 1.848504 -1.093011 -1.328522 -0.992905 -1.138541 -1.579079 -0.946871 -1.216335 0.980073 -0.646544 -1.117921 0.259147 0.706933 0.540411 -1.116957 -1.385273 0.356576 -1.269238 2.475135 -1.021000 -1.631198 0.442066 1.812780 1.514203 -1.451795 1.974838 0.391721 -1.809915 -0.957473 -0.209455 0.483492 0.232617 2.526322 -0.428291 -0.651178 -0.115528 0.476661 0.125234 -0.222317 2.258682 0.481181 -0.342028 1.518465 -0.220327 0.877164 -1.512404 -0.652283 0.655741 1.392541 -1.445586 0.134943 -2.008276 2.036039 -0.387084 -0.042739 -1.045794 -1.000197 -0.529107 0.077900 1.311321 0.674055 -1.041879 1.238165 0.261640 1.002771 1.124387 -1.645351 1.165269 -2.134077 -0.179659 1.433288 -1.570210 0.493856 -0.323448 0.033091 2.375427 0.620333 -1.204577 -1.715041 -2.370028 1.463919 -0.465319 1.672162 -0.903415 -1.237068 -0.155956 1.665061 -0.331200 -0.677590 1.408327 0.228820 -2.778545 -0.918637 -1.778579 -0.329853 -1.395102 -0.365479 0.304016 -0.865415 0.675495 -0.187616 1.069204 0.788205 -0.926722 0.619281 0.993499 0.981668 -3.077435 0.547125 -0.457684 1.683317 0.307922 0.003549 -0.340809 0.562707 -1.068031 0.654973 1.106459 1.481246 1.091913 0.117042 -0.775897 -0.829950 -0.605059 1.547745 0.116578 -1.448871 -0.754564 -1.219488 -1.978695 -0.475008 -1.074870 1.188092 -0.928288 -1.542015 0.237149 -0.274225 -0.225802 -0.940067 -0.234109 1.294264 0.426570 0.783704 -0.362888 -0.245213 0.689566 0.429734 0.212114 2.153193 -0.334300 -0.406611 -0.318773 
a8 -0.269488 -0.146485 0.799277 0.143465 1.025720 -0.901034 -0.390092 0.779411 -0.387204 -1.724029 0.176205 -0.151135 -0.471963 0.125204 -0.891651 -0.007007 0.177137 -0.566646 0.454746 1.013141 1.105874 0.392874 -0.749009 0.464488 0.114848 0.279138 -0.155432 -0.721181 -0.295516 -0.182496 0.199074 -0.201987 0.226689 0.007444 0.482512 -0.122815 -0.083306 0.528956 1.002988 0.953067 -0.834914 -1.142649 -0.842753 -0.054920 0.473324 0.220014 -0.362582 0.555614 -1.070618 0.702797 0.042373 0.261873 0.036032 -0.435512 -0.743756 0.910267 -0.425128 0.602606 -1.192863 0.139746 -0.617495 0.443415 0.682425 -0.115636 0.349311 0.980710 -0.427123 -0.770932 0.473746 0.099426 -0.287032 0.872175 0.845822 -0.899657 -0.093275 -1.370024 0.233466 0.051107 -0.798597 0.459480 -0.621574 -1.445081 -0.884861 -0.303069 0.202498 0.732578 -0.955575 2.060942 0.096454 0.462154 0.410871 0.880045 0.139822 -1.082208 0.873057 -1.279083 -0.351370 -0.877792 -0.225614 -0.555099 -0.471322 -0.205412 1.531205 0.371820 0.377850 -0.022899 -0.393715 0.766197 0.339354 -0.942495 0.563158 -0.384290 0.526884 0.520742 0.570362 -0.400872 0.400362 0.998020 0.205617 -1.093848 1.033741 1.101172 0.183484 0.016397 -1.412924 -0.023014 2.284715 -0.734883 -0.602625 0.540112 -0.239423 0.377514 0.073335 -0.416540 -0.098893 1.290894 0.311687 0.573751 0.429010 -1.100091 -1.901545 -0.386139 -0.360063 0.198971 -2.112202 -0.337284 -0.533590 -0.786951 -0.087942 0.002207 0.696326 0.723246 0.200497 -0.289428 -0.269058 -0.040786 0.058994 1.149014 0.056106 0.762932 0.329051 -0.207829 -0.074174 -0.168930 -0.030906 0.730005 -0.020520 0.709641 -0.268850 0.097529 -0.916073 -0.799253 -1.052627 -0.506293 -1.613504 -1.227538 -0.616169 -0.454851 0.443888 -0.009048 -0.095551 -0.352503 1.037880 -1.289096 -0.430877 0.448490 1.073577 -1.249924 0.590167 -0.350419 -0.611403 -0.629882 -0.677690 -0.328387 0.438266 0.113093 0.137946 -0.312947 -0.359640 -0.257996 -0.914939 0.241356 -0.330651 -1.921522 -0.570768 0.135203 -0.573244 0.199705 -0.412149 -0.037139 0.900599 -0.034853 0.624107 1.528992 0.146603 0.773695 -0.659821 -0.167993 -0.296640 0.196008 0.228790 0.676071 0.267326 0.367931 0.071873 0.192836 0.311300 1.239998 -0.527376 0.050627 0.558887 0.003619 0.406383 0.710548 -0.293905 -0.607679 -0.480224 -0.108719 -0.255374 0.134416 -0.725907 0.790924 0.778521 -0.338500 0.558469 0.036499 0.703191 0.057656 0.141570 -0.111272 -0.468249 -0.138171 0.596617 -0.409280 0.230645 0.552531 0.048563 0.066657 0.479061 -0.243802 0.295672 1.341525 0.229984 0.419330 -1.007970 -0.314596 0.668274 0.442336 -0.718543 -0.272525 0.106399 -0.048551 1.044376 0.279123 -0.638366 0.292502 -0.518858 -0.732570 -1.045095 -0.244449 -0.266524 -0.531910 0.958164 0.396711 1.087020 0.611785 0.281164 -0.835187 -0.835246 0.221555 -1.500298 -0.173444 -0.457730 0.426132 0.565527 0.574670 -0.963335 1.640182 -1.547121 0.102756 
q 1.643783 -0.239230 -0.449712 0.348509 -1.766182 0.840430 -0.159591 -0.138656 -0.053518 -0.718756 0.501772 0.896978 -0.474307 0.992410 0.062392 -0.311268 -0.818940 -1.102080 0.534952 0.673740 -0.770401 -0.497910 -0.229625 -0.588858 -0.829767 0.348250 0.490046 0.509667 0.991698 -0.771188 -0.748931 -0.884031 -0.289172 0.087247 0.878872 -1.439595 0.641532 -1.110473 -0.564165 -0.950264 0.187423 0.886920 0.687202 0.118910 0.060144 -0.625600 0.481366 0.294148 -0.242307 -0.741656 0.045340 0.155436 -1.133589 0.533356 0.670779 -0.252806 0.031113 -1.392492 0.970874 -0.335936 0.754436 0.718144 1.433610 0.774041 -1.382396 0.354823 -0.683617 -0.141319 0.305072 0.256035 -0.502572 -0.484194 -0.307305 -0.021514 0.064662 0.072236 -1.253375 0.319240 -0.031834 -0.196909 -0.259507 -0.246644 -0.218858 0.802373 -0.503725 0.751200 -0.982380 -0.194748 -0.100086 0.632383 0.518304 0.066842 0.367136 0.693638 -0.111690 0.515488 0.353878 -0.556831 0.054076 -1.024424 -0.935862 -0.027354 0.295942 -1.326409 -0.624200 -1.529573 1.044700 -1.186227 0.328904 -0.325978 -0.119631 0.361994 -0.547563 -0.428677 -1.008359 1.004862 0.395515 -0.018729 -0.361747 -0.063207 -0.256728 -0.162148 -0.611335 -0.645630 0.931536 0.350323 0.302527 0.618443 0.226364 -1.228158 0.328136 -0.069478 0.105422 -0.212997 0.971759 0.078661 1.210462 -0.179037 0.651448 0.588111 -0.387884 0.174614 -1.392756 0.451055 -0.274513 -0.366918 0.285106 -0.176938 0.531434 -0.827845 0.926753 1.124040 -0.254867 -0.701615 -0.608793 -0.093885 0.946783 0.346406 0.738866 -0.140416 0.703068 -0.620849 -0.620406 0.706673 -0.492512 0.338879 0.212047 0.505925 0.447516 0.504877 0.742996 0.751648 -0.674524 0.561529 0.281467 0.307773 0.350779 0.439480 0.379496 -0.832955 0.524882 -0.290777 -0.501795 0.798796 -0.440905 0.040733 2.047880 -1.248776 0.343848 -1.065236 -0.507122 0.406961 0.635903 0.945044 -1.067117 -0.464471 0.424859 0.020029 1.264456 -0.082344 -0.652127 -1.089839 -0.489920 -0.241694 -0.861053 -0.003292 -0.403055 0.278254 0.085930 -0.499047 0.372609 0.399479 -0.458037 -0.232590 -0.661608 0.771194 0.675426 1.308799 -1.107131 -1.467495 -0.352993 -0.402464 -0.029715 0.553198 -0.024939 -0.460266 -1.186130 0.188231 -0.674676 0.196020 0.378406 -1.262069 -0.070113 0.086162 0.138305 -0.401118 1.042685 -0.867707 0.794400 0.015522 -1.511326 0.850019 0.753655 -0.173522 0.520045 0.283691 -0.795520 0.788463 -0.149922 0.926690 0.949727 -0.701968 -0.902056 0.843724 -0.577028 -1.045951 -0.329598 0.728702 0.160591 0.479332 0.224156 0.845785 -0.118804 -0.604880 -0.478927 -0.724487 0.661366 1.504839 -0.187205 -0.459145 0.041719 -0.130513 -0.116236 -0.530491 0.138408 0.037210 0.487524 -0.669257 -0.885989 -0.153304 0.682102 -0.886893 -0.526699 1.175047 -0.437722 -0.234350 0.156112 -0.248270 -0.163383 -0.817453 0.479171 -0.253864 -0.103493 0.131665 -0.386965 -0.886987 -1.054949 1.464570 -1.826136 -1.127759 
s 0.021853 -2.797294 1.296279 -0.417244 -1.299265 1.381561 -1.675809 -0.018853 1.539884 -1.797798 -0.115042 0.570018 0.457562 -0.207871 -0.107525 -0.556786 2.044059 1.580228 0.297962 -0.243285 -2.161200 -0.181576 -0.320589 0.138985 -1.993196 0.822811 -0.821148 0.162293 0.230918 0.498797 -0.007038 1.903807 -1.711269 -1.191026 0.691641 0.048785 0.197258 -3.078682 0.449760 -0.815227 0.394491 2.376032 -0.183253 0.295463 -0.874387 0.687124 1.739916 0.027674 0.683106 -0.884922 -0.002383 0.933007 0.748830 0.775943 -0.621758 0.742101 2.071248 0.334455 1.021442 -0.352353 0.094668 0.565015 -1.518747 -0.061396 -0.735117 -0.738897 0.778639 0.255773 -0.167542 0.357237 0.381287 -0.941383 -1.508840 -0.772569 0.545054 1.076162 -1.044278 -0.127012 -0.239906 -0.803117 0.005917 -0.700484 -0.050967 0.914335 -1.786430 1.569911 -1.800817 -1.071172 0.280639 0.865211 -0.335146 1.973144 0.236454 -0.469097 -0.873149 0.946141 -0.230130 -0.957100 1.135520 -0.153711 -0.716113 0.990731 0.241222 -1.034576 0.959247 -0.994850 1.365419 -1.327216 -1.053070 0.939843 0.898084 1.320604 -0.846386 -0.500022 0.032865 0.212289 -0.220271 -0.110342 -1.209779 1.429897 1.579850 -0.879336 -0.751352 -0.883417 -0.764550 -0.657379 -1.724505 -0.177250 -0.733976 -0.299472 1.237810 -0.204651 -0.451654 1.611961 0.157578 -0.471175 1.124717 1.452173 -0.634589 -0.258707 0.129537 -0.045903 -0.733223 1.040196 -0.943899 -1.233977 -0.427937 1.383710 -0.165917 -2.633309 1.019903 -0.357551 -0.268189 -1.217384 1.484631 -0.396438 1.700305 -0.003124 -0.063692 -1.652164 -0.542549 -2.185796 0.832055 1.104618 -0.707861 -0.965798 -0.154767 -0.340851 1.193560 0.282870 2.177876 -1.603460 -0.304118 -0.437330 2.695874 2.006722 1.820569 0.757500 0.283651 -0.270943 -0.447959 0.404356 0.632960 1.878993 0.294072 -1.379518 1.142895 0.324840 -0.534369 -1.443442 -0.007452 -0.701944 0.803014 -0.751782 -0.746566 -0.451962 -0.643420 0.332768 0.706009 -0.211179 0.243376 1.757418 0.165970 -0.235701 -0.914673 -0.288143 -1.589660 -0.489530 -0.012340 -0.513219 -0.074500 0.640385 -1.692704 -0.031997 -1.436103 1.160053 0.768028 0.693581 -0.316114 0.094544 1.045751 -0.121310 0.283389 1.901540 1.578980 -1.679084 1.343478 -0.623074 -0.534927 0.721889 0.378899 1.377925 0.042272 -2.101473 -0.492071 2.491493 0.866073 -1.568228 0.202728 0.211480 0.023981 -0.273490 0.771715 -0.000742 -0.579710 1.253646 -0.202717 0.443467 1.128682 1.239077 0.660959 0.610731 -0.298767 1.725942 -0.686572 -0.900683 0.499006 -0.685514 -0.239259 0.444630 0.065423 -0.333419 1.232189 1.012278 -0.015546 -0.454069 -0.441035 -0.319344 -0.006126 0.706041 1.881652 -0.054398 0.035378 -1.147122 -1.387160 -0.107883 -0.834818 -1.004778 -0.898509 0.459800 0.664719 -1.863815 0.467810 1.186766 0.303939 -0.775868 -0.325151 -0.702204 -0.162952 -2.057653 -0.195928 -0.568997 0.453531 -0.682895 -1.358881 -2.265901 -0.521067 -0.241924 -0.425354 -1.432986 
u 1.253114 -0.950759 -0.592644 0.598778 2.020840 -1.764825 0.929223 1.236309 -0.361359 1.517787 -0.390689 1.007286 -0.956531 -0.225868 -0.686942 0.914851 1.695355 2.648335 -0.593514 0.492062 1.623817 2.348591 0.172119 -0.899756 0.486451 0.633986 0.786561 0.281752 0.243526 -1.741092 0.734519 2.131415 1.024638 1.530975 0.632848 0.381016 -0.482652 -0.007576 1.467538 0.723015 0.517049 -2.463534 -0.115377 -1.543563 -0.365065 -1.117512 0.990587 -0.497184 -1.495119 0.439243 -0.603308 1.144002 0.904123 -0.127156 0.065444 0.637759 -1.218128 -0.436082 -0.673092 0.078349 -1.097407 1.068090 -0.332705 0.967312 0.475998 -0.396758 0.623031 -1.577381 -0.535813 0.207735 0.261372 0.090817 1.556598 1.611906 -0.194420 -1.230117 -0.521833 0.401590 -0.602807 0.571257 -0.700223 0.023471 0.255167 1.039650 -0.227908 0.161096 1.890124 -0.423306 -1.027525 1.876323 -0.249461 -1.057659 1.477870 -1.830818 -0.033044 -1.298066 -0.769143 0.530830 0.924713 -0.433607 -0.665847 -1.048318 1.268986 1.544463 0.207470 0.814987 -1.123384 2.145095 0.240619 0.467195 -1.340724 0.260127 0.724476 -0.259997 0.107879 -1.157780 0.494478 -0.084869 -0.496325 0.216759 1.411748 1.356921 0.373170 0.958426 -1.761133 0.526258 0.219878 -2.477974 -0.560399 1.048926 -0.518269 -0.364170 -0.124745 0.326313 1.390320 -1.320534 -1.843010 0.216751 -2.230787 -3.194526 -0.594560 -1.276766 1.249043 0.540548 -0.382473 -0.106085 -0.386691 1.043136 0.897776 -0.179948 0.448988 -1.447347 -0.292454 -0.262447 -0.445577 -1.400055 -0.364802 -0.195161 -1.423335 0.452077 0.233301 -0.205066 0.500077 -0.060036 -0.189083 -0.584863 2.179982 -0.691868 -0.273796 0.088336 -0.458254 0.389786 -2.244032 0.188487 0.830382 -3.769664 -0.623885 -1.223163 -0.360888 0.999143 1.082556 0.101638 1.788753 -2.049021 -1.288399 1.082536 0.186523 1.624456 0.210285 0.765390 0.884641 0.869890 -0.539255 -1.301884 -0.088467 -0.259565 0.440217 -1.628322 -0.290212 -1.903062 1.937519 1.284349 -0.444762 -1.266262 -0.680179 -1.189111 0.138577 0.884329 0.664603 -2.274852 0.548812 -0.368101 -0.562275 0.342173 -0.629793 -0.599207 -1.378263 0.408866 0.912644 -1.321023 0.076236 0.762288 0.865354 -1.123536 -0.784056 0.524348 -1.098101 -0.487127 -0.766090 -0.788880 2.399954 -1.502087 0.551319 0.229915 0.652458 -0.166376 -0.137827 -0.129715 -0.678626 -2.156388 -1.397841 -1.845347 -0.739435 -0.475763 -0.546084 -0.325721 -0.095719 0.122793 1.111683 1.163899 0.283448 0.591004 0.068890 -0.441624 1.916514 -2.041638 -0.751735 0.320804 1.793402 0.038165 0.992325 0.554872 0.778851 0.264447 1.629450 -1.364999 0.056175 -0.946105 -0.590272 0.332245 0.373833 0.351240 1.186170 -0.381532 0.066992 -0.794394 -0.648600 0.279987 0.766072 -1.337193 1.523018 1.369998 -0.159134 -0.364530 1.763583 2.141614 -1.100557 -0.437637 0.422454 -0.651989 0.044509 -0.658011 -0.630737 0.228332 0.669087 2.870017 1.359550 -0.415333 -0.114114 -1.106064 
