219 500
</s> 0.000801 0.000884 -0.000766 -0.000656 0.000273 0.000604 0.000188 0.000042 -0.000721 0.000444 -0.000871 0.000250 -0.000150 -0.000191 -0.000663 -0.000376 0.000516 0.000605 0.000594 0.000319 0.000309 -0.000761 -0.000819 0.000994 0.000760 0.000618 -0.000121 0.000803 -0.000099 0.000147 -0.000030 -0.000597 0.000262 -0.000267 -0.000765 0.000951 0.000876 -0.000219 -0.000045 0.000102 -0.000728 -0.000801 0.000911 0.000013 -0.000516 -0.000608 -0.000615 0.000339 0.000040 0.000266 -0.000843 -0.000762 -0.000026 0.000229 0.000510 -0.000634 0.000816 0.000185 0.000224 -0.000122 0.000597 -0.000458 -0.000419 0.000432 -0.000151 0.000206 0.000361 -0.000818 -0.000397 0.000583 0.000846 0.000786 -0.000609 -0.000422 -0.000182 0.000400 -0.000758 0.000600 0.000558 -0.000320 -0.000310 -0.000448 0.000846 0.000782 -0.000236 0.000843 0.000964 0.000363 0.000997 -0.000622 -0.000306 -0.000421 -0.000581 0.000563 0.000316 0.000085 -0.000439 0.000305 0.000612 0.000039 0.000456 -0.000991 0.000863 0.000096 -0.000366 -0.000417 -0.000150 -0.000587 -0.000874 -0.000567 0.000855 -0.000354 -0.000536 0.000463 -0.000341 0.000951 -0.000321 -0.000918 0.000543 -0.000015 -0.000698 0.000195 0.000288 -0.000096 0.000365 -0.000792 0.000176 0.000363 -0.000602 0.000028 -0.000012 -0.000480 -0.000567 -0.000939 0.000005 0.000031 0.000002 -0.000787 -0.000992 -0.000949 -0.000865 -0.000109 0.000278 0.000237 -0.000636 0.001000 -0.000402 -0.000255 -0.000281 0.000947 -0.000753 0.000232 -0.000267 0.000638 0.000008 0.000854 -0.000564 -0.000521 -0.000838 -0.000733 -0.000640 -0.000623 0.000489 -0.000373 0.000536 0.000738 0.000271 0.000590 0.000495 0.000468 -0.000710 -0.000687 -0.000731 -0.000026 0.000826 -0.000547 -0.000612 -0.000839 0.000661 -0.000836 -0.000116 0.000436 -0.000924 -0.000896 0.000289 0.000705 0.000853 0.000429 0.000632 -0.000626 -0.000728 0.000795 -0.000553 0.000351 0.000115 0.000358 -0.000236 0.000040 -0.000337 -0.000225 -0.000887 -0.000652 0.000697 0.000201 -0.000473 -0.000318 0.000499 -0.000707 -0.000463 0.000947 0.000850 -0.000792 0.000174 -0.000450 0.000030 0.000601 0.000969 0.000397 0.000823 0.000629 -0.000046 0.000895 0.000507 0.000948 -0.000341 0.000949 0.000866 -0.000285 -0.000884 0.000967 0.000179 -0.000416 -0.000144 -0.000147 -0.000771 -0.000286 -0.000089 -0.000985 -0.000703 -0.000241 -0.000188 0.000358 0.000163 -0.000123 0.000589 0.000289 0.000110 0.000723 -0.000225 -0.000285 -0.000083 -0.000546 -0.000600 0.000040 0.000868 -0.000273 -0.000004 -0.000827 0.000742 -0.000304 0.000594 -0.000482 -0.000179 0.000019 0.000725 -0.000017 0.000887 -0.000149 0.000420 -0.000027 -0.000780 0.000850 0.000211 -0.000606 0.000602 -0.000829 -0.000871 0.000654 -0.000686 -0.000530 0.000706 0.000657 0.000137 0.000905 0.000971 0.000811 0.000353 -0.000870 0.000458 -0.000978 -0.000257 0.000302 0.000196 -0.000305 0.000588 -0.000922 -0.000282 -0.000262 -0.000331 0.000614 -0.000946 0.000556 0.000268 0.000566 0.000736 0.000055 0.000165 -0.000910 -0.000206 0.000643 -0.000357 0.000843 -0.000239 -0.000776 -0.000518 0.000980 0.000668 -0.000793 0.000963 -0.000842 -0.000955 0.000495 -0.000131 -0.000466 -0.000076 -0.000503 0.000479 0.000763 0.000836 -0.000882 -0.000424 0.000002 -0.000187 0.000764 0.000440 0.000907 -0.000615 0.000341 0.000854 -0.000366 0.000584 0.000257 -0.000903 0.000840 0.000942 -0.000583 -0.000049 -0.000320 0.000489 -0.000773 0.000699 -0.000188 -0.000243 -0.000406 -0.000880 -0.000610 -0.000224 0.000924 -0.000504 -0.000927 0.000079 0.000122 0.000608 0.000015 0.000696 0.000597 -0.000262 -0.000127 0.000159 0.000253 0.000667 0.000803 -0.000501 -0.000504 -0.000324 -0.000538 0.000248 -0.000766 -0.000454 -0.000995 0.000435 0.000873 -0.000441 -0.000910 0.000594 0.000317 -0.000504 -0.000128 -0.000246 -0.000025 -0.000363 0.000007 -0.000553 0.000752 0.000765 0.000652 -0.000295 0.000055 0.000161 -0.000537 -0.000941 -0.000211 -0.000394 0.000597 0.000539 0.000361 -0.000620 0.000709 -0.000322 0.000677 0.000266 0.000955 0.000506 0.000143 -0.000456 0.000993 -0.000445 0.000666 0.000997 0.000978 -0.000144 0.000652 0.000904 -0.000433 0.000940 -0.000993 0.000048 -0.000085 0.000839 -0.000862 -0.000291 -0.000321 0.000083 0.000950 -0.000331 -0.000984 -0.000296 0.000850 0.000209 0.000581 -0.000766 -0.000256 0.000111 -0.000469 0.000703 -0.000961 0.000655 -0.000478 0.000642 0.000640 -0.000377 0.000710 0.000084 0.000954 -0.000704 -0.000249 0.000559 0.000887 0.000455 -0.000197 0.000098 -0.000154 0.000382 0.000520 -0.000767 -0.000264 0.000857 0.000060 0.000995 0.000964 0.000163 -0.000922 0.000915 0.000436 -0.000920 0.000731 -0.000976 -0.000441 0.000890 0.000675 -0.000146 0.000238 -0.000626 -0.000934 0.000436 0.000881 0.000812 0.000561 0.000302 0.000392 -0.000013 0.000315 -0.000518 0.000179 0.000180 -0.000014 0.000507 0.000147 -0.000829 -0.000271 
3 -0.137841 1.007688 0.329306 0.330938 -0.228280 0.169546 0.970426 -0.071041 -0.209795 -0.455265 -0.359794 0.162992 -0.149082 0.892911 -0.243826 -0.846651 -0.198768 -0.147989 0.423365 0.814492 1.349974 1.024508 -0.449774 0.230111 0.392549 0.217931 0.015091 -0.033653 0.622535 0.255441 0.377014 1.326038 0.274844 -0.618815 -0.560397 0.178965 -0.287847 0.809859 -0.102989 -0.142764 -0.571516 -0.258738 0.347242 -0.415686 -0.556231 0.325914 0.705787 0.716389 -0.156737 0.204813 -0.565307 -0.532463 -0.167464 -0.120822 -0.363094 -0.186740 -0.976131 0.393724 -0.407348 -0.481881 0.743962 0.079992 -1.505205 0.473050 -0.543214 0.103487 -0.027944 -0.087766 -0.385641 -0.153900 -0.436982 0.669965 0.615381 -0.736241 0.153516 -0.658274 -0.226833 0.665960 0.941700 -0.107294 0.733462 -0.050795 0.046745 0.403969 -0.162975 0.328267 -0.104459 -0.421338 -0.940527 -0.231634 0.418214 0.222404 -0.137393 -0.656416 -0.219378 0.414604 0.211470 -0.320367 0.396172 0.424877 -0.177333 0.134562 0.672302 -1.613409 -0.668533 0.074349 -0.110688 -0.409313 -0.568608 -0.398662 -0.140107 0.035179 -0.136233 -0.392244 -0.304868 -0.121497 0.809107 -0.128570 0.422995 0.189808 -0.013642 -0.732736 0.018125 -0.299318 0.248125 0.565735 -0.055422 -0.342736 -1.182139 0.539120 -0.287615 0.029280 0.918870 0.652906 0.562235 0.382753 1.192205 0.543174 0.674700 -0.259583 -0.648666 0.228706 0.471348 -0.548671 0.058394 0.095135 -0.115406 -0.183756 -0.345608 -0.298163 0.086368 -0.283469 0.878846 0.856710 -0.517517 0.129519 -0.938404 -0.003880 -0.204026 -0.146203 -0.071723 0.420124 0.026260 -0.223114 -0.016288 -0.522930 0.275809 -0.354529 0.983273 0.098108 0.329836 0.132779 0.573380 0.524428 0.373184 0.133519 -0.286786 0.424720 0.744557 0.204123 -0.254969 0.845871 -0.341318 -0.712161 0.184471 -0.569999 -0.166092 -0.123907 -0.245880 0.239977 -0.290870 0.272630 0.284075 -0.609383 -0.021150 -0.535820 -0.411094 0.743391 1.056074 -0.416113 -0.449972 -0.595798 0.642456 0.034255 -0.194852 -0.708065 -0.271544 0.093339 -0.464651 -0.781185 -1.143454 -0.306460 0.036906 0.448217 0.191666 -0.195276 -0.401947 0.315414 -0.021234 0.843162 0.197103 0.756338 -0.093278 0.608474 0.563668 -0.250152 0.262983 -0.415783 0.636381 0.264900 -0.476584 0.176331 0.306498 -0.423317 -0.373693 -0.315171 0.442447 -0.065576 -0.041634 -0.031612 0.327750 1.345588 -0.102999 0.267192 0.356977 -0.778143 0.419896 0.446762 0.225319 0.264511 -0.279080 0.172504 0.179017 0.866161 -0.032216 -0.035270 0.596436 -0.605613 0.109609 -0.526085 0.399894 -0.145847 -0.246445 0.296839 0.308107 0.388246 -0.152125 -0.543181 -1.043774 -0.032168 -0.234920 -0.825096 0.072176 -0.590876 0.284389 0.108611 0.383334 -0.382413 0.394710 0.179843 0.803436 -0.238632 0.325651 0.714586 0.834548 -0.322271 -0.261059 -0.317828 0.132832 0.620240 0.518935 -0.090730 -0.405947 -0.389600 0.482715 -0.070342 -0.988184 -0.305623 -0.042606 -0.963606 0.017662 -0.746598 -0.045034 -0.420615 0.124637 0.657747 0.282027 -0.033095 -0.412143 0.535447 0.337670 -0.206989 -1.105552 0.554477 0.145405 -0.520448 -0.207713 0.048034 -0.437479 0.350860 -0.377318 0.287369 0.644091 -0.058461 -0.118125 -0.242854 -0.193939 -0.329888 0.334588 -0.455217 0.041565 -0.507187 -0.921789 -0.169726 0.501416 -0.202955 0.112979 -0.436847 0.767939 0.412930 -0.162359 -0.064395 0.743157 0.045549 0.193108 0.082436 -0.320076 -0.170661 0.469518 0.087164 0.339854 0.151446 0.006845 -0.230686 -0.110205 -0.283807 0.949879 -0.081749 0.240904 0.686609 0.621511 -0.001613 0.052786 -1.092058 -0.609628 -0.262683 0.425974 -1.056203 0.475323 0.311987 -0.198477 -0.796099 0.855926 -0.496560 0.050444 -0.350030 0.382343 -0.566156 -0.085303 0.273546 0.490220 -0.377679 0.483498 -0.493590 0.324429 0.456437 -0.016339 -0.080594 0.991040 -0.233997 0.809691 0.300810 0.245581 -0.276906 -0.024644 0.215079 -0.363997 -0.124191 0.808065 0.052284 0.214864 -0.087388 -0.089357 0.045107 -0.716572 0.230140 0.438231 -0.007380 -0.227629 0.624272 0.260680 0.381566 0.733406 -0.499283 0.043932 -0.139934 0.125981 0.020926 -0.174713 -0.087763 0.391334 0.139358 -0.262254 0.230276 -0.231763 0.193615 1.129400 0.423787 -0.070700 0.423784 -0.086400 -0.576049 0.158756 -0.165752 -0.278444 -0.104383 0.251161 0.109730 0.529149 -0.650454 0.051526 -0.219725 0.955253 1.448537 0.071399 -0.084885 0.481685 0.627318 0.166707 -0.178579 -0.116171 -0.027480 -0.027911 0.759291 0.448550 0.203219 -0.566296 -0.935250 0.291135 -0.750674 -0.012912 0.234047 0.505856 1.142529 -0.414852 0.201785 0.061520 -0.629043 -0.495550 -0.750450 -0.443745 -0.544029 -0.249164 -0.704693 -0.332510 0.427520 -0.349714 -0.180505 -0.319153 -0.138627 0.100183 1.113852 -0.207074 -0.900002 0.086044 -0.344096 -0.175410 -0.364949 0.604917 0.278356 0.263297 0.784418 -0.435467 -0.101775 0.066725 -0.846544 0.352967 0.090751 0.306832 0.167145 
1 0.206622 0.107477 -0.529106 -0.072346 0.009257 0.556894 0.379430 -0.412180 0.212301 -0.723921 0.180468 -0.965397 -0.406125 1.144366 -0.202327 -0.660459 -0.057119 -0.771630 0.336976 -0.052252 -0.505042 0.188663 0.597317 -0.032460 0.385935 0.149911 -0.103302 -0.490385 0.536608 0.100290 0.344729 0.040112 0.487380 -0.644046 -0.312645 0.169300 0.736010 0.766283 -1.225493 0.144242 -0.773682 -0.931153 0.342111 0.643413 -1.183350 0.284539 0.071005 -0.568409 -0.095135 0.206473 0.307873 -0.161753 -0.046204 0.228557 0.122779 -0.032079 -0.189197 0.650081 -0.782065 0.271636 1.586551 -0.077991 0.641368 0.083297 -0.393300 -0.200674 0.474036 -0.764872 -0.327931 0.037053 -2.081711 -0.084190 0.799574 0.601797 -0.402069 0.881587 0.190189 -0.366069 0.264013 0.232097 -0.251807 -0.268720 -0.599939 0.127948 0.491831 0.503566 0.426298 -0.084148 0.025029 -0.290487 0.308882 0.665597 -0.719763 -0.106347 -0.573757 0.636876 -0.306031 -0.423882 0.168763 0.152174 -0.344542 -0.458361 0.206661 -0.223453 0.801657 0.048807 0.360277 -0.562742 -0.831939 0.374137 -0.393874 -0.353918 0.429523 -0.218219 -0.331497 0.013264 0.426580 0.576232 0.292006 -0.392169 0.054645 -0.111114 -0.859834 0.847102 0.174826 0.263199 0.736258 -0.256831 -0.674906 -0.447835 -0.197259 -0.816120 0.550978 0.800438 -0.116836 0.512695 0.719699 -0.093355 0.529358 -0.066836 0.622545 1.098136 0.301575 -0.154759 0.294120 0.192374 -0.126693 0.373825 -0.210886 0.221387 0.124480 0.064801 0.320189 -0.242804 0.084631 -0.060128 -0.466659 0.408575 -0.548344 -0.040864 0.283661 0.233544 0.878316 -0.076045 -0.612672 -0.329774 -0.064217 -0.281480 -0.400641 0.015372 -0.246316 0.407783 0.370539 -0.802614 0.159049 0.037332 -0.378248 -0.088370 0.344130 0.341763 -0.547707 0.392826 -0.441432 -0.227480 0.075501 0.391450 -0.090862 0.128170 -0.319539 -0.206882 -0.715620 -1.060797 0.127894 -1.108917 -0.289323 -0.034723 -0.465283 -0.069178 0.927774 -0.596625 0.061764 -0.200623 -0.164700 0.901215 -0.623209 -0.816478 -0.592861 0.167004 -0.085095 0.679132 -0.512933 0.113998 0.928389 0.509456 0.347272 -0.161045 -0.250788 0.033233 -0.407580 -0.176911 -0.165446 0.688524 0.091168 0.147229 0.536792 0.423222 -0.342847 0.374017 -0.011643 -0.746796 -0.075285 -1.044473 0.372150 -0.728179 0.307461 0.171823 -0.054042 0.833323 0.237312 -0.138385 0.657937 0.532702 0.165223 0.269891 0.386148 -0.438194 0.688725 -0.327800 0.810029 0.579816 -0.131688 -0.115012 0.311728 0.907059 0.049598 -0.369927 -0.269914 -0.309373 0.188438 -0.183488 0.538712 0.189922 -0.833161 0.734619 -0.010365 0.188201 -0.401971 -0.043562 -0.092517 0.301942 0.187165 -0.373528 -0.103968 -0.858036 -0.315079 -0.256977 1.348873 -0.111876 0.252024 0.603360 0.543149 -0.115402 0.977433 0.230493 0.445094 0.271267 -0.150262 0.875698 0.201089 0.474147 0.265854 -0.144542 0.102535 0.127647 -0.006168 -0.779839 -0.959674 0.844476 -0.057616 0.343029 0.507670 -0.866559 -0.323790 -0.008772 0.210434 0.989968 0.328074 -0.177637 0.154438 0.340414 -1.008371 -0.757251 -0.545673 0.271649 -0.190254 -0.308773 0.030631 -0.029303 -0.253150 0.418824 -0.878813 -0.387129 0.462013 -0.185293 -0.074824 -0.285821 -0.202425 -0.874279 -0.075792 -0.063501 -0.690237 -0.069103 -0.605718 -0.498495 0.282690 -0.257168 0.017377 -0.693346 0.613844 -0.166822 0.177451 -0.618084 0.491484 -0.005730 -0.963614 -0.232918 0.225810 -1.057955 -0.357889 0.694147 0.477014 0.020244 0.016862 -0.502776 0.329298 -0.634199 -0.381313 -0.078090 0.054715 0.210333 0.076144 -0.431267 0.067908 -0.629607 -0.508622 0.014318 -0.164694 -0.917912 0.421705 0.189326 -0.094194 -0.323834 0.050910 -0.506323 0.417659 -0.115993 0.173017 -0.579565 -1.013832 -0.240876 -1.010092 -1.092306 0.445136 -0.507487 0.382298 -0.455150 -0.104021 -0.279566 -0.671440 -0.587676 0.323483 -0.049239 0.521824 -0.513456 0.324545 0.434769 -0.656708 0.052938 -0.624381 -0.024344 0.795794 -0.294305 -0.712619 0.985198 -0.211357 1.055125 0.071765 -0.016452 0.659007 -0.483149 -0.130576 -0.889235 0.480173 -0.338227 1.045655 1.019903 0.314459 0.396195 -0.635299 -0.770195 0.470533 1.127548 0.363640 0.753053 -0.208157 -0.001141 0.824877 0.017820 0.014273 0.300603 0.191721 -1.355091 -0.122414 0.461331 -1.081392 -0.054707 0.180881 0.517001 0.711957 0.643493 -0.002438 -0.361415 -0.345303 1.200604 0.496500 0.263201 0.468874 0.261701 0.206928 -0.207215 0.700060 -0.136888 0.366714 0.822496 0.472128 0.226682 -0.580272 0.195564 0.095421 -0.013114 -0.202295 0.208812 0.603620 0.680205 -0.627123 -0.379764 -0.149716 -0.500055 -0.342756 -0.802282 -0.684253 -0.124002 0.498135 -0.260122 0.417284 0.242444 -0.098196 -0.852375 -0.222068 -0.452188 1.149444 0.535131 0.446728 -0.605064 1.006312 -0.229795 -0.034620 -1.139178 0.281269 -0.189191 -0.321462 0.870993 -0.813922 0.276590 0.296454 -1.013297 0.667827 0.491954 -0.413378 -0.059840 
2 -0.475498 -0.086657 -0.349638 0.305246 -0.076244 0.649931 0.535191 -0.120348 -0.110973 -0.185123 -0.204515 -1.002981 -0.656023 1.194092 0.084581 -0.007364 0.078243 -0.703945 0.305756 0.150277 -0.792743 0.851552 0.632496 0.240478 0.291354 0.282904 -0.036793 -1.207513 0.213611 0.180109 0.191702 0.154143 0.379630 -0.710151 -0.365447 0.226840 0.185807 0.359964 -0.952564 0.116668 -0.509292 -0.477163 0.066390 0.353413 -0.750621 -0.265906 0.227486 -0.261781 -0.332589 0.390033 0.396131 0.008840 -0.363627 0.426132 -0.247607 0.378181 -0.407703 0.642999 -1.216791 -0.173224 1.738638 0.336574 0.356739 0.081973 -0.289339 -0.734719 0.774120 -0.371621 0.367987 0.181436 -1.799613 0.016492 0.521114 0.536641 0.002238 0.963763 -0.120443 -0.518222 0.745050 -0.190751 -0.072360 -0.345873 -0.344253 -0.270389 0.589249 0.836429 -0.187658 -0.162300 -0.296278 -0.460682 0.921583 0.200941 -0.337020 -0.410754 -0.801291 1.006351 -0.463290 -0.171364 0.646571 0.123363 -0.560238 -0.918733 0.369045 -0.705608 1.028871 0.507320 0.127967 -0.251870 -0.655825 0.462252 -0.448250 0.078451 0.397220 -0.215749 -0.698585 -0.023104 0.280834 0.071297 0.660355 -0.274491 -0.203097 -0.043807 -0.530028 1.060110 0.164292 0.643338 0.652341 -1.128798 -0.792199 -0.087337 0.522522 -0.752753 0.700156 0.508443 -0.015649 0.026004 0.210582 -0.194485 0.985311 -0.472568 0.980461 0.940609 -0.227463 -0.234794 0.485313 0.275198 0.212715 0.312447 -0.313993 0.466479 0.128639 0.156623 -0.174736 -0.191711 -0.023663 -0.172280 0.044827 0.588979 -0.482590 0.020967 0.330978 0.157155 0.124597 0.038460 -1.064099 -0.051750 -0.271759 -0.505257 -0.368036 -0.412532 0.243138 0.292261 0.935172 -0.666202 0.293930 -0.093392 -0.339709 -0.020415 0.776192 0.457045 -0.334911 0.347564 -0.399924 -0.098716 0.200845 0.128692 -0.237685 0.231981 -0.633479 0.273031 -1.181954 -0.887423 0.409587 -0.987814 -0.865027 0.089147 0.103046 0.106871 1.327020 -0.424422 -0.284906 0.018777 0.002570 0.639028 -0.926734 -0.958410 -0.546928 0.755062 0.069404 0.746061 -0.666453 -0.332324 0.541321 0.328105 -0.276336 -0.105315 0.040864 -0.619939 -0.554636 0.258957 -0.251977 0.147720 0.023869 -0.224422 0.802374 0.068157 -0.492303 0.066629 -0.023079 -0.801254 -0.009688 -0.585658 0.004882 -0.684572 -0.012586 0.166223 0.120229 0.933830 0.394717 -0.114793 0.911619 0.057246 0.405468 0.082574 0.528373 -0.411201 0.651262 -0.087584 0.079471 0.292001 -0.299420 -0.240078 0.564644 0.713794 -0.134960 -0.256496 -0.150367 -0.288372 -0.236918 -0.135716 0.269718 0.185607 -1.059038 0.826807 0.058551 0.365841 -0.285751 0.183066 0.229785 0.670785 0.239924 -0.725029 0.190639 -0.397275 -0.392529 -0.330582 1.408216 0.055966 0.119212 0.068133 0.177020 0.089527 1.103924 -0.321357 0.616161 0.372597 -0.023778 0.806246 -0.448350 0.312575 0.409610 -0.014922 -0.043401 0.348898 -0.108224 -0.775405 -0.903641 0.872933 -0.417203 0.325799 0.607537 -0.626629 -0.836544 -0.398781 -0.126494 0.375855 0.308235 -0.339499 -0.061176 0.699137 -0.799757 -0.840902 -1.061586 0.371298 -0.491772 -0.005796 0.433195 -0.111938 0.167348 0.509712 -0.617189 -0.774132 0.293912 -0.211972 0.185466 -0.422680 0.071427 -0.374944 -0.221098 0.259026 -0.765832 -0.252142 -0.514670 -0.854451 0.482802 -0.408599 0.137904 -0.806685 0.593403 -0.211523 0.198169 -0.361391 0.374796 -0.259206 -0.738544 0.317257 0.313585 -0.717772 -0.250124 0.678330 0.521098 0.032213 -0.001495 0.387754 0.496579 -0.678376 -0.445739 0.130949 0.482772 0.034377 0.003294 -0.324925 0.150065 -0.720949 -0.628027 0.003200 0.076618 -1.202038 1.221585 0.234176 -0.095765 -0.625493 0.166237 -0.490613 0.108796 0.435046 0.605024 -0.943743 -1.343320 0.170509 -0.752929 -1.134695 0.854642 -0.536052 0.122799 -0.542517 0.309637 0.315507 -0.647390 -0.774796 0.657788 -0.649084 0.685055 -0.656025 0.367231 0.085726 -0.780830 -0.542589 -0.897810 0.330397 0.696297 -0.615701 0.050909 0.427889 0.453911 1.037062 0.214685 -0.321373 1.418260 -0.248351 0.290836 -1.089245 0.286686 0.188528 0.951598 0.853175 -0.101097 0.349034 -0.801683 -0.633627 0.490727 1.117523 0.704383 0.419676 -0.104693 0.019077 0.303741 0.292169 0.332791 0.266378 0.102102 -1.063562 -0.002319 0.836698 -0.856674 0.198066 0.307876 -0.282454 0.643827 0.330693 -0.313323 -0.474286 -0.623830 0.904016 0.018156 0.306563 0.213371 1.051646 0.089224 -0.568735 0.197476 -0.125994 0.546546 0.934510 0.719670 0.455068 -0.339366 0.224051 0.216281 -0.534627 0.038978 0.314017 0.750429 0.457008 -0.576293 0.205108 -0.693071 -0.581334 -0.758953 -0.809099 -0.364138 0.567060 0.251308 -0.381661 0.224819 0.200427 0.169416 -0.762626 0.265596 -0.571091 1.083179 0.433950 0.253376 -0.843335 1.033758 -0.077950 -0.033773 -0.838339 0.365485 -0.533925 -0.402729 1.285028 -0.976496 0.406319 0.454191 -0.929455 0.559624 0.484288 -0.691820 -0.496334 
c 1.530775 1.510371 0.387557 -0.232234 0.198684 -0.339747 1.159904 -0.106124 0.429099 -0.870796 -0.555690 0.076351 0.779698 0.415818 -0.590635 -1.353630 -0.477679 0.080205 0.781698 0.186367 1.200615 0.593492 -0.715920 0.110919 -0.121608 0.345788 0.462722 0.046328 0.895266 -0.306203 1.236647 1.045871 0.090489 -0.187421 -0.701516 1.470090 -0.098974 0.792287 0.445162 -0.838149 -0.435696 -0.884700 0.884269 -0.449473 -1.147336 0.268582 0.390464 1.075139 0.030521 0.137594 -1.011302 -0.683778 -1.022134 -0.261470 -0.316068 -0.054000 -1.033768 0.267593 -0.371551 -0.607381 0.152672 -0.167603 -1.934376 1.393930 -0.707537 0.438871 -0.258877 0.305001 -0.911802 -0.618073 -0.831628 0.502697 0.932901 -0.710685 0.618266 -0.578549 0.561146 1.264198 0.520270 -0.139341 0.887891 -0.516185 0.585577 1.138247 0.056773 0.405816 0.507321 -0.102404 -1.099830 -0.052231 -0.432134 1.037545 -0.178440 -0.703706 -0.532382 -0.103304 -0.017885 0.070075 0.432906 0.893701 -0.719791 0.829437 0.420758 -1.838943 -1.045277 -0.458291 0.265656 -0.535405 -1.068916 -0.679257 -0.249977 -0.435504 -0.448052 -0.385814 0.431299 -0.137810 0.802768 -0.523664 0.372200 0.292513 0.235565 -0.860818 -0.490451 -0.960456 0.292403 0.450238 0.339281 0.541327 -1.019815 1.265950 -1.612892 0.269725 0.703048 0.610560 1.062493 0.844569 0.959642 0.668099 0.168896 0.304327 -1.638292 0.228297 1.103429 -0.537018 -0.011378 -0.398133 -0.511084 -0.771505 0.383939 0.102512 -0.758180 -0.094377 1.138939 0.771756 0.008010 0.482577 -0.626924 -0.179126 -0.329607 -0.361040 -0.548112 0.401657 0.635469 -0.105625 0.722063 -0.486850 1.122203 0.492339 1.133163 0.337822 0.758469 -0.602916 -0.075481 0.894438 1.241344 -0.504930 0.018209 0.321160 0.024921 0.006883 -0.163373 1.220635 -0.193192 -0.971135 0.404572 -1.278533 0.278952 0.548831 0.144602 0.026730 -0.427620 -0.086114 -0.089585 -0.301138 0.675470 -0.031563 0.267928 1.302078 0.843201 -0.618036 -0.928427 -1.316136 1.318266 0.044507 -0.278932 0.128365 -0.200375 -0.753771 -0.729240 -1.516612 -0.946396 -0.315556 -0.640311 0.903191 0.853734 -1.234939 -1.304950 0.512233 0.244681 0.633264 0.539959 1.418746 0.263250 1.051056 -0.009093 -0.191457 -0.393684 -0.632060 0.876613 0.381481 0.919880 0.435124 -0.420272 -0.213112 -0.782373 -0.319076 -0.199328 0.044177 -0.451677 -0.246231 -0.787435 1.445543 0.121278 0.528022 -0.051204 -0.315389 0.764534 0.383109 0.380097 -0.354535 0.302452 0.756700 -0.570272 0.426270 0.037058 -0.115644 0.486919 0.168217 -0.054914 -1.055194 0.550385 -0.425180 -0.514473 0.314341 -0.044486 -0.384903 0.419016 -1.329335 -1.838787 -0.360343 -0.191654 -0.328147 0.870996 -0.802199 0.616137 0.699375 0.276493 -0.206155 0.646052 -0.414093 1.277500 0.767362 -0.545596 0.993697 1.103226 -0.300553 -0.526577 -0.216968 0.678378 1.057770 -0.276286 0.384437 -0.789612 -0.774034 0.399433 0.191356 -1.114231 -0.395578 0.540822 -1.837868 -0.922915 -1.058804 0.282561 -0.823750 -0.226732 0.366323 0.314465 -0.682292 0.042740 0.033086 0.589342 0.665618 -0.946848 0.482568 0.288052 -0.330873 -0.893003 0.186681 -0.441004 0.235619 0.143548 0.727195 0.781993 0.738015 -0.413321 0.277818 -0.415951 -0.247579 0.244978 -1.489712 0.113930 -0.242462 -0.461115 0.278381 0.795297 -0.817386 0.071607 -0.300422 0.567030 0.164069 -0.412013 0.061795 -0.161944 0.289218 1.157984 -0.092529 -0.258644 0.077181 1.146678 -0.133462 0.083329 -0.425882 0.373222 -1.587296 0.195381 0.107198 0.603824 -0.630464 0.530224 1.083457 -0.245066 0.171298 -0.539301 -1.261012 -0.483159 -0.086629 0.929697 -0.643240 0.617677 0.534991 -0.189237 -0.032981 0.842184 -0.738659 -0.323811 0.280210 0.088012 -1.050556 0.533946 0.249309 0.805363 -0.208081 0.536308 0.268368 0.737130 0.202536 0.051497 0.225513 1.280266 0.742928 0.739857 1.325752 0.838782 0.094987 0.227016 -0.026881 -0.708697 -0.121688 1.339702 0.315330 -0.714142 0.381045 0.147727 -0.768409 -0.366803 -0.007579 0.121764 0.134285 -0.926490 0.503518 0.165754 1.098990 1.011358 -1.252119 -0.053275 1.070250 0.184401 0.533086 -0.026958 0.094357 0.738630 -0.411086 -1.370300 0.314910 0.247680 0.426153 1.372097 -0.074884 0.610801 0.322640 -0.276819 -0.553870 -0.707474 -0.790629 0.156992 -1.021935 0.593764 0.148450 0.112658 -1.172704 -0.664526 0.050224 1.096638 0.843282 0.059958 -0.070635 0.531977 0.155329 0.301742 0.232143 -0.213041 0.064630 -0.595048 -0.053719 -0.073175 0.215657 -0.180511 -2.129625 0.311464 -0.554909 -0.048526 0.421640 0.332529 0.868985 -0.186667 0.248110 0.782701 -0.660310 -0.040106 -0.108261 -0.370268 -1.204896 -0.051232 -1.156757 0.194330 0.325434 -0.487064 -0.218906 -0.794293 0.301083 0.411207 1.221234 -0.161304 -0.053574 -0.198072 0.138967 1.080666 -0.981092 0.300967 0.913217 -0.371994 1.074954 -0.508690 -0.365256 -0.650578 -0.442626 1.068933 -0.176370 0.946490 0.748634 
a 0.056894 0.128909 0.002026 -0.109417 0.488193 -0.577152 -0.047644 -0.055676 -0.196289 -0.288506 0.169001 -0.097919 -0.042718 0.355249 0.909638 -0.227339 0.022245 -0.101507 -0.108240 0.542737 -0.073936 -0.139470 0.418256 0.231757 -0.614223 -0.359985 -0.479288 -0.457783 0.055995 -0.355567 0.655349 -0.382945 0.003650 -0.012138 0.197091 0.701901 -0.305188 0.219264 -0.373057 -0.501544 0.074024 -0.401803 0.307366 -0.320241 -0.212694 -0.304707 -0.435950 -0.022514 0.113480 -0.664274 -0.078269 0.546337 0.381956 0.030667 -0.323266 -0.013202 0.028503 -0.481625 0.321349 -0.276835 0.289966 0.211400 0.149679 0.817990 0.272088 -0.088994 -0.378548 -0.495553 -0.363763 0.353398 0.147066 -0.549999 -0.259106 -0.220975 0.038017 0.338715 -0.003891 0.604952 0.291774 0.288661 0.207775 -0.265082 0.153309 -0.401842 -0.086928 -0.345275 -0.097942 0.316605 -0.187376 -0.122766 -0.196835 0.657836 -0.092477 0.445757 0.016330 -0.081281 -0.174570 0.014022 0.078310 0.745561 -0.883306 -0.078759 0.086159 0.709126 -0.640141 -0.200629 0.391191 0.120423 -0.281126 0.466430 0.498953 0.315559 0.559095 -0.116856 -0.169058 0.116842 -0.059317 -0.671297 -0.086262 0.156988 -0.266739 -0.132439 -0.258629 -0.268261 -0.350392 0.294981 0.456816 -0.087193 -0.673642 0.382404 0.063023 -0.765075 -0.274828 0.441505 -0.102431 0.118905 -0.059816 0.206922 -0.306855 -0.046547 0.120935 -0.136467 -0.597203 -0.312499 0.252182 -0.726668 -0.145427 -0.127799 0.585432 0.260566 -0.325606 -0.115476 0.791715 0.498663 0.595672 0.480853 0.488063 0.121235 0.181063 -0.073515 0.139901 -0.683282 0.381052 0.196542 0.601605 0.317070 -0.292244 0.723743 0.304664 -0.148706 0.226842 0.236263 -0.549127 0.195171 0.109354 -0.220821 0.147260 -0.591443 -0.873887 0.108431 -0.063980 -0.300159 -0.112039 -0.114431 -0.109155 -0.309533 0.008988 -0.101199 0.444426 -0.050028 -0.722714 0.068479 0.040611 0.056488 0.160421 0.475928 0.391621 -0.536357 -0.112979 0.292251 0.148878 -0.823669 0.670950 0.026855 -0.337333 0.177929 -0.193891 0.106319 0.298463 -0.029895 -0.816583 0.454538 -0.319421 0.162195 0.168405 -0.087964 0.006845 -0.256602 0.005305 -0.488031 0.192105 -0.153668 0.478364 -0.141115 0.353274 -0.456690 -0.889526 0.050615 0.687064 -0.044270 1.360686 0.189523 -0.851503 0.119110 -0.540072 -0.022400 -0.392163 -0.118802 0.312588 -0.116868 0.357589 -0.126855 0.191938 -0.222249 -0.123558 -0.183152 -0.245447 -0.114476 0.113870 -0.032884 0.304988 0.580447 -0.143808 -0.251910 -0.070179 0.289974 0.432537 0.037096 0.030460 0.352958 0.315649 -0.201668 0.141728 0.341690 -0.203275 -0.220115 0.684029 -0.030728 0.503234 -0.281677 0.342007 -0.088557 0.540691 0.304598 0.146664 0.737089 0.106354 -0.169336 0.003291 0.294351 -0.099293 0.451468 0.130564 -0.202759 0.058002 -0.495208 0.308613 -0.140610 -0.259553 0.063076 -0.025942 0.046897 0.356775 0.207254 0.067035 -0.366255 0.339751 -0.129810 0.354810 -0.003324 -0.109656 -0.486900 -0.261966 -0.098088 -0.230827 -0.382849 0.628169 -0.424574 -0.245856 -0.311178 0.317840 1.008992 0.806148 -0.242257 -0.489860 0.450164 0.006360 0.775376 -0.071346 0.016977 0.285976 0.369801 -0.138003 -0.180166 -0.059241 -0.014504 -0.368154 -0.068974 -0.496623 0.183594 0.113482 0.077026 0.291046 -0.248419 0.286045 -0.598498 0.464154 -0.250795 0.344443 -0.856439 -0.776496 0.335982 -0.033012 0.914710 0.020498 0.194115 -0.314759 0.618926 0.593287 -0.224679 0.438842 -0.558206 0.107611 -0.391518 0.177385 -0.084028 -0.813320 -0.012693 -0.758543 -0.593142 -0.113525 0.102446 -0.057605 0.032035 0.315906 0.350000 0.457401 -0.618512 0.185087 0.741976 -0.662353 0.427587 0.018036 -0.137746 -0.381355 0.480119 -0.038267 -0.095327 -0.564314 -0.329771 0.188054 0.205022 0.608042 0.042624 0.190705 -0.102731 -0.257832 0.583757 0.303883 0.656033 -0.006456 0.057832 0.075173 -0.223725 -0.001548 -0.581475 0.221134 0.017158 -0.206225 -0.534365 -0.595455 -0.030679 1.056234 -1.000682 0.482485 -0.358588 -0.218575 -0.543734 -0.353215 -0.588573 0.589791 -0.222382 -0.169863 0.535537 -0.356147 0.654183 0.038048 0.342537 -0.220578 -0.097978 0.447374 0.094969 -0.233811 -0.633160 0.209348 -0.001546 -0.096522 0.314655 0.174401 0.710477 -0.115158 0.286757 0.501425 0.416809 0.709506 0.199578 0.191180 -0.291505 -0.584796 0.019988 0.023642 -0.447525 0.085598 0.087019 -0.235607 0.065722 0.534499 0.166472 0.272148 -0.397697 0.297418 -0.108322 -0.277431 -0.276090 -0.184494 0.573543 0.157816 -0.195616 -0.075464 -0.088361 -0.187203 0.802191 -0.382480 0.121858 0.488721 -0.329831 0.314217 -0.061107 -0.175010 -0.320398 0.150468 -0.689275 -0.356626 -0.428430 0.923653 -0.664249 -0.490516 0.012968 0.179609 -0.035387 -0.561343 -0.487763 -0.145780 0.199638 0.141173 0.494563 -0.044390 -0.504581 -0.580718 0.879890 -0.718995 0.524274 -0.702129 -0.246319 -0.533265 0.382339 0.627283 -0.986251 0.426705 0.614259 
4 -0.002415 0.293098 -0.647931 -0.249281 -0.175634 -0.215432 -0.376416 -0.206154 0.322666 -0.036383 -0.562246 -0.685749 -0.284585 0.934803 0.659237 -0.412143 0.036284 -0.833375 -0.586163 0.008942 -0.192569 0.664754 0.630606 0.461500 0.527424 -0.155429 0.053694 -0.341373 0.413619 0.012031 -0.321885 0.233597 0.182727 -0.663677 -0.379563 0.270485 -0.132303 0.161009 -0.709353 0.134867 -0.611868 -1.106937 -0.055153 0.548318 -1.008331 -0.254140 -0.544247 -0.174669 -0.068023 -0.064653 0.379508 -0.431716 -0.342931 0.336291 -0.463489 0.198287 -0.140126 0.076713 -0.948193 -0.415464 0.806644 0.181845 -0.985742 0.160605 -0.519845 -0.093560 0.468149 -0.104758 0.031998 0.072707 -1.287585 0.043183 0.141707 0.637164 -0.237210 0.306896 -0.033232 -0.148718 -0.250154 0.124404 -0.312835 -0.053284 -0.150349 -0.462842 0.171264 1.268632 0.292765 0.418428 -0.736383 -0.232394 0.839926 0.285800 -0.233330 0.048376 -0.701286 0.648616 -0.562985 0.299101 1.027338 -0.183307 -0.502291 -0.375462 -0.213767 0.382869 0.395912 -0.140099 -0.030797 0.025502 -0.349537 0.360864 0.136244 0.403814 -0.205859 -0.288094 -0.571394 0.646453 0.756352 -0.174685 0.312766 0.099513 -0.580293 0.174568 0.108810 0.391457 0.213083 1.401239 0.556781 -1.021494 -0.928921 0.289953 0.392263 -0.534439 0.349544 0.166158 0.400390 -0.012584 0.284421 0.450102 0.305773 0.571127 1.586913 0.873069 -0.330487 -0.433463 0.525245 0.173171 0.890365 0.144935 -0.130840 0.360192 -0.219051 0.296145 0.368438 -0.153630 0.775194 0.217688 0.519630 0.602946 -0.796367 0.320787 0.238584 -0.478217 -0.047698 0.140897 -0.020071 0.440691 -0.072638 0.294539 0.372197 -0.137379 0.623212 0.203494 0.222109 -0.009366 0.177848 -0.475578 -0.616706 -0.423266 0.353854 0.410311 0.051035 -0.458768 0.066771 -0.360052 0.196569 0.301129 -0.239913 0.028399 -0.916499 0.291852 -1.104479 -0.273544 0.209506 -0.689655 -1.184854 0.644722 0.718145 0.214512 0.508066 0.454857 -0.353489 -0.574583 1.399338 0.371871 -0.963172 -0.196960 -0.918048 1.175424 0.139250 0.158225 -0.420596 -1.053909 0.817672 -0.614103 -0.106281 -0.515379 -0.513138 -0.653285 -0.620661 -0.161380 0.069006 -0.046458 0.615378 -0.209550 0.831607 0.106396 -0.790199 -0.307740 -0.219029 -0.453340 0.605155 -0.402974 -0.280681 -0.019017 -0.302342 -0.470632 0.647260 0.706471 0.379532 0.085267 0.478197 0.074597 0.449926 0.695273 0.356466 -0.344086 -0.416142 -0.008433 -0.054670 -0.011399 -0.580207 -0.284516 -0.396691 -0.221525 0.259704 0.444608 0.302695 -0.016011 -0.636011 -0.211968 0.170214 -0.085625 -0.148756 1.094068 -0.115717 0.370474 -0.286334 0.428702 0.079997 0.611079 0.479856 -0.359414 0.533974 -0.381385 0.452705 0.124419 0.516916 -0.149259 0.091814 0.509114 0.090413 -0.122409 0.315522 -0.246759 0.168066 -0.024401 0.205088 0.462472 -0.605712 0.417532 0.071911 0.089412 0.039938 1.101243 0.354704 -0.749111 -1.275567 0.251665 -0.602486 0.688779 -0.258975 -0.949350 -0.912441 -0.195873 -0.480247 -0.155072 0.714716 -0.703267 -0.127597 0.485202 -0.957712 -0.267625 -0.192161 0.389913 -0.386053 0.763623 0.654900 0.178977 0.757203 0.225768 -0.701817 -0.570044 0.156461 -1.033824 -0.271421 -0.792166 0.210083 -0.225820 -0.215778 0.062498 -0.671169 -0.103383 -0.227162 -0.305360 0.391449 -1.096237 -0.227689 -0.479094 0.141939 -0.834216 0.064074 0.722510 -0.391499 0.451296 -0.529741 0.121538 0.243562 -0.272067 -0.209340 -0.045043 0.014388 0.083506 0.406994 1.123568 -0.121805 0.210635 -0.249055 -0.107016 0.666806 -0.321932 -0.231761 -0.033123 0.051992 -0.154453 0.124918 0.153769 0.032891 -1.421439 0.528288 0.480606 0.427754 -0.624374 0.010229 -1.052325 -0.589489 0.764815 -0.188854 -0.472600 -1.084083 0.038052 -0.931178 -0.829291 0.333645 -0.122126 0.597051 -0.506853 0.689488 0.058556 -1.277360 0.162998 -0.308091 -0.632236 0.840966 -1.088730 0.425986 0.113053 -0.464495 -0.712655 -0.712648 -0.002886 -0.605927 -0.195634 -0.071598 0.182423 0.382158 0.725203 0.479235 -0.079519 0.873215 -0.130789 0.277901 -0.416297 -0.169824 0.040067 0.034867 0.856178 -0.073123 0.715536 -0.167792 -0.231080 0.174634 0.498859 1.124843 0.080329 0.528597 0.002952 -0.711042 -0.324636 0.120236 0.029321 0.387182 -1.211161 0.451030 0.682053 -0.274686 0.211930 -0.113053 -0.769380 -0.009143 0.139090 0.012972 -0.280824 -0.483695 0.386707 -0.046147 0.046515 0.140240 1.004413 0.315064 -0.167218 -0.022727 -0.738264 0.806354 0.210705 0.421518 1.033340 0.295520 0.103802 0.343810 -0.279447 -0.144693 0.797098 0.112966 0.599091 -0.217280 0.601635 -0.292636 -0.607069 0.104144 -1.084734 -0.576346 0.332634 -0.314568 -0.915182 0.609640 -0.030982 -0.235314 -0.371026 0.028911 0.038815 0.629103 0.266326 -0.540771 0.327259 0.411684 0.225817 0.331037 -1.216197 0.231915 0.239610 -0.219635 1.367160 -0.606626 0.567576 0.149615 -0.672691 -0.020853 -0.574042 0.346903 -0.276260 
5 1.145105 -0.165715 -0.676500 0.958873 0.405964 0.395552 1.151296 -0.005592 0.099920 -0.855211 0.770613 -1.477445 -0.162014 0.833262 0.494054 0.192128 0.845565 -1.040213 1.597952 -0.135652 -0.887707 0.211979 1.610101 1.110500 0.222981 0.212383 -0.107095 -1.262359 -0.028800 0.568265 0.673073 -1.058883 -0.585196 -0.183753 0.099097 0.501355 0.909048 0.381840 -0.851200 0.432044 0.776914 -0.624642 -0.722665 0.409010 -1.111091 -0.345831 0.712634 -0.116863 -0.444258 -0.035769 0.495717 0.275004 -0.828903 -0.022873 -0.232700 0.541889 -0.508000 0.348639 -0.916623 0.325111 2.246189 0.399324 0.783117 0.101592 -0.656097 -0.295385 1.226197 -0.411250 0.553983 0.085080 -1.383920 -0.876563 0.958783 0.795471 -0.127326 2.290133 -0.012578 -0.696889 1.418624 -0.176723 -0.264854 0.213404 0.019562 -0.192303 0.173147 1.521413 -0.204261 -0.122537 -0.979604 0.068842 0.675665 0.241250 -0.305608 0.357625 -0.562468 0.633504 -0.079744 -0.126658 0.672472 -0.379171 0.751128 -1.041179 -0.335534 0.230965 1.184154 0.373283 0.351311 -0.521373 -1.501266 0.644137 0.440960 -0.072950 0.377448 -0.092383 -0.110545 0.759908 0.714208 0.219058 0.461457 -0.431291 -0.471643 0.236374 -0.961758 0.974223 0.740853 -0.046648 0.707345 -0.743173 -0.197405 -0.338007 0.275140 -0.804996 1.264891 1.321979 -0.474119 0.579539 0.276642 0.120994 0.006919 -0.626826 1.066954 1.319019 0.771485 -0.543174 0.343941 -0.028868 0.267018 0.237282 -0.099185 0.585571 -0.322173 0.044953 -0.171884 -1.052096 -0.065601 -0.172392 -0.411570 0.142673 -0.906855 0.142417 0.391344 0.805493 -0.155217 0.453129 -0.322084 0.311986 -0.286547 -0.228331 -0.617102 -0.442179 0.506112 -0.026808 0.067134 -0.780975 0.913676 -0.107885 -0.179812 -0.063318 0.747546 0.512554 -0.344357 -0.853740 -0.236181 0.577523 -0.194998 0.155050 0.035462 -0.113264 -0.207266 -0.325508 -0.971052 -0.829324 0.263460 -1.221089 -1.182103 0.328368 0.816637 0.229386 1.251474 -0.251052 -0.241447 0.079043 -0.672850 1.337720 -1.865675 -0.951461 -1.446954 0.150359 0.150303 0.911472 -0.922664 0.199375 1.086385 0.425252 -0.141121 -1.223732 0.575098 -0.483873 -0.350170 0.248395 -0.331752 0.983026 0.200781 0.052056 0.543358 0.401259 -1.611435 0.607472 0.334651 -1.150768 -0.002092 -0.734002 -0.289368 -0.675983 -0.521144 -0.271634 0.918500 0.799545 0.421749 0.255914 1.000379 0.142475 0.385643 0.436772 0.674850 -0.159611 0.688559 -0.517839 0.712067 0.974136 -0.123882 -0.601572 -0.631029 1.042177 -0.082759 -0.322639 -0.042278 -0.446813 0.031564 -0.062514 0.456362 0.161459 -1.022856 1.004735 0.441051 0.539741 -0.431543 -0.025792 -0.061622 0.634164 -0.253469 -0.665080 0.501035 -1.283957 -0.963988 -0.688284 1.739747 -0.033149 0.491756 0.443875 0.629393 -0.329363 1.543928 0.221344 0.059379 0.537919 0.094384 1.448681 -0.956815 -0.271259 -0.506858 -0.438299 0.752653 1.055550 -0.254703 -1.481509 -0.634483 0.755492 -0.800165 0.583324 0.564534 -0.201661 -1.064650 0.002479 -0.372208 0.527020 0.610146 -0.593925 0.110603 0.909957 -0.734159 -0.599958 -0.647590 0.542888 -0.343360 -0.430271 0.246340 -0.007440 -0.315701 0.020760 -0.721264 -0.852665 0.262674 -1.031701 0.201484 -0.074314 0.206374 -0.280295 -0.725358 0.530793 -0.365505 -0.852057 -0.447080 -0.442393 0.164791 -0.365681 -0.352293 -1.184852 0.975231 -0.714776 0.494258 -0.723310 -0.192472 -0.209888 -0.694568 0.725691 0.107178 -0.696318 -0.931103 0.330548 0.989283 -0.006361 -0.522362 0.025845 0.372840 -0.631427 -1.158612 0.255530 0.223432 0.442289 -0.093029 -0.920181 0.454669 -1.295251 -0.345883 -0.292682 0.318278 -1.054120 0.905526 -0.375100 -0.031461 -0.875018 -0.235609 -0.676780 -0.263351 0.931632 0.308768 -0.693087 -1.256731 -0.029682 -1.125644 -0.804606 -0.003550 -1.526791 0.271695 -1.754400 0.128149 0.017203 -1.090034 -0.504625 0.397825 -0.285253 1.087712 -0.475139 0.867350 0.289660 -0.994368 -1.077259 -1.572375 0.593903 1.484262 -0.451719 -0.263795 0.829830 0.098285 0.429135 -0.524393 0.111522 1.305188 -1.193014 0.344910 -1.607005 0.042977 0.709117 0.721824 0.551849 0.427724 -0.343824 -0.895109 -0.526779 0.700706 1.818587 0.587490 -1.049840 0.376328 -0.578965 -0.048799 0.307847 0.978836 0.314718 0.060946 -1.272188 -0.404453 0.173056 -0.775077 0.447235 -0.127347 0.526676 0.665163 0.374675 0.670030 -0.281578 -1.563044 1.167637 0.344013 0.257695 0.328072 0.907980 -0.582296 -0.393458 0.575180 -0.873509 0.168367 1.497333 0.072058 0.032597 -0.759442 -0.532012 0.170977 -0.308235 0.427206 0.107602 0.148973 0.269903 -0.323775 -0.042549 -0.590725 -0.869635 -0.323325 -0.214352 -0.438663 0.671626 0.333671 -1.068116 0.478369 0.261547 0.996820 -0.388940 0.105330 -1.053510 1.172092 -0.088234 1.324395 -0.394542 1.145434 0.907412 0.284964 -1.513275 0.513451 0.256341 0.396449 2.028110 -0.350530 -0.018082 0.060171 -0.866425 1.512976 1.012123 -0.659686 -0.982840 
6 -0.160065 -0.558973 0.265680 0.021150 -0.055860 0.974865 -0.599262 0.251343 -0.495278 -0.114163 0.628334 -0.655951 -0.039002 0.153415 0.563950 0.307776 0.040296 0.207811 0.451721 -0.280335 -1.194659 -0.047109 0.634090 -0.147165 0.089416 0.005629 0.438363 -0.208679 0.036175 -0.222076 0.408475 -0.694312 0.048527 -0.249416 0.101830 0.341967 0.681156 0.061609 0.488937 0.241129 0.298619 -0.096764 0.354318 0.501667 -0.629829 -0.298206 0.035645 -0.086763 0.256764 0.675699 0.603121 0.804157 0.358565 -0.296748 -0.183115 0.792600 -0.216876 0.354993 -0.127275 0.206015 0.495429 -0.085685 0.571901 -0.363681 -0.396964 -0.362076 0.739429 0.143994 0.514133 -0.081345 -0.937102 -0.051745 0.146327 0.632142 0.136199 0.533397 -0.052967 -0.994735 0.481205 -0.150540 -0.200741 -0.078290 -0.677677 0.176450 0.482738 0.205403 -0.469828 -0.252422 -0.025194 -0.033546 0.202395 -0.135376 -0.066246 0.380075 -0.249123 0.134862 -0.126225 0.041028 -0.457013 -0.161678 0.339617 -0.521998 -0.233033 0.277381 0.521840 0.684883 0.773061 -0.268221 -0.211727 0.490667 0.705346 -0.071819 0.635046 0.347336 0.058304 -0.196672 -0.248959 0.577067 -0.197062 -0.119047 -0.359152 0.431505 -0.093752 0.652223 0.632281 -0.830444 -0.195216 0.366634 0.390594 -0.149617 0.067053 -0.187443 0.056504 0.210733 -0.296641 -0.142356 -0.197270 -0.292789 -0.229119 -0.000213 0.201116 -0.001118 0.897436 0.477713 0.452334 0.528924 -0.338300 0.538850 -0.268241 0.956351 0.242947 -0.199003 -0.883141 -0.931889 -0.497000 -0.518124 0.206184 -0.431986 -0.328147 0.444710 0.014686 -0.021844 0.345681 0.341730 -0.185468 -0.001460 0.059187 0.007187 -0.542500 -0.192003 0.654478 0.043273 0.078437 -0.708253 -0.180734 -0.288439 0.519082 0.270079 0.245826 0.164944 0.043221 0.215810 -0.129626 0.058574 -0.194019 0.197770 -0.082846 0.311416 -0.029901 -0.529356 -0.571315 -0.363954 -0.080139 -0.394439 -0.536667 0.502163 -0.168716 0.610205 0.368183 -0.375556 0.189138 0.495431 -0.698879 0.612373 0.081252 -0.111607 -0.616310 -0.093886 0.344208 0.918698 -0.231954 0.567621 -0.562415 0.521766 -0.064962 0.267866 0.333100 -0.541047 -0.119806 0.110223 -0.087254 0.798918 0.094377 -0.555234 -0.001670 0.147533 -0.509098 -0.222578 0.432042 -0.191950 0.127702 -0.363090 -0.129024 -0.463820 0.082933 0.622240 -0.184670 0.450060 0.161185 0.151694 0.255948 -0.118440 0.236916 -0.142746 0.502473 0.521141 0.232624 0.034556 0.006130 0.304115 0.353415 0.159312 -0.035697 0.954435 0.052078 -0.428578 -0.096373 -0.208600 -0.118436 -0.025618 0.038936 -0.025640 -0.716680 0.410403 0.023475 0.642902 0.264352 0.582645 -0.050023 0.747398 -0.246489 -0.279502 0.193390 -0.484941 -0.454500 0.166713 -0.097228 0.665026 -0.064392 0.092916 0.265183 0.084883 0.091423 -0.238158 -0.200847 0.413916 0.413047 0.907737 -0.857994 -0.522583 -0.404898 -0.288240 -0.131545 0.324913 -0.646470 -0.504456 0.420936 0.549295 -0.317215 -0.356659 0.543599 0.243489 -0.013423 -0.304897 -0.218670 0.717185 -0.150632 0.591432 0.175927 0.102531 -0.314635 0.099155 -0.270743 0.158897 -0.030062 0.268325 0.017110 -0.293917 0.282337 0.128124 0.408842 -0.414434 -0.067595 0.153577 0.622514 0.268776 -0.405205 -0.368490 -0.431433 0.595638 0.028660 -0.089015 0.138269 0.288522 0.333867 0.098679 0.226988 -0.351875 0.230490 -0.257335 0.271955 -0.714142 -0.095798 -0.509932 -0.161125 -0.097184 0.154262 -0.688352 -0.731635 -0.143540 0.169472 0.273579 0.167069 -0.134933 0.547382 -0.405315 -0.586264 0.518438 0.175679 0.203503 0.057749 -0.077137 -0.156387 -0.299401 -0.283544 0.035021 -0.274639 0.253870 0.500915 -0.842310 0.469587 -0.870040 -0.746537 -0.211373 -0.071293 -0.022913 0.419240 0.270293 -0.522591 -0.143702 -0.192160 -0.531464 -0.469557 -0.706024 -0.324062 -0.018288 0.142141 -0.319972 -0.398574 -0.428494 0.425942 -0.172436 0.357084 -0.068597 0.040705 0.277437 -0.325551 0.271198 -1.101699 0.739770 0.356757 -0.269743 -0.383200 0.534295 0.731341 -0.163588 -0.260512 -0.506380 1.183674 -1.064023 0.125377 -0.935264 0.297415 0.218578 0.947798 0.162700 0.098769 -0.076825 -0.409884 -0.450103 -0.056338 0.443670 -0.599779 -0.876366 -0.023958 0.143420 0.127823 0.038040 0.562597 0.446121 -0.379053 -0.429379 -0.527451 -0.374092 -0.022238 0.037384 -0.079673 0.479388 0.045573 0.252797 0.291141 -0.155258 -0.407078 -0.501702 -0.252604 0.350120 -0.165648 -0.095707 -0.472151 -0.087590 0.062155 -0.171469 -0.253374 0.340418 0.038498 -0.179313 -0.668760 0.958553 -0.024170 -0.092434 -0.479301 0.316486 0.309992 -0.205285 -0.355111 -0.186071 -0.165578 -0.309649 0.034759 0.553048 -0.063213 0.502068 -0.081208 0.544898 0.271062 0.015320 0.788531 0.292412 0.250439 -1.346557 -0.585019 -0.298349 -0.347476 -0.381916 0.579960 0.338400 0.264085 -0.154837 0.398270 -0.544264 -0.037242 -0.001656 0.163157 0.172726 0.710506 0.126569 0.381336 0.989557 -0.238523 -0.691652 
7 0.264971 0.337710 -0.438680 -0.251228 0.266405 -0.439533 0.280074 -0.700671 1.107019 -0.138939 -0.476926 -0.290879 0.100829 1.186322 -0.043533 -0.327667 0.372547 -0.918511 -0.146502 -0.169183 0.365732 0.238571 -0.438928 0.072350 -0.292363 -0.182502 -0.388448 -0.312592 0.979257 0.054782 0.216972 0.790502 0.416572 -0.115205 -0.684799 -0.198771 -0.152429 0.873600 -0.874925 0.351061 -0.157942 -1.352578 0.460263 -0.319068 -0.785936 0.742586 -0.525741 -0.906578 -1.016455 0.487650 0.005450 -0.954882 0.178399 0.052894 0.287761 -0.534438 -0.095870 0.075449 0.098677 -0.474887 0.962160 -0.264387 -0.259543 -0.005909 -0.344471 0.410042 0.444555 -0.469134 -0.084691 0.001436 -1.514846 -0.772622 0.442313 0.310750 -0.100259 -0.251526 0.665088 -0.334832 -0.135569 0.209545 0.308162 -0.189115 -0.045253 0.169712 0.704860 0.126023 0.441179 -0.310192 0.113015 -0.627752 -0.172525 1.022106 -0.560779 0.102786 -0.940765 -0.185706 -0.468755 0.228388 0.244427 0.349923 -0.719898 0.368141 -0.303919 0.156520 -0.271385 -0.707899 -0.493063 -0.416441 -0.519858 -0.103584 -0.334807 0.330918 0.423979 -0.206386 -0.572645 0.202642 0.195071 -0.679601 0.456866 -0.185589 0.152963 -0.689841 -0.409857 0.472193 -0.153707 0.764013 0.736247 -0.334753 -1.103795 0.487238 -0.150974 -0.798844 -0.416470 0.404314 0.392486 0.156033 0.385294 -0.517631 0.106658 0.171361 1.049559 0.588312 0.278679 -0.378395 -0.014677 0.038826 0.115898 -0.123627 0.453188 -0.021274 -0.436754 0.338378 0.949663 0.261744 0.137077 -0.144065 -0.281604 0.308167 -0.200123 0.232432 0.406569 -0.237893 0.452052 -0.121397 0.749705 -0.655846 -0.110038 -0.253189 0.058890 0.088460 -0.089773 0.077229 -0.035326 0.559656 0.904365 0.028561 -0.186330 -0.729191 -0.297192 0.082530 -0.072704 0.036862 0.044163 -0.527551 0.662571 0.593229 -0.171829 0.365834 -0.374123 -0.604981 -0.535202 -0.589194 0.233434 -0.608560 0.289659 0.404855 -0.033055 -0.454711 0.842166 -0.183089 0.279016 -0.766546 0.936382 0.510742 -0.314004 0.035060 -0.147414 0.527396 -0.133351 -0.314093 -0.778242 -0.074456 0.450176 -0.256048 -0.131125 -0.177456 -1.319281 -0.288442 0.004630 -0.196730 -0.025307 0.702944 0.634467 0.277975 0.587953 -0.585485 -0.417790 -0.340206 1.006327 -0.330176 0.530761 -0.623539 -0.469364 -0.166588 0.493997 -0.039685 0.240503 0.389108 -0.198334 0.274725 0.645729 0.585995 0.615365 0.235212 -0.413364 -0.751828 0.219543 -0.228501 0.435298 0.008240 -0.341137 -0.523230 0.156628 0.126592 -0.188100 0.024057 -0.092876 -0.115575 0.122278 -0.322910 0.050117 -0.009333 -0.509957 0.330403 -0.508352 0.010818 -0.463356 -0.204840 0.232756 0.165614 0.077323 0.022539 0.088240 -0.290095 0.416060 0.238370 0.226548 -0.386131 0.563861 0.157756 0.219568 0.248032 0.776242 0.418870 0.128577 -0.369131 0.388812 0.049565 0.408562 0.641335 0.483177 -0.305306 -0.167716 -0.117420 0.676246 -0.230043 -0.668970 -0.318175 0.050945 0.086811 0.184528 -1.084389 -0.255560 -0.377839 -0.112738 -0.123655 0.110437 -0.504309 -0.168061 -0.304171 -0.446245 0.142954 -0.225563 -0.301288 -0.361735 -0.123836 -0.443557 0.727258 -0.468346 -0.134918 -0.435888 -0.080208 0.123352 -0.398893 -0.544204 -0.157229 -0.676696 -0.360447 -0.001316 -0.055472 -0.861007 0.126238 -0.362318 -0.213908 0.343208 -0.351042 0.161389 -0.555108 0.187548 -0.377865 -0.433703 0.576888 0.197080 0.748772 -0.951836 0.078117 0.002424 0.241940 0.339972 -0.078514 0.135634 -0.403182 0.520309 -0.326896 0.282497 0.137279 -0.501013 -0.654881 0.247477 -0.167917 -0.067988 -0.143597 0.261044 0.074492 0.200041 0.169397 0.596848 -1.019312 0.478483 0.603093 -0.154992 0.838470 0.196989 -0.901500 0.201349 0.163288 -0.205812 -0.693153 -0.666310 -0.053190 -0.703687 0.033532 0.641884 0.072912 0.677147 -0.207892 -0.268592 -0.192928 -0.330177 -0.209368 0.756891 -0.146002 0.050346 -1.365751 0.179604 -0.479712 0.030051 -0.024424 -0.466240 -0.273858 -0.387027 -0.093052 0.046524 0.357892 -0.301820 0.693033 0.339687 0.040138 0.185251 -0.265418 0.118108 0.134301 -0.218001 -0.264047 1.043452 1.505755 -0.276382 0.879892 -0.123404 0.012252 0.616974 0.313939 1.141979 1.004489 0.341925 0.257477 0.578253 -0.104679 -0.217383 -0.826362 -0.177419 -0.840653 0.651105 0.469879 -0.058929 -0.204612 0.164428 -0.245966 -0.342727 -0.009000 -0.639173 -0.331272 0.860821 1.202123 -0.061208 -0.246266 0.358302 -0.193490 0.703315 0.234397 0.208102 -0.202464 0.433659 0.353098 0.358209 0.992092 0.040362 0.270772 -0.075442 0.075705 -0.446905 -0.095658 0.152987 0.009692 -0.204559 -1.165993 0.465703 -1.074437 -0.297342 -0.492970 -0.798848 -0.329930 0.066888 -0.686790 0.564662 -0.315393 -0.694404 -0.128885 -0.446573 0.271608 0.484310 0.747244 -0.404755 0.055136 0.153023 -0.201781 -0.249006 -0.804429 -0.159227 0.496599 -0.454948 0.724166 -0.880623 0.258320 0.693835 -0.560494 -0.028492 -0.311659 0.528638 0.316939 
l -0.204264 0.863770 0.726348 -0.510341 -0.127853 -0.118883 1.227236 0.023307 0.125680 -0.711653 -0.357742 0.452882 0.659938 0.522947 -0.470329 -0.727634 -0.572018 0.111008 0.355432 0.219364 1.074234 0.332507 -0.403577 0.268103 0.505457 0.652959 -0.136587 1.084936 0.488694 -0.453587 0.392938 0.451161 -0.482532 -0.128548 -0.235792 0.707813 -0.198429 0.633062 0.643894 -0.848049 -0.554983 -0.862254 0.522482 -0.167161 -0.751240 0.109550 0.155841 1.479265 -0.085549 0.200214 -0.757440 -0.686667 -0.911762 -0.523540 -0.336340 -0.418727 -0.337027 -0.061307 -0.341333 -0.277788 -0.287723 -0.071869 -1.363116 1.291750 -0.861282 0.957434 0.179395 0.992954 -0.036899 0.012453 -0.345678 0.209118 0.558910 -0.861710 0.196290 -0.905244 0.537558 0.648492 0.653212 0.017836 0.508183 -0.622537 0.167021 1.433919 -0.099714 0.323258 0.048355 0.023310 -1.068991 0.154009 -0.352468 0.182885 -0.140802 -0.417210 -0.003047 -0.226404 0.884572 0.962320 -0.062580 -0.013696 0.244405 0.719115 0.178311 -0.704945 -0.987973 -0.671734 0.093075 -0.390543 -0.840179 0.056551 -0.081166 0.140772 -0.620873 -0.310102 0.859107 0.037808 1.047840 -0.176130 -0.127395 0.730583 -0.556528 0.167721 0.211161 -0.826565 0.687355 -0.129109 -0.712772 0.220173 -0.296458 1.003971 -1.231930 0.037944 -0.094215 0.236887 0.354646 0.233111 0.408780 1.062883 -0.668941 0.563410 -1.088554 0.020436 1.507584 -1.348578 0.107810 0.275251 -0.721188 -0.027053 -0.501716 -0.152518 -0.477995 -0.166440 0.774326 0.101330 -0.332983 0.099475 -1.186292 -0.760710 -0.046329 -0.215787 -0.690673 0.785410 0.692331 -0.322355 0.888106 -0.329657 1.225376 0.330799 1.706086 0.664529 0.379220 -0.767586 -0.133681 0.390235 0.834149 -0.616603 0.013029 0.487853 -0.056618 -0.080660 0.023514 1.148477 -0.217370 -0.422126 0.373425 -1.357436 0.375009 0.383146 0.030373 -0.648400 -0.356560 0.818810 -0.641031 -0.496961 1.149988 0.044839 0.227665 1.468608 0.564462 -0.454337 0.186546 -1.372143 1.138813 0.352088 -0.134795 0.330951 -0.339638 -0.523387 -1.076284 -1.113755 -0.057381 -0.571294 -0.375897 0.077148 0.931046 -0.098967 -0.642656 0.494912 0.287730 1.031276 0.790963 1.325274 -0.151498 0.456018 -0.418479 -0.091676 0.220770 -0.704698 0.243459 -0.214601 0.920831 0.421117 0.338455 -0.365118 -1.002875 -0.634256 0.323300 -0.428503 0.018743 -0.217607 -0.806014 1.326265 0.264585 0.474271 0.426880 -0.119330 1.304501 0.883557 0.172865 -0.560613 -0.175165 0.403695 -0.686241 0.491566 0.198849 -0.526303 0.724960 -0.177886 0.290930 -1.272543 0.602822 -0.202877 -0.577088 0.355879 0.175345 0.054034 -0.092673 -0.871946 -1.451493 -0.363962 -0.649328 -0.082539 0.547790 -0.928304 0.227629 1.012915 0.041539 -0.716617 0.604339 0.047208 1.728883 0.274561 -0.516391 0.224828 0.077553 -0.080862 -0.301524 0.178738 0.280705 0.922018 -0.427996 0.065623 -0.394832 -0.248483 0.144382 0.253666 -0.897151 0.017445 0.307716 -1.001801 -1.108117 -0.486301 0.426288 -0.798619 0.208721 0.107252 -0.142122 0.161890 -0.072605 0.525897 0.575979 0.574288 -0.107993 0.030210 1.139875 -0.299986 -0.315567 -0.068823 -0.167318 0.186820 -0.550861 0.521034 -0.048581 -0.115412 0.376371 0.346563 -0.702019 -0.123458 0.388780 -1.713745 0.171749 -0.117198 -0.697613 0.337911 0.449272 -0.035568 -0.224282 -0.928139 0.498606 0.483127 -0.089218 -0.264532 -0.679040 -0.280847 1.083684 -0.092902 0.188182 0.229922 0.039269 -0.272275 0.100642 -0.079771 -0.237400 -0.930444 0.036163 -0.173573 1.175323 -1.205734 -0.704847 0.678584 -0.461600 0.356785 -0.289569 -1.113164 -1.132827 -0.184886 0.387243 -0.467646 0.698043 0.287723 0.439156 0.228355 -0.219765 -0.822016 0.059781 0.274615 0.187874 0.545818 0.864683 0.148682 0.911041 0.469793 -0.712400 -0.334911 0.351466 0.193237 -0.419046 -0.039550 0.423610 0.126206 -0.141447 0.538270 0.606872 0.221282 0.023906 0.371547 -0.581439 0.010215 1.355888 0.330119 -0.496960 0.331915 0.119404 0.288359 -0.295161 0.151032 -0.602714 0.383847 -0.924858 -0.375599 0.635000 0.618141 0.927074 -0.907792 -0.383950 0.262511 -0.212755 -0.254939 0.220341 -0.485961 1.026400 -0.194265 -1.482682 -0.226687 -0.133383 0.667152 0.820735 0.228719 0.250355 0.195537 -0.197278 -0.438299 -0.774706 -0.982057 0.152348 -0.955894 -0.152019 0.405554 0.143053 -0.714428 0.499970 0.041899 1.506540 0.475340 -0.062827 0.245395 0.076387 0.041113 0.085499 0.668844 -0.252611 -0.415056 -1.065371 -0.047406 0.182049 0.407714 -0.258542 -1.500343 0.313873 -0.133049 -0.446518 0.371813 -0.144458 0.478933 -0.609405 -0.495005 0.502334 -0.988931 -0.050665 0.540524 -0.476984 -0.957865 0.022425 -0.303468 0.146778 0.149330 0.032153 0.241882 -0.953076 0.431800 -0.986342 0.429842 -0.647873 0.219434 -0.000016 0.204323 0.524318 -0.287956 0.456553 0.211433 0.157526 1.099806 -0.451140 -1.024503 -0.567416 0.011171 0.215760 0.660418 0.866082 0.509393 
9 0.009695 -0.366927 0.964204 0.080672 -0.246757 0.115960 0.202756 0.205644 -0.190103 0.281898 0.488878 -0.300234 -0.123896 -0.622096 0.370272 1.014158 0.224125 0.589374 -0.279701 -0.056975 -0.341047 0.565077 -0.008483 -0.019859 0.009640 -0.201719 -0.078167 0.749239 0.118851 -0.084949 -0.061854 -0.096589 -0.079131 0.358982 -0.640351 -0.649370 -0.409472 -0.065324 0.263165 -0.116602 0.367509 0.340625 0.185613 -0.414227 0.192158 -0.300477 -0.196362 -0.005382 0.069371 0.209970 -0.079932 -0.182742 0.270397 -0.160359 -0.127187 0.217270 0.020252 -0.394387 0.204788 0.055475 -0.258255 0.404566 0.581605 -0.000087 -0.059648 -0.319972 0.575356 0.398271 0.363822 0.342688 0.330814 0.012034 0.049700 0.229004 -0.592924 0.203087 -0.083684 -0.650903 0.257983 -0.481571 0.033119 0.054288 0.330513 -0.275960 0.132997 0.150714 -0.290545 -0.359781 0.454235 -0.096454 0.098019 -0.371307 -0.090192 0.319804 -0.173636 -0.000372 0.190131 0.095803 -0.217642 0.387323 0.040284 -0.208951 0.140886 0.265233 -0.123908 0.532642 -0.087734 0.248597 0.356582 -0.066209 -0.325278 0.021113 0.096712 0.371096 0.110586 -0.005922 -0.668160 -0.247618 0.229105 0.215771 -0.055947 0.115058 0.212717 0.326358 -0.608380 -0.309424 -0.391272 -0.366397 -0.004890 0.076796 -0.045469 -0.236222 -0.947605 -0.090122 -0.116098 -0.498415 -0.476755 -0.362821 -0.280121 0.092334 -0.093389 -0.347309 -0.023520 0.023186 -0.063130 0.101427 -0.056777 0.342237 -0.055668 -0.052536 0.079381 0.125532 -0.060724 -0.358645 -0.272409 -0.211942 0.434885 -0.250659 0.344189 -0.514699 0.344180 -0.215865 -0.314174 -0.195411 0.105345 0.262618 -0.333219 -0.244221 -0.186896 0.062754 -0.045779 -0.058101 -0.119521 -0.076343 -0.233450 -0.263952 0.242878 -0.195533 -0.110963 -0.413867 -0.108061 0.085039 -0.113942 0.146731 -0.156621 0.053047 0.037781 -0.117803 -0.042415 -0.109099 -0.007594 0.075483 -0.146854 -0.093723 -0.048521 0.395048 -0.088679 -0.043229 0.052388 -0.022241 0.174399 -0.242010 -0.323420 0.312744 0.158540 0.174023 0.237775 0.373337 0.104388 0.577595 0.010529 -0.225862 -0.739309 0.243673 -0.056308 0.404192 0.345299 -0.298374 0.194662 -0.195367 -0.278417 -0.198290 0.202050 -0.028489 -0.121997 0.285128 -0.220719 -0.328219 0.002548 0.228302 -0.278889 -0.325421 -0.223080 0.141608 -0.289346 0.119875 -0.055585 -0.061204 0.368059 -0.023322 0.260906 -0.349314 -0.184218 -0.377227 -0.337589 0.300929 0.208737 0.262772 -0.277005 0.370462 0.224728 -0.101538 0.303622 -0.245841 -0.036066 0.095030 -0.071420 -0.224174 -0.069400 0.000131 -0.087864 0.346738 -0.049594 -0.219449 -0.085632 0.380485 0.594989 0.135374 0.383909 -0.087060 -0.464771 0.040538 -0.246257 0.225858 -0.253926 -0.226508 0.496322 -0.091646 -0.349937 0.042718 -0.254659 0.042740 -0.101444 -0.084817 0.132057 -0.186791 0.086424 -0.244335 -0.721942 -0.675917 0.109948 0.034994 0.369396 -0.351202 -0.255041 0.008708 0.793616 0.105432 0.224278 -0.076737 0.368299 0.347908 0.159941 -0.173462 -0.032621 0.099351 -0.540036 0.207946 -0.040951 -0.033426 0.026370 0.371766 -0.263665 -0.118035 -0.218792 -0.024959 0.141540 -0.067348 0.021768 -0.063966 -0.073378 0.567190 -0.448746 -0.134217 0.256745 0.389909 -0.096552 0.234291 0.081170 -0.093583 0.131775 0.396943 0.279647 -0.075034 0.055265 0.030378 0.275358 0.102556 -0.190347 -0.192021 -0.006738 0.109606 0.040067 0.138137 0.137407 -0.003845 -0.076252 -0.076495 -0.182138 -0.126069 0.167442 -0.074817 -0.214233 0.283242 0.068297 -0.131349 0.210579 -0.115798 -0.019039 -0.199863 -0.201640 -0.080792 0.112642 0.277240 -0.051777 0.147175 0.501469 0.007233 0.194251 -0.277901 -0.372732 0.154952 -0.144100 0.371734 0.565702 0.522078 0.332669 0.475202 -0.338031 0.000502 -0.092675 -0.266978 -0.465616 -0.238925 -0.368961 0.205429 0.054023 0.428311 -0.263337 -0.019294 -0.269234 -0.655687 0.027677 0.127909 -0.495902 -0.251180 0.668998 0.216472 -0.147760 -0.146942 0.168130 -0.269236 0.337775 0.230827 0.439183 -0.348992 0.263601 0.180944 0.585254 0.265488 0.161418 -0.359411 -0.240022 -0.170989 0.294151 -0.048174 -0.491837 -0.352928 0.131526 0.244355 -0.321641 0.007966 -0.102385 -0.214174 0.038323 0.154364 -0.308088 -0.215423 -0.125650 -0.030577 -0.510642 0.079112 0.579660 0.046793 -0.464112 0.119066 -0.110286 0.076365 -0.005090 0.342290 -0.151133 -0.015419 0.019434 -0.538097 -0.277822 0.108076 -0.217367 -0.092692 -0.159207 -0.288070 -0.219025 0.089699 -0.232090 -0.253755 -0.154722 0.311051 -0.024461 1.167498 -0.137120 -0.242871 -0.291944 0.009821 0.133036 -0.219096 -0.102893 -0.276781 -0.140394 0.226364 -0.085094 0.170676 0.493296 0.473154 -0.228654 -0.045543 0.569265 0.210995 -0.071382 0.456791 0.098391 -0.424876 -0.825783 -0.702206 -0.046469 0.649581 0.249917 -0.031163 0.206872 -0.101849 0.584174 -0.261222 0.541240 -0.653527 0.030961 0.066720 -0.080681 -0.345692 0.043173 0.106784 -0.192635 0.023580 
n 0.377558 0.875796 -1.052712 -0.642260 -0.024936 -0.958338 -0.765045 -0.475587 0.127877 0.240111 -0.700343 0.945396 -0.568817 0.456898 0.263703 0.299331 0.162165 0.062146 -0.188025 -0.217953 -0.309965 0.391404 0.225206 -0.571743 -0.603799 -0.640471 -0.519479 0.505338 0.429133 -0.125513 0.476973 0.250580 -0.150583 -0.093466 -0.033307 -0.164938 -0.050246 0.185218 -0.545366 -0.891999 -0.125151 -0.341855 1.130249 0.925284 -0.514308 0.240780 -0.812780 -0.797516 -0.113400 -0.434847 0.128165 0.188884 0.374123 -0.033258 0.263939 -1.426090 -0.143300 0.021335 0.626375 -0.154146 -0.276690 0.261838 0.636569 0.029806 0.411484 -0.791747 0.274512 -0.235081 0.013126 -0.137912 -0.604390 -0.382730 0.219248 0.153574 -0.052905 -0.518942 0.405080 -0.547936 0.015671 0.234619 0.803614 -1.040042 0.351684 -0.685802 0.598682 -0.803674 0.142117 0.321164 0.807132 -0.810857 -0.378624 1.323190 -0.885062 0.716226 -0.942854 -0.545515 -0.800974 -0.247144 -0.217532 0.944155 -0.685508 0.529065 0.161702 0.811478 0.445275 -0.997737 0.464088 0.338597 -0.122411 -0.558008 0.205287 0.455562 -0.140495 -0.040638 -0.974855 0.062723 -0.235070 -1.082084 -0.527408 0.279079 0.264492 -0.682045 -0.688229 0.299083 -0.180510 0.904203 0.695086 0.262328 -0.555257 0.421483 -0.296189 -0.742122 -0.324088 0.444879 0.173415 0.262468 0.377286 0.131976 0.400915 0.105573 0.733797 0.179126 0.332689 -0.220684 0.042868 0.277276 0.049992 -0.431793 0.387791 -0.245641 -0.221277 0.452562 0.736250 0.427749 0.341578 0.541600 -0.059695 0.762049 0.028530 0.122551 0.279055 -0.255089 1.690114 0.375205 0.232048 -0.306907 -0.390025 0.770499 -0.074340 0.099244 -0.094061 -0.365212 -0.231073 0.048990 -0.233044 0.680673 -0.529741 -0.583976 -0.971889 -0.192579 -0.187082 0.095140 0.035260 -0.183488 0.745902 0.646345 0.182195 -0.296927 0.939815 -0.071037 -0.915945 -0.013832 0.194299 -0.621178 0.747362 0.211438 0.265377 -0.457467 -0.477943 0.126846 0.630802 0.051208 0.217490 0.566613 -0.651779 -0.107272 -0.442269 0.250039 -0.461444 -0.046763 0.054432 0.756423 0.638536 0.237353 0.055299 0.067389 -0.668008 -0.204677 0.193233 -0.476337 -0.756573 1.219748 0.539681 -0.213072 -0.093885 -0.166421 -0.886610 0.380110 0.747916 -0.183984 0.619157 -0.131378 -0.377192 0.059422 0.142099 -0.380106 -0.467709 0.286555 -0.446556 0.096326 -0.586648 0.144835 0.578370 0.043713 -0.672851 -0.162146 0.236666 0.291343 -0.134983 -0.205998 -0.097156 0.585839 0.368002 -0.814620 -0.164259 0.142873 0.265975 0.053981 0.351921 -0.462630 0.115602 0.050459 -0.946771 0.262759 -0.368439 0.042254 0.125231 -0.501004 -0.296396 -0.044984 0.595577 -0.389651 0.342589 0.556539 0.606866 0.235977 0.376833 -0.065324 0.258501 0.071270 -0.108684 1.188394 0.161913 -0.271290 -0.029654 -0.015590 -0.179579 -0.132717 0.383015 1.036488 0.289286 0.005267 -0.202762 -0.324899 -0.623923 -0.604766 0.580346 -0.258615 0.902788 0.390615 -0.006305 -0.636876 -0.557614 0.162511 -0.528401 -0.769687 0.762687 -0.606118 0.300065 -0.575339 0.051698 0.337265 0.226993 -0.284269 0.308437 0.076428 0.179460 -0.690986 0.468801 -0.481041 -0.094004 -0.589362 0.157529 0.364212 -0.465758 -0.495234 -0.408613 -0.327187 -0.336308 -0.778627 -1.055843 -0.245069 0.117963 0.260636 -0.111122 -0.503550 0.204319 -0.078643 0.169487 0.108326 -0.196175 0.493029 -0.044132 0.940185 -0.315077 0.162616 0.738709 0.118190 0.270852 -0.469271 -0.467799 -0.120620 -0.176172 -0.704322 -0.195422 -0.149961 0.487660 -0.239133 0.178836 -0.148990 -0.149863 -0.069174 0.509090 0.328661 -0.010453 0.572947 0.200543 -0.781353 0.361702 0.734153 0.149057 0.201735 -0.273311 0.108234 -0.094747 -0.066912 0.024279 -0.444682 -0.737360 0.241683 -0.260840 0.023299 0.881957 -0.451913 -0.505485 0.142927 -0.440951 -0.194260 0.705787 -0.459710 0.562654 -0.319361 0.544698 -0.917946 0.685684 -0.550910 -0.210005 0.311045 0.208833 -0.205826 -0.207653 -0.459197 -0.294292 -0.336631 0.602740 0.422722 0.141846 0.303411 -0.147029 -1.100096 -0.330635 0.333189 0.264125 -0.228971 0.236417 0.720837 0.050814 0.441443 0.144519 0.038972 -0.813982 -0.121873 0.467622 0.873872 -0.006827 0.189884 0.257395 -0.033232 0.462595 0.081296 -0.696042 -0.292797 0.843361 0.455780 0.112557 0.760083 0.411915 -0.042408 -0.954287 1.011591 -0.576961 -0.560311 0.672681 1.067914 0.178997 -0.061204 -0.142863 -0.331512 0.400758 -0.463714 0.530554 0.508161 -0.817472 -0.078082 -0.590454 0.990046 0.580638 0.348263 -0.201128 0.251289 0.178229 0.373457 -0.137409 0.861112 0.263109 -0.204213 0.401980 -0.284595 -0.069053 -0.866893 -0.323169 -0.443040 -0.110853 0.298583 0.644430 0.027423 -0.946528 -0.299276 0.243867 -0.008514 0.101668 0.201718 -0.087509 0.405468 0.292822 -0.785558 0.576139 -1.014260 -0.575834 0.474984 -0.924108 0.169048 -0.420203 0.091941 -0.242957 0.808226 0.708866 -1.117280 -0.402554 0.436974 
8 -0.164877 -0.485650 0.284889 0.076193 0.385525 1.143950 -0.170087 0.763732 -0.331109 -0.259170 0.427406 -0.753081 -0.309559 0.056563 0.758419 0.080909 -0.555417 0.273654 0.916661 -0.639366 -1.344342 0.004077 0.546972 0.117881 0.035424 -0.110830 0.171092 -0.372427 0.283627 -0.172839 0.411223 -0.533587 -0.238779 -0.581438 -0.361119 0.793373 0.650703 0.113451 0.504309 -0.145064 0.200001 -0.062715 0.419912 0.710328 -0.765499 -0.843546 0.355840 0.416666 0.429226 0.197285 0.413636 1.035518 0.129103 -0.359675 -0.534560 1.194420 -0.269353 0.094549 -0.966051 0.202733 0.804133 0.367424 1.187530 -0.130627 -0.528106 -0.722356 1.135610 0.180939 0.662593 0.086062 -0.991896 0.155690 0.231672 0.699559 0.329740 1.390220 0.047285 -0.974817 0.850972 -0.367846 -0.295043 -0.212083 -0.757596 0.107048 0.463926 0.582618 -0.445098 0.035759 -0.229143 -0.179594 0.888781 -0.251704 -0.147205 0.411880 -0.288943 0.489555 -0.049490 0.069577 -0.480768 -0.124042 0.043406 -0.460882 0.046585 0.283994 0.905977 0.636379 0.860231 -0.318450 -0.367665 0.454968 0.507249 0.049497 0.519656 0.188700 -0.047021 -0.181949 0.051517 0.720190 0.323309 -0.390914 -0.188141 0.959516 -0.436785 1.050268 0.290285 -0.850169 -0.258809 0.137474 0.430864 -0.478661 -0.157048 -0.640567 0.635159 0.586346 -0.472876 -0.247230 -0.268060 -0.288956 -0.190235 -0.153131 -0.028914 0.152043 0.782812 0.372899 0.647559 0.430804 0.108024 0.866513 -0.513935 0.616036 0.048068 -0.234327 -1.066132 -0.986679 -0.239578 -0.257579 0.459871 -0.297765 -0.389244 0.508154 0.206965 0.024632 0.447165 0.202815 -0.193401 0.639158 -0.127557 -0.254029 -0.669977 -0.268342 0.562651 0.090306 0.314683 -1.077201 -0.257983 -0.357553 0.588042 0.333960 0.342175 -0.211839 -0.081057 0.312988 -0.144003 0.117811 -0.415169 -0.106098 0.226685 0.638515 0.047335 -0.275635 -0.350291 -0.467666 0.336089 -0.766624 -0.642531 0.329700 -0.043061 0.803403 0.544879 -0.370995 -0.285510 0.459363 -0.928788 0.745113 -0.134375 -0.090285 -0.789855 -0.062172 -0.111699 1.420540 -0.457866 0.383589 -0.416965 0.702837 -0.022982 0.231142 0.589104 -0.280675 -0.494704 0.407527 -0.288915 0.908098 -0.050321 -0.533589 0.154402 0.608711 -0.823950 -0.006852 0.276182 -0.035986 0.297759 -0.761317 0.152466 -0.794341 0.061613 0.565290 -0.702472 1.066951 0.480022 0.420160 0.663843 -0.361715 0.265797 -0.198563 0.507696 0.570059 0.407907 0.088672 0.157767 0.299951 0.275978 0.156866 -0.100242 1.036674 0.144684 -0.531677 0.576888 -0.240943 0.138645 0.223405 -0.072014 -0.070002 -0.588692 1.132829 -0.109668 0.746786 0.391704 1.091643 0.111599 0.836350 -0.445934 -0.564464 0.118918 -0.803818 -0.708685 0.338052 0.446199 0.465849 0.323301 0.000164 0.230896 0.047039 0.300784 -0.114764 -0.163850 0.615657 0.494168 1.114601 -0.961505 -1.032156 -0.568107 -0.298176 0.122490 0.212183 -0.578708 -0.599909 0.340616 0.542842 -0.075175 -0.524101 0.955447 0.371356 0.036772 -0.565506 -0.305137 0.604581 -0.274047 0.550681 0.093313 0.197071 -0.148780 -0.009107 -0.311969 0.082879 0.161048 0.207654 0.423452 -0.676753 0.519793 0.106850 0.805391 -0.532965 -0.167494 -0.069911 0.663160 0.163772 -0.524384 -0.491507 -0.252503 0.538819 0.264451 -0.142084 0.089343 0.506636 0.377683 -0.220889 0.695901 -0.558800 0.251353 -0.142575 0.621620 -0.816449 -0.011921 -0.733292 -0.358807 0.008038 0.092366 -0.895137 -0.818551 -0.210933 0.235016 0.044873 -0.028502 -0.309323 0.886841 -0.902034 -0.675309 0.663044 0.359802 0.342118 -0.045637 -0.121276 -0.124919 -0.443432 -0.345374 -0.121318 -0.336563 0.530821 0.847964 -0.813449 0.557436 -0.908145 -0.413000 -0.098620 0.033724 -0.168624 0.400330 0.332011 -0.719189 -0.374854 -0.104027 -0.817024 -0.531491 -0.841179 -0.170160 -0.257661 0.053944 0.077087 -0.389420 -0.529877 0.387178 -0.355629 0.672353 -0.292660 -0.107160 0.675440 -0.158395 0.140351 -1.383326 0.899748 0.500761 -0.332718 -0.255118 0.727850 0.946360 -0.024558 -0.242026 -0.501511 1.706141 -1.105964 0.205012 -1.171708 0.308907 0.047960 0.794825 0.202658 0.217384 -0.041942 -0.544230 -0.662402 -0.101134 0.514076 -0.662821 -0.652732 -0.386728 -0.154684 0.374865 -0.335133 0.715517 0.455816 0.006450 -0.558107 -0.266134 -0.051606 -0.342186 -0.391344 0.109604 0.295800 0.352860 0.330857 0.306240 0.247658 -0.711509 -0.725766 -0.335604 0.428756 0.037674 0.554571 -0.733353 -0.441977 0.285211 -0.221827 0.324800 0.476902 0.101280 -0.312219 -0.878408 1.053964 -0.064272 -0.285874 -0.234086 0.189183 0.533398 -0.425046 0.000997 -0.145333 -0.231761 -0.545289 0.359141 0.791577 0.680654 0.996660 -0.027368 0.414065 0.696782 -0.114652 0.863489 0.153697 0.488723 -2.020248 -0.577149 -0.265068 -0.091802 -0.187201 0.935327 0.501073 0.108593 -0.435836 0.915639 -0.599608 -0.260706 0.466352 -0.003354 -0.011227 0.718557 -0.601849 0.350474 0.731426 -0.956618 -0.943967 
i 0.722194 0.385219 -0.152887 -0.027256 0.035330 -0.429103 0.315352 -0.397628 -0.138002 -0.404071 -0.167469 -0.109318 -0.409097 0.819949 0.055036 -0.150643 0.374586 -0.167553 -0.081495 0.004077 0.018813 -0.119886 -0.740491 -0.004157 -0.481532 0.226353 -0.520480 -0.176572 0.815620 -0.036034 0.064634 0.695570 0.280597 -0.088405 -0.237899 -0.716037 -0.336782 0.741404 -1.015902 -0.321786 0.261914 -0.240642 0.990564 -0.190693 -0.282631 1.134658 -0.667675 -0.440858 -0.377014 0.394634 0.026836 -0.207507 0.006782 0.142946 -0.069874 -1.139030 -0.140355 -0.024260 -0.162083 0.097623 0.684672 0.303317 0.261432 0.005010 0.463190 -0.297042 0.598911 -0.371929 -0.370093 -0.166355 -0.749410 -0.382944 0.604265 0.377571 -0.241516 -0.284077 0.129814 -0.449841 0.633197 0.434783 0.499178 -0.558576 -0.052823 -0.113474 -0.004753 -0.524906 -0.032140 -0.248215 0.330491 -0.634616 -0.026514 0.636860 -0.758207 -0.000732 -0.377117 -0.164053 -0.049430 -0.158674 0.324475 0.482667 -0.483349 0.172459 0.248765 0.430873 0.072829 -0.347473 0.120850 -0.088398 -0.709914 0.248857 -0.210236 0.307066 0.590287 -0.016394 -0.985800 0.075940 0.076778 0.045015 0.104941 -0.385384 -0.050311 -0.786016 -0.011138 0.246873 -0.263363 0.677853 0.866256 -0.170360 -1.045285 0.063833 0.004097 -0.542443 -0.139264 0.670965 -0.160613 0.352193 0.407999 0.021567 0.564915 -0.520808 0.841208 0.451031 0.000902 -0.987370 0.239346 0.250116 0.055614 -0.155828 0.311110 -0.213289 0.094251 0.195181 1.037726 0.175595 0.244430 0.083969 -0.855843 0.335359 -0.068000 -0.065744 0.721733 0.695516 1.002956 0.280102 -0.048285 -0.299092 -0.254390 -0.052576 0.122382 0.083782 -0.454682 0.131549 0.043433 0.548764 0.218290 0.434388 -0.635595 -0.229447 0.156813 -0.132895 -0.243332 0.287297 -0.410629 -0.290868 0.416765 0.256981 -0.098302 -0.211804 0.428524 -0.369328 -0.674940 -0.464134 -0.152063 -0.719612 0.697776 -0.131006 0.123347 -0.355235 0.555908 0.156934 0.886471 -0.214437 0.102763 0.627656 -0.756630 -0.388611 0.008760 0.705507 -0.799815 -0.490907 -0.137896 0.289174 0.895940 0.012186 0.096954 -0.365199 -0.321099 0.255495 0.356051 -0.427192 -0.143232 0.574377 0.109675 -0.159439 0.637696 -0.427922 -0.540196 0.388381 0.388609 -0.744715 0.120431 -0.724426 0.015095 -0.375075 0.516118 -0.023488 0.312947 0.192044 0.042157 0.221336 0.234476 0.594698 0.180795 0.136015 -0.084973 -1.429278 0.362347 -0.245090 0.297697 0.703558 -0.203411 0.071370 0.772448 0.022882 -0.177302 0.024982 -0.274288 -0.240414 0.541607 -0.117706 0.239111 0.013121 -0.732636 0.299587 -0.270252 0.161884 0.075756 -0.529243 -0.074177 -0.291573 0.472448 -0.488717 -0.549367 -0.162898 0.115381 0.091375 0.998575 -0.431256 0.459724 0.473888 -0.257316 -0.327860 0.708859 0.093087 0.453096 -0.445762 -0.028972 -0.227367 0.867161 0.725586 0.839849 -0.197228 0.012828 -0.062020 0.371068 -0.247404 -0.214074 -0.417229 0.331148 0.114869 0.570378 -0.775652 -0.716652 0.084212 0.280237 0.162741 0.259896 -0.128657 0.087508 0.163092 -0.435834 -0.354803 -0.552277 -0.070271 -0.199866 -0.666541 -0.391248 0.582780 -0.473919 0.118245 -0.617882 -0.170117 -0.113377 -0.070237 -0.654281 -0.028067 -0.519096 0.092259 0.664678 -0.509925 -0.756490 -0.163791 -0.376032 -0.367090 -0.035824 -0.018241 0.228937 -0.767936 0.370845 0.005475 -0.464647 -0.220446 0.688887 0.536210 -1.091063 0.449883 0.247422 -0.245891 0.118952 -0.005028 0.530983 -0.931849 -0.167486 -0.339223 0.180480 0.093029 0.672170 -0.553580 -0.276976 -0.129240 0.356822 -0.427122 0.234168 0.048900 -0.096077 0.448674 0.401880 -0.969132 0.476549 0.487408 -0.411505 0.172770 0.419558 -0.529114 0.605595 -0.211800 -0.147996 -0.584622 -0.334758 -0.246603 -0.761324 -0.309550 0.668467 -0.597299 -0.128133 -0.111606 -0.265342 -0.182880 0.730350 -0.757131 0.619253 -0.162456 -0.383718 -0.957064 0.406342 0.019446 0.006473 0.275600 -0.039909 -1.027636 0.259808 -0.380349 0.083927 0.585257 -0.699266 0.429187 0.519397 -0.063872 0.313452 -0.868115 0.197100 -0.387275 0.188910 0.259165 0.614581 0.873331 0.238509 0.899760 0.006928 0.141169 -0.045265 0.863532 0.625484 0.608563 -0.323216 0.425590 0.827068 0.533972 -0.209671 -0.537460 -0.085948 -0.236291 0.463549 0.395847 -0.287288 0.389517 0.342023 0.078617 0.316383 0.549564 0.026726 -0.639744 0.927113 2.022647 0.251636 0.073159 0.659292 -0.097807 0.242263 -0.326754 0.859021 0.230330 -0.849746 0.828728 -0.343397 0.634785 0.069959 -0.283385 0.182998 -0.096874 0.031918 0.085971 0.068134 0.484288 -0.142423 -0.439503 -0.135715 -0.299139 -0.784031 -0.755379 -1.086755 -0.289894 -0.213555 0.120884 -0.044625 -0.160899 -0.532050 -0.371990 0.121490 -0.359798 0.813790 0.454270 -0.024918 -0.371182 0.279527 -0.452031 -0.835310 -1.225665 -0.238504 -0.086550 -0.395218 0.095011 -0.431094 0.223602 0.368376 -0.350127 0.469765 0.116460 0.110488 0.358075 
b -0.615271 -0.101020 -0.508115 0.869950 0.192265 0.418510 0.754520 0.284217 0.249373 -0.063264 -0.276552 -0.265327 -0.564008 0.759900 -0.096211 1.062451 1.696104 -0.938644 0.375494 0.145607 -0.057183 1.329559 0.211900 0.729383 -1.412883 0.381698 -0.338934 -2.233110 1.076704 0.149330 -0.643905 0.947469 0.062468 0.354354 -1.743322 -1.787158 -1.291930 0.694471 -0.870176 0.173972 0.924005 -0.455029 0.659986 -1.607944 -0.011483 -0.035892 -0.103710 -1.242382 -2.003534 1.857197 0.185731 0.103524 0.591446 0.754342 -0.840825 -1.097873 -0.472834 0.398728 -0.054702 -0.540962 0.845459 1.059967 0.654601 -0.502913 0.438404 -0.237668 0.850586 0.362161 -0.034528 0.025365 -1.268325 -0.971585 -0.082000 0.910996 0.632317 -0.740751 0.545151 -1.696693 0.326318 -0.280419 0.117126 -0.391097 -0.030485 -0.198401 0.805141 0.218013 -0.612043 -0.997133 1.012912 -0.862491 0.779835 0.167017 0.008958 0.226982 -0.670824 1.020248 -1.373012 -0.102576 0.806249 -0.055993 -0.404216 0.545104 0.076459 -0.516423 0.046732 -0.033150 -0.158272 0.042999 -0.537311 -0.060753 -1.252275 0.285989 0.947779 0.173179 -1.998972 0.063457 -0.401106 -0.003133 1.346801 -0.718039 -0.103856 -1.048254 0.490851 1.482766 -0.437596 1.279504 0.406363 -1.425494 -1.394417 0.433374 0.441172 -0.823639 -0.318557 0.834050 -0.552742 -0.644320 -1.064915 -0.932026 0.629518 -1.713376 1.017893 0.260187 -0.548985 -0.387799 -0.098163 0.172986 0.073239 0.745258 -0.115857 0.613234 -0.115388 0.640058 0.923998 0.339617 -0.613585 -0.646369 -0.174368 0.556167 0.085864 -0.346591 1.600149 -0.125481 -0.445769 0.238290 0.282004 -1.230102 -0.011533 -1.285418 -0.178465 -0.523826 -0.239780 0.395222 1.260770 0.945560 1.292627 -0.109410 -0.403210 -0.546912 -0.039534 0.098058 -0.347878 0.520669 -0.290766 -0.235565 0.811671 0.004606 -0.008131 0.693811 -0.479839 -0.321247 -1.432181 -1.020843 1.349842 -1.078735 -0.338698 0.878257 0.122755 -1.030886 0.935983 -0.238416 1.548375 -0.489397 -0.073406 0.617602 -0.451170 -0.289600 -0.161430 1.242670 -0.677329 0.936139 -1.002099 -0.319851 -0.357397 -0.657469 -0.785775 0.114747 -0.359494 -1.578447 -0.074736 0.278035 0.018038 0.337134 0.601438 -0.132991 1.229823 -1.125612 -0.867654 0.141737 1.382001 -0.415502 -0.376827 -0.491953 -0.807163 -0.323493 0.871467 0.212245 0.571143 0.470255 -0.029811 0.630212 0.890611 -0.538512 0.957632 -0.011483 -0.999173 -1.004374 0.476418 0.312951 -0.414678 -0.550355 -0.957202 -0.619526 1.450314 0.940613 -0.165725 -0.122797 -0.114197 -1.157692 0.215410 -0.442373 -0.023302 0.391965 -1.622865 0.405800 -0.344739 1.072997 0.244904 -0.026312 0.185533 0.977527 0.370962 -0.907886 -0.402060 1.196560 -0.258404 0.015995 0.987445 0.329884 0.705145 -0.780069 -1.278095 0.204138 1.259566 0.061025 0.476036 -0.443946 0.518887 -0.384278 0.054782 0.522249 1.303876 -1.037090 -0.067182 -0.285019 0.459550 -0.248681 0.677766 -0.459338 -0.126086 0.216236 0.852231 -0.141463 -0.996508 -0.151625 -0.179153 -0.544499 -0.945975 -0.322582 -1.031526 -0.374808 -0.083189 -1.118024 -1.547695 -0.452866 -1.822591 0.175342 -0.144511 0.241366 0.105864 -0.086429 0.025479 -0.286862 -1.521594 -0.474968 -0.901437 -0.823066 -0.601646 -0.235209 0.820438 1.032934 -1.083048 -0.301257 -0.515828 -0.221924 0.610505 -0.724658 0.518958 -0.305934 0.957997 -0.455961 -0.082293 0.720537 0.369400 0.020518 -1.156296 0.190915 0.620132 -0.136582 0.030594 0.250376 1.149060 -0.508714 0.150658 0.628503 0.451286 -0.658526 -0.342879 -0.904765 0.351917 0.023532 -0.922021 -0.533864 0.743036 0.036393 0.222559 -0.150245 1.116644 -1.236713 0.752838 0.793433 -0.173283 0.546876 0.266861 -0.507451 0.346018 -0.481244 0.707292 -1.105988 -0.411502 0.178671 -0.984011 0.288329 0.431861 -0.759190 -0.777189 -0.776735 -0.480402 0.582277 0.078415 -1.022401 1.441208 -0.811165 -0.384322 -1.485216 -0.010395 -0.645635 -0.107795 -0.124833 0.088398 0.100046 -0.092057 -0.332119 0.999903 0.817057 0.225460 0.979055 1.410682 -0.578694 1.800510 0.108546 0.229108 -0.612162 -1.166110 1.288825 0.743980 0.614089 -0.902923 0.803892 -0.401228 -0.343213 -0.289449 1.264812 1.429976 1.349649 -0.611467 0.303842 0.051833 0.131735 0.598061 -1.064239 -1.143238 -0.276031 1.112863 0.116265 0.571156 0.642260 1.316042 -1.133730 -0.485169 0.667956 -0.087091 -0.287723 1.218273 1.573850 0.145654 -0.315391 0.227457 0.232492 0.828991 -1.067488 -0.159184 -0.629683 -0.123275 1.510540 0.518537 0.763531 0.588635 1.338810 0.359187 -0.938015 0.211953 -0.643362 0.970853 -0.633867 -0.835686 -0.023819 -0.269114 -1.168377 -0.874165 0.454103 -0.581786 0.539773 -0.992196 0.270349 0.043941 -0.150487 -0.359108 0.371975 0.287867 0.065257 0.757950 0.760386 -0.565734 -0.620413 0.829086 -0.671108 -0.786720 -0.603459 0.562506 0.296010 -0.589571 0.930404 -0.882342 0.085549 1.496046 -0.345965 -0.267324 0.517748 -0.579838 -0.797148 
f -2.674350 -1.133741 0.749497 0.279321 -0.724906 0.804260 0.284331 0.148477 -1.147675 0.376357 0.025865 -0.011867 -0.605235 -0.062946 0.075567 0.751662 0.154445 0.835624 -0.571679 0.107598 -0.174496 0.237831 -0.292083 -0.103489 1.133073 0.423426 -0.450981 1.523565 -1.014187 0.127293 -0.635203 -0.473915 -0.465302 -0.389942 0.593597 -0.685371 0.272281 0.507673 0.730975 0.127766 -0.283273 0.583983 0.086764 0.138345 0.683954 -0.057333 0.112640 0.850617 0.622112 0.330204 0.167966 0.769388 -0.019345 -0.172446 0.168993 0.224767 0.310135 -0.212498 -0.833346 0.079703 0.139995 0.149689 0.073205 -0.083836 -0.148635 0.038410 0.660796 0.756051 0.473928 0.709170 0.146863 0.103607 0.031981 -0.325329 -0.894335 -0.059046 -0.334475 -0.164586 0.146754 -0.245299 0.137349 0.239822 -0.474989 0.059502 -0.303701 0.343210 -0.761122 -0.358550 0.051069 0.125885 -0.151150 -1.052189 0.433118 0.012175 0.252341 -0.559953 1.182008 0.256314 -0.267476 -0.451496 0.920975 -0.791084 0.031479 0.063095 -0.304518 0.452149 -0.141383 0.266559 0.073121 0.323296 -0.083668 0.070902 0.476265 0.135762 0.239984 -0.364099 -0.108229 0.729334 0.314369 0.322435 -0.432824 1.046640 0.816638 0.478254 0.400551 -0.440687 -0.893401 -0.450402 0.664254 -0.260803 0.351410 0.045276 -1.110152 -0.383607 -0.379298 -0.126379 -0.606806 -0.649160 -0.376746 0.594508 0.285098 0.059845 -0.051111 -0.547884 0.353386 0.547587 -0.592356 0.922388 -1.091336 -0.180057 0.185211 -0.676501 -0.608384 -0.301478 -1.032556 -0.443870 -0.380775 -0.521753 0.355483 -0.218668 0.070757 0.186100 -0.147981 0.187566 -0.271591 0.171865 0.055992 -0.576067 0.459732 -0.014750 -0.323677 -0.300341 0.055421 -0.996278 -0.480969 -0.007711 0.338412 0.561165 0.369594 -0.270523 0.018822 0.235122 -0.005136 0.189336 -0.117846 0.327921 0.040063 -0.340162 -0.262259 -0.733362 -0.180495 1.172002 -0.009739 0.062275 0.441676 -0.406400 -0.274128 0.721593 0.361614 -0.182763 0.997658 0.478486 -0.184849 0.778361 0.404425 -0.675130 -0.150793 0.543695 -0.592874 -0.280015 0.717573 -0.213550 0.094791 -0.086683 0.076818 1.532438 0.953064 0.167086 0.542250 0.370744 0.279124 -0.803148 -0.779494 -0.314793 0.411896 -0.098091 1.148158 -0.403620 -0.060163 -0.888170 0.083108 -0.078316 0.403615 -0.109967 -0.612081 0.193306 0.177189 -0.435143 0.560188 -0.469888 -0.236191 0.103563 -0.766464 -0.072117 0.704723 -0.091202 1.320813 0.685814 -0.217635 0.539202 0.069191 -0.059770 0.191704 0.709238 -0.030489 -0.794196 -0.345231 0.050941 0.223211 -0.315802 0.306066 0.334854 0.091087 -0.528569 0.193183 0.796631 0.509087 -0.165695 0.518000 -0.474780 -0.333005 0.083006 -0.334201 -0.392381 -0.205981 -0.682330 0.115425 -0.270592 -0.727131 0.148099 0.344641 -1.249840 -0.126021 -0.781643 -0.543528 0.117765 -0.113421 -0.289649 -0.273074 -0.507443 0.460086 -0.010628 0.667146 0.283877 0.053241 0.411253 -0.324152 0.274610 -0.235429 0.412809 0.187605 0.412357 -0.049086 -0.475237 0.400153 0.571633 -0.978907 1.011887 -0.285525 1.237296 0.665196 -0.095691 -0.038427 -0.145802 0.157776 -0.278331 -0.279427 -0.150265 0.376931 0.009209 -0.890552 0.398212 -0.448572 -0.530559 0.800243 0.643724 -0.233446 0.172725 0.526711 -0.182639 -0.136191 0.238966 -0.269218 -0.950329 -0.266103 0.872497 -0.024020 -0.140173 -0.096497 0.372622 0.009358 -0.905591 0.161638 -0.654835 0.025963 -0.114369 -0.064000 -0.529972 -0.564690 0.094725 0.489315 0.443788 -1.099524 0.577648 -0.145415 0.001326 0.527996 -0.047553 -1.153842 -0.394258 0.266498 -0.004015 0.409923 -0.264719 -0.035314 0.069066 -0.009718 0.004801 0.269802 -0.380337 -0.096290 0.070162 -0.697404 -0.263738 -0.004667 -0.331364 0.384519 0.620030 0.203645 0.016463 0.444395 0.479002 -1.045814 -0.045259 -0.948982 0.114940 -0.483399 0.164785 0.047566 -1.001671 -0.586907 -1.494785 0.211535 1.130902 -0.823376 0.637149 0.254056 0.369397 0.295779 -0.165345 0.555852 -0.030914 0.459882 1.284484 -0.087875 0.021669 -0.176642 -0.192488 0.378231 -0.210189 0.525703 -0.523929 0.377302 0.295054 0.784453 -1.069706 -1.009940 -0.933137 0.084183 -0.190970 0.595563 -0.024126 -0.470666 -0.259200 -0.360548 0.182567 -0.364280 0.307698 -0.595416 -0.289917 0.102428 0.050583 -0.048346 -0.488542 -0.389262 -0.144665 -0.838664 0.288273 -0.061139 0.534421 0.334188 -0.346857 0.505113 -0.314271 -0.605332 0.519221 -0.162849 -0.069710 0.151287 0.177612 -0.394090 -0.009752 -1.124139 -0.000514 -0.065944 0.366566 -0.046680 0.481573 0.071364 -0.142926 -0.088991 -0.233888 -0.320270 -0.116659 -0.196097 -0.489271 -0.443652 0.145937 -0.239384 -0.150867 -0.097515 0.046568 -0.507546 0.364923 0.423587 0.244452 0.204458 0.566487 0.247268 -0.042409 -1.446419 -0.504091 -0.063282 -0.242305 0.289702 0.233385 -0.612834 0.973608 0.373781 -0.848854 0.830511 -0.651230 -0.580838 -0.260784 0.194420 0.425645 -0.770681 1.371034 -0.084713 0.180729 
g -0.766048 -0.259628 0.064144 -0.373321 2.138173 -0.318536 -0.353670 -0.980665 0.231145 -1.340447 1.052334 -1.544320 0.462870 -0.035578 -0.054476 0.234217 -0.581684 0.264967 0.752909 0.516351 -0.269145 0.541128 1.372698 0.585681 -0.300812 0.451887 0.615821 -1.533134 0.048122 -0.519683 1.184705 -1.719967 -1.575282 -0.025924 1.717221 1.312750 1.781507 0.649181 0.313310 0.521083 0.237253 -1.861923 -0.634351 -1.044486 -0.210282 -0.134123 -0.139925 1.081465 -0.289917 0.088262 0.534767 0.347214 -0.166643 -0.183569 -0.509694 0.501882 0.226145 1.128992 -0.643829 -0.599997 0.687004 0.343877 0.165948 1.046160 -0.259109 0.487087 0.045184 0.370720 -0.523502 0.691310 -0.605626 -0.918908 -1.586891 -0.462968 0.500542 0.987222 1.235647 1.255875 1.096894 0.494128 -0.824715 0.572494 0.104827 0.766938 0.535585 1.568182 0.812453 0.473602 -1.795936 1.041282 0.837786 0.811360 -0.680209 1.359506 -0.458620 0.149290 0.138690 0.879611 0.574389 -0.368207 0.103842 -1.080221 -1.310763 0.820427 -0.948625 -0.135034 0.538797 -0.546296 -0.836480 1.322608 0.817817 -0.328567 0.696519 -0.296181 1.000575 0.176322 1.612472 0.530708 1.241989 0.041685 -0.957128 0.594723 0.384522 -0.690382 0.645560 -0.610545 0.779834 -1.018023 -0.298398 0.604445 -0.279802 -1.036247 0.022669 0.896609 -0.484933 -0.509378 -1.243624 0.499053 -0.660285 0.302553 1.235649 0.390898 -0.559965 -1.844493 -0.064910 -0.931808 -0.422451 0.313301 0.034855 1.796515 -1.455320 -0.117526 0.131316 -0.384137 0.827158 -1.077506 0.881760 -0.733894 -0.224091 0.297099 -0.085166 -0.730099 0.084194 1.040136 1.644962 1.179300 0.162025 0.326137 0.437244 0.577880 1.142800 0.339138 -0.485963 -1.015303 1.074283 -1.047843 0.420900 -0.018831 -0.893336 0.079951 -0.996404 -0.062275 0.064002 -0.710821 -0.079292 -1.702252 0.040387 1.198681 -0.489757 -0.637902 -1.337446 0.471333 0.420978 -0.577094 -1.376485 1.348981 1.076440 0.376035 0.703952 0.310568 -0.546663 -1.953299 1.300266 0.076983 -1.293327 0.246803 -0.980523 0.118957 0.968049 0.399155 -0.885412 0.238202 -0.591020 -0.373030 0.838369 -0.978268 -0.112674 -0.029346 -0.575200 -0.376763 0.646832 -0.368744 0.908841 0.379918 0.381145 0.229000 -1.222432 0.200785 0.779650 -0.085812 1.539910 -0.275806 -1.227936 0.346440 -0.708031 0.000433 0.451959 0.638100 1.531207 0.434974 0.921922 -0.205429 0.514412 0.239305 0.361646 0.791869 0.271061 -0.524991 0.471454 0.160113 -0.305267 0.487570 -1.797562 1.322919 0.144657 0.302381 0.296685 0.485374 0.315514 0.474614 0.443683 0.451105 0.203557 1.256874 -0.355754 0.676114 0.930555 0.319039 1.270270 0.528687 -1.408214 0.123816 0.638208 -1.347703 -0.019773 0.831679 -0.522261 -0.302919 0.996048 0.587513 1.286887 0.002327 0.075962 0.625127 -0.263097 -0.032435 0.219958 1.525078 -1.128610 -0.692073 -1.525285 -0.500166 0.612829 1.009871 -0.817161 -1.609426 0.677937 1.221629 0.121134 -0.881706 -0.756707 -0.621937 -0.284219 -1.554144 -1.016677 0.454809 0.814899 -1.548810 -0.337362 0.572811 -0.597874 1.823364 1.305588 -0.839696 -0.910403 1.298488 0.222004 2.144650 -0.300689 0.219290 0.270930 0.375964 -0.965209 -1.414245 0.159782 1.070460 -0.525708 0.265643 -1.077016 0.473470 1.012671 -0.099638 0.306178 0.227554 0.578555 -1.707927 1.083430 -1.570609 -0.078589 -1.451856 -0.521396 0.850540 -1.977697 0.257136 0.301215 -0.659741 -0.437919 0.514575 -0.243682 -0.365663 1.450790 -0.736446 0.843161 -0.250647 0.091491 -0.874434 -2.250671 0.408571 -0.534117 0.072761 -0.586165 0.390788 -0.444527 -0.592990 1.253005 0.887936 1.385961 -0.314019 1.057609 0.291346 -0.612115 0.284037 -1.534217 -1.878170 -0.588906 1.544969 -1.127566 0.153889 -0.224540 -0.791255 -0.049031 0.662964 -0.639610 -0.556287 1.187865 -1.428466 -0.138486 0.601282 -0.774684 1.655701 -0.316566 0.073755 -0.355988 0.868913 -0.053533 -0.474360 -0.778181 -0.344559 -1.107163 0.632503 0.093239 0.142398 2.039294 0.271690 0.597358 -0.295140 -1.384847 0.510039 1.315594 -1.583426 1.617108 -1.161808 -1.080377 0.220514 0.116214 1.713173 0.278982 0.201173 -1.319551 -0.650999 1.883272 0.337235 0.108740 -1.371290 0.610198 -0.712311 -0.215163 -0.820413 1.604344 0.959934 0.208917 -0.043830 -0.587066 -0.464755 1.507254 -1.663580 0.129066 1.850159 -0.507085 -0.626931 1.832001 0.417103 -1.022863 -1.416876 -0.470310 0.485990 1.474924 0.147503 -0.444284 0.401958 -0.020831 -1.828200 0.569220 0.272621 0.184613 0.238900 -0.615468 -0.985386 0.984332 -0.045951 -0.090288 0.589723 -0.832336 -0.669235 -0.188794 -0.319137 0.075905 -0.747116 -0.270378 1.539324 0.154377 -0.502406 0.024149 -1.666190 1.049374 -0.417235 1.191480 0.129446 0.123865 -0.370831 0.000356 -1.360550 0.987370 0.799474 0.613066 2.909266 0.672252 -0.336910 0.708064 -0.008893 -0.087366 3.028890 -0.621852 -0.777893 -0.024907 -0.078275 0.228672 0.055452 0.345332 -0.893855 
e -0.146697 -0.104694 -0.333014 1.046566 -0.305843 0.505199 0.081198 0.173705 0.275016 -0.034483 -0.429094 -0.019052 -0.171329 -0.151650 0.930889 1.085568 0.046345 -0.074412 -0.316110 0.331188 -0.375407 0.678197 0.108071 -0.427344 -0.543150 -0.725643 0.049660 0.145059 -0.066939 -0.749652 -0.287610 0.529754 0.621902 0.130579 0.021662 0.175822 -0.221344 -1.013432 0.684504 -0.007020 -0.100724 0.929448 0.209428 0.637809 0.488666 -0.775208 0.395035 -0.541082 0.010455 0.243218 -0.599664 -0.143841 0.199443 -0.060870 0.261262 0.755883 -0.905013 -0.303363 -0.330966 -0.846191 0.129130 0.389198 0.505576 -0.350744 0.741743 -0.323213 0.510667 0.165163 0.020247 -0.317173 -0.237100 0.992958 -0.261974 0.525627 0.675140 0.111186 -0.684853 -0.835308 -0.033253 -0.502474 -0.108564 -0.203711 0.409680 -0.890567 0.613245 0.010017 -0.228758 -0.261701 0.653354 -0.304573 0.369824 -0.352538 0.153028 0.098116 -0.527799 -0.042124 -1.264208 -0.750344 -0.065896 0.974180 -0.308455 0.483517 0.601081 -0.787418 1.061233 0.234097 0.094247 -0.386282 0.380453 -0.257769 -0.156986 0.141200 0.106603 -0.016088 -1.708832 -0.968699 -0.797726 -0.184560 0.116289 0.588838 -0.015674 -0.127542 -0.332738 1.215847 -0.488984 0.366179 -0.119684 -0.159504 -0.334862 0.543442 0.554444 0.187981 -0.384219 -0.382477 0.138327 -0.602604 0.008316 -1.069252 0.793797 -0.516112 -0.089518 -0.011019 -0.860752 1.102289 0.306235 -0.230962 0.357308 -0.161536 0.071541 0.199018 0.806229 0.771548 0.064160 0.973581 -0.063864 0.056513 1.328180 0.527394 0.766961 -0.612579 0.520260 -0.583623 -0.744379 -0.098504 -0.595885 -0.321821 -0.368912 -0.837199 -0.947324 -0.573434 0.268923 0.273163 0.931426 -0.155253 0.137216 0.580029 0.010077 -1.220272 0.354052 0.327886 0.117657 0.372696 0.042341 -0.249484 -0.386546 -0.078990 -0.394695 -0.247266 0.218572 0.621203 -0.654484 0.076845 0.212658 0.560918 0.498266 0.270468 -0.405449 -1.314725 -0.298739 -0.256054 -0.161594 0.785933 -0.011626 0.192478 0.818428 0.349722 0.063166 0.442689 0.599858 0.229020 -0.145609 0.264794 -0.504521 0.269950 -0.652781 -0.012684 -0.410337 -1.017255 0.507772 0.136297 0.174923 -0.926803 0.676750 -0.591456 0.858486 0.514364 0.032509 -0.470992 0.351739 0.482515 -0.487737 -0.219910 -0.217300 -0.147898 0.121437 0.779466 -1.433111 0.554205 -0.910445 0.161749 0.554542 -0.358245 0.607115 -0.046035 -0.086352 -0.046035 -0.458824 -0.165713 -1.077702 -0.385420 0.029919 0.468624 0.593288 -0.022499 0.072807 -0.026904 -0.216573 0.473074 -0.676454 -0.197376 -0.174198 0.223769 -0.669828 0.208662 -0.223148 -0.335212 0.596339 0.195916 -0.112021 0.626887 0.523416 -0.449339 0.429427 0.985090 0.098101 -0.159783 -0.492919 0.737814 -0.796987 -0.487616 -1.817281 0.811632 0.216211 0.073851 0.293533 -0.255989 0.366523 -0.490811 -0.375689 0.057744 0.322003 -0.294619 0.269146 -0.524792 0.006190 0.003642 0.315952 -0.411557 0.190905 -0.129837 0.197788 0.556656 -0.241853 0.194689 -0.310568 -0.058839 -0.024777 -0.464909 -0.600788 -0.031290 0.173672 -0.226684 -0.678597 0.139530 -0.515209 0.538294 -0.240302 -0.659101 0.316781 0.240755 0.227485 -0.484924 0.502453 0.234606 -0.156416 -0.517823 -0.066987 0.026111 -0.369066 -0.025693 -0.541682 -0.084565 0.544432 0.497481 0.602389 0.182652 0.826696 0.894249 -0.054167 -0.246500 0.657787 0.216632 0.669439 0.033479 0.100340 0.605367 0.026211 -0.460400 0.485512 0.213902 -0.475641 0.149705 0.061135 -0.054655 -0.248675 -0.581412 -0.236241 0.304460 0.718671 0.272874 -0.346753 -0.803877 0.150762 0.285665 -0.208675 0.192111 0.030029 -0.225480 0.179091 0.084601 0.492847 -0.373257 0.729576 0.595857 0.213239 -0.482868 0.964090 -0.629915 -0.725973 0.581601 0.227135 -0.683243 0.793222 0.242102 -1.442585 0.422497 0.139262 0.669419 0.454367 -0.940679 0.464430 -0.466596 0.682198 0.049576 0.059985 -0.223708 0.136882 0.109488 -0.288532 -0.162912 -0.159885 -0.132404 0.631874 -1.257964 0.167959 0.544036 0.881065 -0.457827 0.221255 0.604202 -0.229921 0.592955 -0.213325 0.149404 0.463674 -0.100321 -0.249328 -0.630566 -0.195347 0.724499 -0.553062 0.191374 0.118526 0.477809 -0.183680 0.730178 -0.623337 0.606516 -0.172320 -0.405504 -0.210896 0.762003 0.940580 0.567909 -0.372444 0.166215 0.276880 -1.000583 0.114293 0.497805 -0.999347 0.020772 0.256077 -0.479282 -0.181747 -0.580822 -0.662861 0.213579 -0.162447 -0.922681 -0.077054 0.527884 0.582824 -0.196968 0.230524 -0.456319 -0.105020 0.783072 -0.281421 -0.021147 0.180514 0.040977 0.946128 0.948571 0.117508 0.423280 -0.635075 -0.173120 0.315871 -0.205612 1.105951 0.786940 0.134446 0.659805 0.693473 0.701228 -0.075809 -0.275846 0.743473 -0.875737 -0.065612 -0.023089 -0.689139 -0.812676 0.126619 -0.167386 -0.405593 -0.548320 -0.049796 0.886465 -0.607947 -0.550781 -0.767146 0.748394 0.685092 -0.404215 -0.413625 -0.434362 -1.119296 -0.229082 
h 1.550469 0.177223 0.121888 -0.723389 1.110903 -0.908946 -0.047833 -1.308859 1.964050 -0.007324 -0.971807 -0.185124 0.743656 -1.057804 0.363265 0.927445 0.482034 -0.639730 -0.241337 0.269576 -0.885510 -0.078805 2.185817 0.556248 -0.032502 0.565957 0.124421 -0.150641 0.623815 0.155085 -0.531668 -1.454534 -0.273304 0.673077 0.797636 -0.590389 1.091734 0.163104 -0.336185 0.573516 1.292220 -1.004481 -0.070519 -1.044669 -1.016361 -0.564495 0.368986 -0.521680 0.301330 0.855371 -0.204822 -0.048486 0.556243 0.319764 -0.112776 -1.356502 0.007010 0.092024 0.955065 -0.495875 1.105783 0.713658 1.228584 -0.153443 -0.355343 -0.270544 0.236949 -0.322028 -0.096797 0.255734 -1.222169 -0.510880 -0.977438 0.617746 0.570884 1.138997 0.378037 0.108656 0.130998 -0.691348 -1.627638 -0.437890 0.124365 0.236490 1.577282 0.234188 0.200841 0.487125 -0.336491 0.165027 -0.114843 2.375617 -0.076162 0.879829 -0.885945 0.593796 -0.825436 -0.741125 -0.236749 -0.244964 0.012927 -0.682212 -0.490093 1.127749 0.245876 -0.104393 0.948611 -0.304483 -0.358219 0.043406 -0.664547 -0.740072 0.090761 -0.562697 0.306864 0.635496 -0.484088 -0.163233 0.939887 0.492021 -0.210718 -0.111734 0.474410 -0.625752 0.053385 -0.661594 0.301815 -0.492347 -0.269506 0.548032 -0.075102 -0.767865 0.596178 0.627348 -1.389120 -1.681801 -1.183782 0.143666 0.012635 -0.028995 -0.018003 0.510446 -0.173601 -0.877914 -0.654788 0.703194 -0.902064 0.934640 -0.567192 0.705290 -0.047288 0.285840 -0.000305 -0.096863 1.153499 -1.125824 1.024963 0.019227 0.425687 -1.109024 0.501558 -0.743156 -0.685863 -0.564576 0.901156 -0.317864 -0.265959 -1.032615 -0.012877 -0.152307 0.652597 0.257306 -0.694018 -1.395522 0.888994 -0.351431 -0.873749 -0.946292 -0.656954 1.123253 -0.956245 -0.882951 0.008692 0.853340 0.655971 -1.350874 -0.087196 0.108733 -0.393853 -0.262390 -1.690979 -1.237946 1.394349 -0.213326 -1.006932 0.379272 0.413333 -0.456046 0.388073 0.594739 -1.114326 -2.349368 -0.395510 -0.024959 -0.031043 -0.263976 0.334727 0.626603 1.079394 1.206475 -0.694818 0.653235 0.226304 -0.385758 -0.006952 0.803376 -1.153530 -1.741064 -0.173816 -0.035981 -0.322599 -1.027850 1.197732 0.076656 -0.302112 -0.018649 -0.246390 0.124043 -1.508841 -0.016061 -1.084795 -0.221314 -0.750617 -0.061710 0.250798 0.237929 0.471528 1.079459 0.735549 0.512154 0.382037 0.051043 0.045651 0.673797 -0.123496 0.710680 1.134619 -0.633587 -0.105396 -0.793658 -0.249819 -0.370742 0.423572 -0.150114 0.690760 0.184823 1.095768 -0.405359 0.152335 -0.416904 0.054101 0.274396 -0.702625 0.749744 -1.081115 -0.393814 0.349420 0.406734 0.459690 0.357695 0.044561 -0.126738 0.319841 0.481582 0.143393 -0.361228 0.892819 -0.942646 -0.493649 0.366711 0.225864 0.862483 0.516282 -0.155209 -0.370113 -0.496904 -0.724123 -0.090976 -0.145147 0.748588 -0.561330 -0.681959 0.997629 0.257514 -1.072034 -0.594270 1.811415 -0.532230 0.834808 0.808295 -0.543919 1.187927 0.537337 -0.351987 -1.613809 0.458525 0.662514 -0.818286 0.276763 0.229179 -1.949330 0.243555 1.208880 -1.235081 -0.650990 1.062220 -0.152265 0.742226 0.917947 0.737121 -0.151034 -0.385321 -0.410527 -1.530284 -1.259001 0.254747 0.250515 0.880685 0.433350 0.497437 -0.118735 -0.085148 0.558443 0.185483 1.057410 -0.540733 -0.376181 -0.663560 0.184081 -0.581788 0.689691 -0.108944 -1.292650 0.410488 0.052664 1.058507 0.359774 0.096233 -0.158684 0.460892 0.269305 0.410590 -0.080622 -0.890777 0.130660 -0.083601 -0.939437 -0.405316 0.550876 -0.631438 -1.250956 0.010605 1.161387 1.074481 0.569764 -0.121895 0.586354 0.362301 0.421381 1.425472 0.510054 0.264903 -0.655605 -0.935722 0.461984 -0.163854 0.951080 -0.794802 -0.737727 0.495504 -0.476600 0.661145 -0.252402 0.409203 0.457623 -0.965242 0.578295 0.866816 -0.501898 1.240194 -0.129298 -0.675250 -1.081445 -0.492682 -0.955161 0.413984 0.616854 0.043061 -0.839959 1.185225 1.828158 -0.257832 0.656873 0.709103 0.211032 0.490977 0.240099 0.173439 1.877804 -0.062305 0.860077 -0.951677 -1.246748 0.588128 -0.300822 1.041936 -0.096859 -0.058553 -0.253870 -0.104780 0.517998 1.550963 0.950375 0.246685 -0.628320 0.525643 -1.429700 -0.363766 1.872893 -0.153241 0.096559 1.430979 -0.172255 0.826337 0.281225 0.141461 0.832149 0.696675 -0.138389 0.308673 1.558913 1.049998 -0.147376 -1.820425 0.194224 -0.465388 -0.606616 0.771933 -0.795202 -0.144376 -1.137464 -1.164406 1.071225 0.296160 -0.626000 -0.104550 0.109201 1.384785 0.167733 -0.640510 -0.050284 -0.251409 -0.205833 0.448801 -1.462765 -0.772643 -0.043452 -0.658575 -0.547104 -0.338480 0.872684 0.067751 -1.004282 -1.456286 0.140959 0.875412 0.761966 -0.744606 -0.050237 0.752370 2.051077 -1.155225 -0.934079 -0.117314 0.761969 0.681439 -0.023545 -0.121992 -0.067206 0.710735 0.335131 1.012285 -0.330946 0.340530 0.239214 -0.355441 0.882354 -0.559615 -0.529999 -1.001410 
t 1.127342 0.271003 0.075317 0.181110 0.224654 -0.165033 -0.235392 -0.073728 -0.037310 0.376563 -0.489786 0.746031 -0.011812 0.359240 0.316578 -0.295219 0.415636 -0.036744 -0.116973 -0.175948 0.024587 -0.373242 -0.907347 0.154401 -1.138408 -0.597846 -0.221465 0.284190 0.567004 -0.037708 0.295649 0.456708 0.158149 -0.093279 -0.068791 0.131814 0.068723 0.438343 -0.363411 -0.281195 0.443385 -0.110278 1.027727 0.029254 -0.496480 0.565624 -0.372716 -0.483465 -0.017980 0.507314 -0.048291 -0.130232 0.093621 -0.320257 0.049196 -0.497466 -0.080314 -0.200777 0.488807 -0.000885 0.824877 0.216104 0.023203 -0.179435 0.241781 -0.199224 0.323767 -0.198063 -0.057271 -0.263450 -0.208347 -0.064525 0.454489 0.404525 -0.088491 -0.163676 -0.361331 -0.665515 0.339889 -0.069076 0.570760 -0.043876 0.034228 -0.191111 0.351663 -0.636489 -0.372526 -0.278944 0.136915 -0.707572 -0.236328 0.379075 -0.507404 0.049199 -0.306272 -0.491518 -0.131247 -0.199127 -0.289755 0.737762 0.050077 -0.019085 -0.209481 0.367157 0.122982 0.083682 0.240940 -0.128696 -0.388007 -0.016114 0.454250 0.743199 0.651369 0.194160 -0.467425 -0.144748 -0.321319 -0.127481 -0.208942 0.032842 -0.273961 -0.489667 0.630821 -0.325088 -0.031494 0.009181 0.137450 0.358425 -0.338110 0.157447 0.225425 -0.287565 -0.084622 0.349408 0.213709 0.200958 0.331009 -0.427436 0.265042 -0.213943 0.445913 0.216363 0.498574 -0.260683 0.510744 0.166381 -0.096682 -0.215256 0.566773 -0.165630 0.094800 0.038550 0.178929 0.154691 0.311928 0.060777 -0.404353 0.114234 0.188922 0.290287 0.340131 0.312189 0.644446 0.074715 -0.268457 -0.389514 -0.723065 0.206814 0.256902 0.169185 0.119104 0.199459 -0.331645 0.509024 0.192480 0.382464 -0.168678 -0.124804 -0.064847 -0.122151 0.178991 0.079553 -0.045590 -0.157933 -0.174625 0.232173 -0.020847 0.063417 0.347340 -0.064613 -0.910901 -0.415308 -0.188211 -0.357642 0.823620 0.174198 0.273489 -0.346149 0.295942 0.519767 0.414513 0.001307 0.076739 0.050983 -0.204304 -0.466969 0.044399 0.340568 -0.212978 -0.400732 0.011917 0.698217 0.594478 0.289257 -0.184836 -0.149915 -0.295345 -0.000860 0.706181 0.269806 -0.114355 0.177912 0.422869 -0.117887 0.477934 -0.307957 -0.789202 -0.057194 0.427631 -0.008543 0.577302 -0.979339 -0.391480 0.024858 0.625013 -0.018958 0.013687 0.241601 -0.242419 -0.090307 -0.023014 0.678272 -0.083290 0.012644 -0.287477 -0.678470 0.176248 -0.196262 0.101799 0.905518 0.230885 0.107950 0.451712 -0.155710 0.062810 0.152169 -0.308844 0.023760 0.423782 -0.230544 -0.265094 0.069828 -0.563445 0.076648 -0.318849 -0.154430 0.097471 0.099007 -0.243022 -0.191865 0.611761 -0.186069 0.299050 -0.100740 0.095347 -0.061678 0.110663 -0.146750 0.342501 0.372611 -0.668982 -0.153530 0.238496 -0.066173 -0.147374 -0.679986 0.168713 -0.320399 0.593331 0.122525 0.461984 -0.288782 0.000220 -0.280132 0.273295 -0.564286 0.563794 -0.648676 0.226590 -0.215574 0.595868 -0.718741 -0.480763 0.106981 0.194319 0.459882 0.655907 0.196959 0.287998 0.264003 -0.454901 -0.213796 -0.215428 -0.207967 -0.384280 -0.306667 -0.078475 0.469692 -0.336153 0.001925 0.060132 -0.288236 0.158924 0.096180 0.050609 -0.286142 -0.203008 0.301452 0.322184 -0.184557 -0.374459 -0.073720 0.001615 0.145400 0.292151 0.227260 0.518381 -0.548823 -0.178270 -0.007549 -0.269014 -0.154326 0.869585 0.301309 -0.579782 0.599380 -0.087259 -0.041743 -0.048581 -0.343907 0.366882 -0.907285 -0.273882 -0.725101 0.359171 0.531859 0.238239 -0.392328 0.055825 -0.148564 0.631892 -0.287696 0.091726 0.563439 -0.310198 0.283830 -0.088929 -0.703396 -0.037847 0.212659 -0.131758 0.405872 0.411916 -0.049439 0.270760 -0.353643 0.166723 -0.325224 -0.575247 -0.329967 -0.169035 -0.219473 0.507902 -0.530594 -0.107000 0.107264 0.061027 -0.314773 0.953912 -0.801657 0.587282 -0.132904 -0.314972 -1.078369 0.005156 0.189142 0.702988 0.260025 -0.502213 -0.066990 -0.024924 -0.049887 0.014571 -0.059608 -0.236705 -0.098403 0.315378 -0.676805 -0.056780 -0.960060 0.167876 -0.564832 0.284747 -0.289011 0.627969 0.254837 0.417467 0.648085 0.265794 0.181758 -0.348728 0.416077 -0.115313 0.046233 -0.162323 0.875984 0.412149 0.364871 -0.113537 -0.227991 -0.028453 0.178252 0.327141 0.394071 -0.206943 0.259005 0.240919 -0.398744 -0.050193 0.552286 -0.398657 -0.390360 0.617736 0.482570 -0.512874 -0.184080 0.415672 -0.371752 0.052637 -0.243890 0.407495 0.244326 -0.561272 0.364788 -0.283967 0.115024 -0.207240 0.448845 -0.156512 -0.263898 0.137669 0.002138 0.153245 0.776040 0.042564 -0.784660 0.101509 -0.392808 -0.141577 -0.391839 -0.331936 0.239824 -0.252812 0.303686 -0.157189 -0.198354 -0.495233 -0.122850 0.209648 -0.511020 0.087627 -0.003932 -0.602615 -0.207760 -0.155471 -0.448125 -0.745634 -0.974373 -0.153683 0.413389 -0.263759 -0.510911 -0.161059 0.305638 0.403797 0.250029 -0.028606 0.013611 0.262451 0.234210 
